,E0,E1,E2,E3,E4,E5,E6,E7,E8,E9,E10,E11,E12,E13,E14,E15,E16,E17,E18,E19,E20,E21,E22,E23,E24,E25,E26,E27,E28,E29,E30,E31,E32,E33,E34,E35,E36,E37,E38,E39,E40,E41,E42,E43,E44,E45,E46,E47,E48,E49,E50,E51,E52,E53,E54,E55,E56,E57,E58,E59,E60,E61,E62,E63,E64,E65,E66,E67,E68,E69,E70,E71,E72,E73,E74,E75,E76,E77,E78
target_dataset:SNU-C5,0.17328477,-0.8532956,-0.4435152,1.8592376,-0.52173793,0.21164142,2.0637932,0.29143488,-0.6232283,-2.0091991,-0.3161824,-1.2981921,0.5693943,1.407047,1.3395255,2.2262225,-1.1447737,0.8704961,1.4057802,0.35227588,1.3895574,0.48235095,-0.12014551,0.109914176,-1.6332021,-0.45386207,-0.6525912,0.41655558,-0.08689622,-1.2123319,-1.4612852,-1.4886514,0.06461133,-1.0290098,1.4388868,-0.62926227,0.047550384,1.7936304,1.0137173,2.335106,-0.6211526,0.7166238,0.454192,0.55601674,0.57417494,-0.6198479,0.9895682,0.5770349,0.9519214,-1.1190984,-0.92737514,-1.5675389,-0.5915068,-0.91373366,1.3312428,0.45992556,0.80522263,1.4657797,0.8539331,0.53593576,-0.4017654,1.784551,-0.08956098,0.5031206,0.6837094,-2.6196146,0.804824,0.89373523,2.6744926,-0.98327625,0.66584796,-0.25232202,0.36665076,-0.9612942,0.513523,0.30784002,-1.7216883,-0.87591386,-1.0432198
target_dataset:COLO 205,0.083892286,0.8456412,0.9942051,0.83354694,-0.3160632,-1.8126801,0.7407557,-1.1174542,-1.5805292,-1.127592,-0.9150507,0.4269833,0.9419937,1.8489298,0.75550467,1.1137221,0.63026595,-0.6442565,-1.5480602,-0.44214684,0.0019064341,-0.6328851,0.18409967,-0.46673396,2.1947033,-2.4851136,1.0867695,0.75886047,-0.26668832,-0.58650875,0.4330498,-1.3517095,1.6066747,1.0110213,-0.10383792,-0.67310005,-1.2128016,-0.19299483,0.9678799,0.6906894,0.9953531,-0.22675234,0.1252376,-0.48158175,0.74683064,-0.7092299,0.36722764,-0.56350046,1.559108,0.018490996,-1.45735,0.13643593,-0.8308222,0.10885213,-1.6134434,-0.90729254,2.1951635,-0.07860947,0.46230868,-0.251453,2.0974834,-0.004546215,-1.6795583,0.6474165,-0.49203238,-0.37118378,-1.9702487,1.100937,-0.38550028,1.2335831,-0.358186,-0.6979537,1.8643947,0.27563322,-0.12403985,-0.5998046,-3.493403,0.5442451,0.20230225
target_dataset:KLE,1.2424816,0.23941499,0.81347406,-1.5420885,0.8894143,-0.42778537,0.023053892,0.13768193,0.773224,2.604126,0.22198385,-0.057420775,-0.7145441,-1.1687548,-0.2576509,-1.1355423,0.70483744,2.2165453,0.5372845,-2.2785697,-1.3450062,-0.66387683,-0.6713654,0.5941594,-2.382176,1.6421719,0.35086495,-0.64154446,0.22122182,0.18989524,-1.1820912,-0.797897,-1.4546528,1.3907217,1.0300695,-0.19975975,1.3524519,1.1065106,-1.5653533,0.46306568,-0.16721967,1.4904044,-1.8828654,-0.6281306,-0.3302081,-0.7959728,-1.6489785,-2.5956712,-0.030508453,1.0085232,0.85007715,-0.89821655,0.8777095,0.909071,0.8620988,-0.014379762,1.1773524,2.2342477,-0.59186673,-1.905892,0.5087344,0.9953077,-1.4487512,-1.016165,1.5175791,-0.71956646,1.0363886,-1.8775921,0.7311951,1.3893436,-1.593483,-0.9802205,-0.44632843,-1.3798531,2.1263041,0.71078724,0.894023,-0.8510303,-0.13919769
target_dataset:Lu-99A,-0.3638404,0.37960652,0.5710154,-0.6594101,-0.41013062,1.4074576,-0.12140322,0.034395423,0.7963412,0.7697038,0.8134055,-0.053592082,-1.4689208,-0.007057787,-0.76109576,0.14088993,0.032958668,0.10077898,-0.44687545,1.5695066,0.10065866,-0.7384868,1.4289596,0.2712477,-0.84779406,-1.0220482,-0.7848279,0.3695036,-0.64712566,0.6849097,-0.5275061,0.9916764,-0.11651734,-0.7618345,-0.5195373,0.40918204,1.2582177,0.57069635,-1.0105889,0.004062036,-0.84003645,-0.01612556,-0.54932404,0.4230797,-0.8191614,0.083726905,-0.4452388,0.55835235,1.8551455,0.16360584,0.6144974,-0.2915659,-0.67727935,0.3424481,0.22771308,0.48125026,-0.68358076,-0.34272635,0.84233135,1.174892,0.0723132,0.8363583,0.61770236,-0.66993207,-0.8294231,0.11889113,-0.3971144,-0.56216425,0.1124789,-1.5788875,0.96014774,0.091453336,0.7818101,-1.9483656,-0.98721945,0.45722246,-0.9122513,-1.2140634,0.93826437
target_dataset:M059K,-0.5353646,-1.0205016,-0.74138933,-1.588037,0.46170956,-0.1942557,0.7765309,0.12663549,-0.25687298,-0.25500226,-0.7126669,1.4137044,0.21683763,-2.0498204,-1.4981487,-0.5767579,0.65106344,0.30399275,1.8264191,-0.41732258,-0.6050311,-1.3581194,0.11020121,1.1886753,-0.37387186,-0.5198339,-1.2721767,-0.36677942,-0.570121,0.41945517,1.2290719,1.1035743,-1.7391255,-1.0885538,-0.1340911,0.0037156604,1.0321432,1.0870287,-0.7345193,-0.66296446,0.5861916,-0.09372653,-1.5890865,0.00084195845,0.050203063,-0.46122676,-0.29073393,-0.55394894,-0.30186915,0.29606804,-0.082188025,0.9007654,0.28839675,1.2118559,-0.5810982,0.16496636,-1.4840454,-1.7351118,-1.177493,1.491474,-1.4230491,-0.60685474,0.38185683,-1.1104728,0.23629355,-0.4082132,0.089700565,0.6821911,-1.5262069,-1.0134628,1.2949977,-0.19842766,0.5069053,-0.5394838,-1.1468207,-1.0115174,0.41034028,-0.9373255,0.46547475
target_dataset:OCI-Ly19,0.2575979,0.9352217,1.0168948,-1.3012719,1.8048973,1.0034636,-3.1647687,-0.45968056,1.0825835,1.1099868,0.8193528,-1.3007053,-0.22518966,-1.3914444,-0.23838535,-1.9726273,1.4114654,-1.1769629,1.184618,-0.78267026,0.67174,-0.9800371,3.5818965,-0.98697156,0.8494878,0.49086034,0.88005984,-0.6201308,0.54332846,-0.28991258,0.34930348,0.6318157,0.37811282,1.3706393,-1.1371541,-0.11831631,0.30930644,-1.8909826,-0.2494244,0.81497437,-0.0032958612,-1.7063237,2.0532079,-0.3527451,-2.8291495,-0.7146946,0.75576335,-0.08461026,-0.50028944,-1.0405232,0.44700655,1.4326167,-0.11220274,0.59518856,-1.5974156,0.5384326,1.9171369,0.35167795,1.1616517,-0.8021272,0.3311449,-1.2415818,0.8023241,1.0573941,1.3169978,1.2681487,1.2513797,-0.22522408,-0.003248185,-1.3745704,-0.8559927,1.0966061,0.67624515,2.6769602,0.19834319,-1.5166422,-1.6473094,0.14323235,-0.84454364
target_dataset:NCI-H1299,-1.4374018,-0.7327768,-0.4542371,-0.68840134,0.41244382,0.40522006,1.3678378,0.10881793,0.42377934,0.25832582,0.7795137,0.13601336,-0.9638523,-0.119250804,-1.0600898,0.34006965,-0.12812644,1.2653977,-1.4623386,1.0041696,0.1288642,-1.0004308,1.7715589,-0.89086485,-0.1115805,0.02032395,-0.9547585,1.1760471,-1.6311169,-0.7108034,0.3253049,0.65022945,1.5443381,-0.3794102,0.2863847,-0.76441777,1.1649721,-0.48240453,-0.09986648,0.20701507,-0.6953737,0.70842016,-0.25664672,0.38731617,-0.18762405,1.1792021,-0.86807686,1.1882215,-0.047229357,0.09607629,0.43403018,-1.3457713,-0.009575415,0.35967132,1.0475339,0.97481436,-1.1914215,-1.006684,-0.01526545,0.7502303,0.0050599575,-0.038930945,-0.13070518,-0.4756102,-1.8118706,0.8069788,-1.2644608,-0.5409317,-0.359287,-1.8245592,0.6248693,0.13961953,0.17250209,-0.10296038,0.8916997,0.042719748,-0.16363828,-0.6263999,1.3943565
target_dataset:SK-N-DZ,0.52829397,0.82885647,-0.109364584,-0.8855975,0.8703734,-0.49136215,-0.22177649,1.8778938,1.3288915,-0.42050755,0.035653867,0.559765,0.7480881,0.5363758,0.21021418,-1.014725,1.2983946,-0.95109165,-0.6010574,2.0517771,-2.125758,1.8177465,-0.4007849,0.4635704,0.66761374,-2.2120225,1.7641983,-1.3405201,0.8809357,0.7458002,0.82296896,-0.45046833,-0.12998198,-0.5118619,0.5759771,1.6189082,0.2786887,-0.8295671,1.3220426,-0.4638928,1.7664332,0.39599264,0.5982083,-1.8827932,-0.8364075,-0.59187114,-1.2161933,-0.96868134,-0.27311268,-0.9078327,1.6801236,0.20465547,1.2341452,-0.63249075,0.85123456,0.9353852,-2.280828,0.5009831,0.958891,-1.3961428,0.14301282,0.3976667,0.20929268,0.47573185,-0.7223802,2.2560751,-0.8028984,-0.51950634,-0.061814465,-1.8395822,-1.2329961,-0.90495706,-0.9960935,-0.44100282,-1.3615791,-0.09817167,1.0831124,2.4237173,-1.0005018
target_dataset:MEC-1,-0.8310907,2.1459813,1.0303109,0.8587915,1.7320396,0.31606013,-3.4963822,-0.41410127,0.8921885,1.0464269,1.9762725,-1.2456114,0.2067652,-0.97518235,-1.0340068,0.037151814,0.04627067,-2.0728607,0.47411123,0.9520509,2.117907,-0.44256896,-0.03381322,-1.6212738,2.8035853,0.9248985,1.3613266,-2.409917,0.49602652,-0.18931271,0.5269157,-2.0236073,1.6241114,-0.50798285,-0.20339163,-0.75565666,0.93356735,-1.114167,-3.1662378,0.3075527,0.3761897,-0.95235753,2.7248664,-1.500084,-1.2475288,0.16125841,0.4544653,0.23497982,-0.3513384,-0.2946379,0.25547242,2.4187114,-0.044042073,-0.11463082,-0.74779344,0.08051333,-1.2728146,-1.2427188,0.16114926,-0.6137194,0.568473,-0.3132272,0.8423722,0.42145577,-0.58695143,2.7591038,0.7422307,-0.18685515,0.5163575,0.07613656,0.99294364,1.0500871,-2.9621086,-0.23925939,-0.4657736,-0.08658496,-0.49834862,-0.6962456,0.9949999
target_dataset:NCI-H2228,-1.0843095,0.3952577,0.5674549,-0.727776,0.06763311,-0.09592892,0.5353357,-2.0545251,0.036714524,1.422019,0.24753036,0.4883355,-0.24821627,-0.045657948,-1.3818175,-0.31422263,0.045147978,-0.52315825,0.76068485,-0.19249023,-0.76063174,1.1697667,-1.1173596,1.2576196,-1.0816761,0.08458645,-0.9222186,0.111409456,0.9004413,-1.0574108,0.50746804,-0.010646425,-1.9314078,-0.7419031,-0.28606892,-0.08185097,0.74116284,-0.08805172,-2.205789,-0.22803482,-3.5341146,-0.14959657,-1.8790929,0.95485777,1.4019569,-0.8724528,1.9123031,1.882328,-0.8564858,0.90657634,-0.14343707,-0.6036048,-1.6240798,0.40161708,0.39327675,-0.594959,1.113732,0.38769302,0.06899836,1.6697644,-0.1464596,0.21447217,-1.8200328,0.3017337,-1.1726867,-0.64368206,0.05417041,-0.3035298,-0.30869752,0.70793486,1.0012796,1.0774107,0.028211545,0.07753448,-0.015533648,1.053585,-1.0731893,0.33758274,0.9359693
target_dataset:DMS 53,-0.2055502,1.6213081,-0.25047663,-1.8630025,-0.1647055,-1.6910043,0.1240601,0.008191325,1.4111745,1.0062666,-2.0470738,1.6397594,-0.0011989921,0.46973243,-1.0449764,0.47802773,0.44569504,0.13413826,0.15475862,0.8613898,0.29115692,0.59362763,1.2774376,-2.4034228,1.7158822,-0.42728657,1.1860244,0.101409964,2.0754344,-1.2634568,0.1560599,-0.52991974,-0.44780874,-0.15755355,0.13043448,1.3023225,-1.4529814,-1.4009908,0.15516305,1.2237538,-0.9866535,-1.1665576,0.8749362,0.3005235,-0.5540635,-1.498393,-0.61939853,-0.3341668,0.8040116,0.46542853,0.726931,0.3966839,-0.15959895,-2.8995347,-0.18250655,-0.5708757,1.1679103,1.4369936,0.17145784,-1.859707,2.34103,-1.4108921,0.95910937,-1.4580541,-0.12209795,2.6442034,-0.29306942,0.31809944,1.4001001,1.9449309,-1.6632977,-2.781875,-0.22754745,-0.38935867,-0.3808061,0.54826295,-2.5098903,1.7776175,0.87199986
target_dataset:CAS-1,0.46097317,0.33340484,0.4331652,-1.2982297,1.3306601,-0.46469176,0.6752738,0.8575177,-0.09154818,0.48434806,-0.8049221,-0.03701464,0.6440982,0.41120553,-0.07934183,-1.6739986,0.6154276,-0.6496609,-0.03595419,-0.13634536,-2.0346553,0.64335614,-0.9265614,1.0640188,-1.1833912,0.032393176,-0.9686897,-1.0813645,-0.3972576,0.22858974,0.57357985,1.4428393,-2.0556264,-1.0828501,1.2030147,1.0588008,-0.8308764,0.14396298,-0.43660793,-0.54789674,1.1194228,-0.97001207,-0.53689474,0.08606657,1.3158941,-0.7042318,1.1590401,-0.083656505,-1.6027445,-0.2366637,-0.49478278,-0.07011046,-0.32721707,0.9450219,-1.3134806,0.48509517,-0.8492992,-1.2572522,-0.51514333,1.3552287,-0.44309878,-0.71032125,-0.77019024,0.15450823,-0.7844004,0.71839917,-0.057004407,-0.30895638,-1.8148315,-1.054092,0.41743875,1.2439992,0.19681723,-0.2521208,-0.26592547,-0.7586181,0.47375935,0.41605884,0.7660895
target_dataset:MOLM-16,-0.55726165,0.7110435,-0.096284516,-0.7080651,0.18960766,0.9624511,-2.556137,-0.51305133,-1.0390075,0.63905936,1.9831603,1.9732108,-0.6306259,-1.3589739,0.060240045,0.010249846,-1.2772441,-0.19446023,-0.7782002,0.47877526,1.0720718,-2.601941,0.6066719,-0.88346756,1.1908396,0.8725516,-0.46944967,0.17832425,0.34640473,1.2946795,0.11658206,0.7616193,0.47115636,1.8894686,0.49395278,-1.1262782,-0.5473695,0.24115641,-0.7354966,0.32725835,0.8147891,-0.9588946,1.1487905,-1.4983988,-1.7936511,-0.079710945,-0.1344186,-1.2361647,0.055489965,-1.6254855,-0.15687722,1.2865173,0.90448236,0.56151783,-0.22374809,0.4625142,-0.06359701,0.9018835,-1.2463465,0.5576993,1.1956416,0.33947307,0.07962862,0.4480276,1.3585144,2.1578417,-1.5450844,-0.19265825,0.05043316,-0.69364923,1.1530247,0.36706504,-1.6764228,1.6698217,-0.7010389,-1.1992645,-0.07951619,0.54471743,-1.3801516
target_dataset:NCI-H508,0.5949414,0.019502059,0.26268876,2.1338987,0.38631588,-1.531276,2.1871092,0.12592392,-1.057641,-0.49444616,-1.6309309,-1.724129,1.1619166,3.88195,1.6219301,2.4938452,-0.9462183,-0.049417138,0.29330483,-0.371046,2.436406,0.65490633,-0.6247408,-0.9668392,0.5027258,-0.44736174,0.9956792,0.26779938,0.012319319,0.53004384,-0.5225218,-0.84091,-0.2467472,0.42556363,-0.26113185,-0.52874714,-1.4260633,-0.38347664,2.1795673,-0.70643926,0.06962707,0.8853152,0.81241316,-0.9354566,1.1165061,-1.6665938,-0.32334638,0.3069193,1.4054166,-0.65054625,-1.9558747,-0.047694974,0.6233421,-1.4678178,0.48616508,0.29427922,1.4142714,1.558206,0.56467515,-0.57868755,0.1785389,0.50678074,-0.08301674,-0.60332245,0.61188614,-1.2280115,-0.24329217,-0.16072577,1.3104261,1.2641139,-1.1858093,-1.6623427,1.5787833,0.5294254,0.33073395,0.28069216,-2.7240105,0.027452197,-1.6544236
target_dataset:786-O,0.18524317,-0.93238187,0.2018984,-1.02721,1.3761444,1.1667478,1.723615,1.8440931,-1.1294136,0.7007222,0.49951637,0.5515219,-1.7454084,-0.73396343,0.89993745,1.836954,-0.2105633,0.33105204,0.15841475,0.95592546,0.5404547,0.65900326,-0.56026506,-0.69418895,-1.0263007,0.68565196,0.28056532,0.35802963,1.1246831,0.47279674,-0.6167583,1.0733144,-0.9760015,-0.3025155,-0.5259276,-0.05217448,1.0688533,1.6469259,-1.8035505,0.20311722,1.1322751,-1.6920093,-0.14344044,-1.1214535,1.0178803,-1.4925504,0.20976245,0.104889855,0.21755408,1.0344043,-0.51772577,0.963871,-0.53872895,2.0788643,-1.3296363,0.5683046,-0.33648276,-1.4817404,-0.06777893,0.5162468,-1.3859295,0.6190065,-0.14020441,0.078121826,0.20322861,-0.41421112,-0.72712487,-2.1591105,-1.1472304,-0.94349426,-0.044319604,0.037768006,0.28740972,-1.005777,0.72937375,-1.2266049,-1.2019521,-0.14315766,1.5560066
target_dataset:CAL-54,0.06673385,0.023724765,1.4650191,-1.031794,2.459299,-1.340851,1.0718569,2.0979307,-0.7255349,1.5585905,0.79076076,-1.085795,-0.49382657,0.67966443,0.30594316,0.096217014,0.73328114,-0.59247345,-0.4987096,0.20036289,-0.70638883,0.7850293,-0.17160898,0.16454664,-0.96397203,0.55323756,0.23601227,-1.8307133,0.60911953,0.26832122,-1.7352889,0.71128035,-0.8865008,0.55256605,-1.5809999,1.465783,0.1686436,-0.65616024,-0.79330343,0.40589502,-0.43348935,-0.6701661,1.3571362,0.3413422,1.2385166,0.8335376,-0.584603,1.4834523,-1.2330551,1.078655,-1.4231328,-0.46761885,-1.2780241,-0.89809805,1.6415861,1.4663776,1.3125831,0.91003084,-0.38460845,-0.5824653,-0.7984968,1.1485302,-1.5371706,-1.1683677,-0.005162537,0.026945794,-1.2742658,-2.3061266,-0.4814116,0.026340924,0.16424726,-1.6514081,1.3814896,-2.0717466,0.891999,-0.32861745,-0.32612184,0.32933795,0.11098507
target_dataset:Karpas-422,-1.1596103,-0.079534024,-0.4725471,0.4439584,0.86937886,0.31134403,-2.4942036,-0.71869665,1.5369248,0.45922357,0.56407064,-1.9169627,-0.13571265,0.9620985,-1.4467692,0.059188113,0.44488156,-0.0675387,0.84338075,-0.009380683,3.6869977,-0.71921104,0.4645773,-0.18115824,1.7696917,1.7234057,1.9630262,0.8096414,0.052964672,1.2261403,1.1560549,-0.14589626,0.15128776,1.0997089,0.7881782,-1.0526545,1.9067677,-0.91322833,-1.6861817,-0.1098477,-0.024359021,-1.211693,-0.46312013,-0.018217117,-3.2306867,0.45789975,-0.01451628,-0.28362626,-1.077184,0.01106292,-0.3156409,2.4416988,1.2542957,1.67743,-1.7362832,0.24377164,-1.1219774,-1.0094783,1.7668533,-1.9776943,0.45428687,-0.77165556,0.5204573,-0.21882932,1.8071334,2.2578912,1.9551841,0.34661144,0.25152752,0.06503597,-0.45302486,1.399111,-1.051503,1.6934016,-1.0330683,-0.66853726,-0.5604092,-0.3401597,0.18979982
target_dataset:ME-1 [Human leukemia],-0.005425602,-0.6606638,-0.21486044,1.0903832,1.3990737,1.4204104,-2.7024171,-1.5873073,-1.1054052,1.1557728,1.4432721,0.2383436,-1.0085417,0.33715922,1.2058986,-0.60222447,-1.7546453,0.026516989,-0.3573511,-0.5022016,0.05614666,-0.08557683,1.1120554,-2.4398737,1.0121331,-0.12571752,-1.4069352,-1.5313432,0.9278337,0.16865891,-0.40612698,1.1753716,2.051639,1.5270642,0.40437627,-0.73881114,-1.042462,-0.705896,-0.14056745,0.35621914,1.5487015,-0.1144869,1.0120969,-0.041737694,-1.0690519,0.6156629,0.81652963,1.3354423,0.23031218,-2.364105,-1.2663864,-0.14799742,0.26350144,0.5455684,0.24313569,-0.55407035,-0.4194361,1.6327778,0.11335476,-0.313056,0.9269418,0.82903737,-0.19874495,3.1811378,1.0476171,0.9399652,0.2322821,0.36573723,-0.49310178,-0.87982863,1.3127263,0.07825561,-1.3548367,2.9150465,0.44355136,-0.31290153,0.8842738,-0.69291115,-1.2141463
target_dataset:HLF-a,-0.32410243,0.103615016,-0.08204095,-0.9012384,0.36070317,-0.08686348,-0.013632286,-0.03662838,0.10406169,0.526604,-0.32592303,1.3736992,-0.19467571,-0.29555398,-0.35904938,-1.9465058,0.31275547,0.2738638,0.034579538,0.12237093,-0.855884,-0.6064177,0.28835928,1.3388647,0.447133,-0.97150725,-1.6530823,-0.6571984,-0.53914535,1.5092658,0.1390605,2.1831963,-2.1701825,-0.5039722,-0.2537764,1.940734,0.8394493,-0.006933851,-0.49383512,-1.9421079,-0.74104,-0.17697977,-2.1333106,0.54985845,0.53860885,-0.69325143,-0.7418671,0.7251103,-0.25913218,0.4415938,-0.2333994,-0.17393412,0.9572654,1.8825538,-0.5424894,-0.0685927,-0.6216918,-1.1530582,-0.52480364,2.3330274,-1.2191827,-0.2640128,-0.26743346,-1.1433914,-0.7039569,0.17068826,-0.44081584,-0.746939,-1.4870597,-1.1846758,1.4365305,0.3344642,0.8446702,-0.9131845,-1.0324807,-0.23035417,0.015109643,-0.85576284,0.015209496
target_dataset:NCI-H2342,0.019352973,-1.5491422,-0.26234674,1.1069065,-2.002916,-2.390051,-1.4129183,-0.32480308,0.64715755,0.72468215,0.11448905,0.7263686,-0.98055303,-1.5460618,-1.630952,1.8214521,0.32140106,-1.19808,-0.53282917,0.45084605,-0.69145167,-0.99220425,0.12752259,-0.07914492,1.5916098,-1.2875795,-0.08370002,0.54268736,-0.34980685,-1.330524,-0.85835826,-0.46583316,0.30287686,1.072428,-0.22168113,0.3302635,-0.30226657,-0.4713098,0.36240995,-0.04653875,-0.39193186,0.61408055,-0.028870627,0.13740963,0.044371337,0.057859313,0.2922576,-1.0896795,2.4543223,1.029613,1.7884822,-0.47150493,-0.02220919,-0.010033803,-0.51449776,-0.8618584,1.560302,0.6099023,-2.1706498,-0.48967776,0.39234838,1.2800299,1.1370367,-1.1852008,1.5626063,-1.0641937,-0.109065734,0.42953,0.23397903,1.8588605,-2.0770743,-0.839796,-0.6287058,-1.3348719,1.4195188,-0.107756734,0.8040986,1.4709626,0.34931773
target_dataset:HCC1599,0.075974286,0.38199937,-0.15773687,0.28023794,-0.6546611,-0.3017382,0.6100998,0.2545358,-2.2573795,-1.5572348,-0.32993352,0.9845506,-0.5827686,-1.3090795,-0.6930962,0.9063347,0.38780475,-3.4331298,-0.15543571,0.6380248,-2.4969256,-0.32176417,-0.6539843,0.043100476,0.56431216,-0.913626,0.9210141,-0.66177577,-0.02693151,0.3187759,0.4356521,-2.0674329,0.33804736,-0.98392045,-0.79922414,-2.868404,0.05945906,0.77117306,1.1124376,0.72551495,1.0289923,0.49275452,0.43093917,-2.3137326,-1.4321464,0.5141221,-0.96009904,-1.1742091,1.4692159,0.11621756,1.1024549,0.28967643,1.3804927,-0.35796976,0.27382666,0.108839266,0.112898,1.1244279,-2.0138679,-1.2229923,0.6510447,-0.65652114,0.68633723,-1.2103189,0.4731779,-1.362689,-1.5439,-0.07843895,-0.39026198,1.118078,-0.74191093,0.113067746,-0.29058865,-0.6960982,1.7422585,2.0445347,1.1339492,1.2978637,0.67263395
target_dataset:NCI-H2110,-2.2004316,-0.4166206,-0.75178635,0.87677467,-1.3035573,-1.6701691,-0.13163736,0.14038171,-0.31369597,-1.1449003,-0.58920705,0.8846604,-0.8494065,-0.72039664,-1.8058841,0.97506434,0.57671845,-1.167513,-0.16597863,-0.12755133,0.5228338,0.76861024,-0.5965843,-0.17734644,1.0689994,0.56338847,1.1018317,0.8082134,1.0107043,-0.992934,-0.1981968,-2.2200878,-1.6504425,0.22285955,0.32317585,-0.44581896,-0.76704675,-0.74240434,-1.3950944,0.8308734,-1.4650143,-0.98801535,-0.7725231,-0.7408716,0.43605438,1.6856208,1.2369552,0.5109245,-0.17994729,0.81234884,1.4231088,-0.12304335,-1.6695929,-1.1547527,-0.3328277,0.14400642,0.9260441,-0.15843217,-1.1003153,0.5077756,0.23998149,0.6219886,-0.49126932,-0.81398034,0.6528671,-0.3944813,-0.30349284,0.1507777,1.4491166,1.3278357,-1.9951217,-0.33152097,-0.5030138,-0.03307999,-0.6326798,-0.3064044,0.17795879,2.669685,0.6246289
target_dataset:L-428,1.3228861,0.43074518,-0.46630144,2.5856113,2.1828117,-0.6814124,-1.597828,-3.1586597,0.3599115,0.86723,0.26546085,0.42281762,-1.5848166,-1.332265,0.8227671,-0.1704728,1.150647,0.8710165,-0.8083358,-0.33513123,1.2995286,-0.81726205,1.1545085,-0.36497182,2.4269981,-1.3459513,0.50362283,-0.92516637,-1.6572658,0.6307395,0.18065389,-2.194041,1.8723565,-0.44021916,-0.29464903,-0.81569046,0.21222965,-0.53631747,-1.2560093,-1.0075421,0.8878791,-0.80089605,0.19603221,-1.7250786,-0.9708614,-2.084839,-0.069841765,0.6466798,-0.91102874,0.7722703,-1.3098601,3.1162057,0.020853646,-0.4672882,-1.2359134,-0.035641238,-3.5321312,-1.4206731,0.006946739,0.759022,-0.50405824,-0.6452364,1.3417631,1.0349762,0.09927257,1.526497,0.7451556,0.5394146,-0.6549758,-0.39562234,-0.5128964,0.9203859,-2.4320946,-0.24514209,0.3482265,0.5011636,1.1741495,-1.3244607,0.4871616
target_dataset:PC-3,-1.3026834,0.22210552,-0.5960254,1.0590318,-1.1414412,0.08046492,2.1286745,-0.73654985,0.18086033,-0.5918937,0.63511646,-1.2923541,-0.5706062,0.39330912,-1.6951963,0.13934061,-0.5307084,1.2056887,0.48015156,-0.1715811,-0.070884496,0.48688412,-1.8239021,-0.68521,-1.4565538,1.6766996,-0.112300195,0.262491,0.31301972,-1.4770476,-0.8523792,0.47125825,0.04700755,0.66612375,0.40711272,-0.5676031,-1.5600128,0.81001854,-0.41610187,-0.6860133,-0.36788085,-0.23290771,-2.083311,-0.32604685,0.9014629,1.3150024,1.0439135,-0.047852598,-0.24845757,-0.2202469,-0.09955323,-3.027733,-1.3949492,0.34269515,1.5298039,-0.887269,-0.6139189,-0.8338842,-1.4910359,0.16227765,1.2951739,1.1934168,-1.6713867,1.0651253,-0.77775294,-1.9376012,0.38518655,0.09296103,-0.07347192,0.6194835,-0.31570977,-0.033734605,-0.9974297,-1.150447,-0.02404046,1.1533476,0.480024,-0.5475769,0.6520156
target_dataset:KE-97,-0.8805759,1.720472,0.06235008,1.3697586,1.8284258,-0.30124706,-3.7274332,-0.8311918,-0.36256227,1.1527985,1.3541256,-0.32845032,-0.7926202,-0.47276628,0.65737045,-0.25765958,0.2597967,-1.433159,0.4377118,0.5448562,1.6998916,-0.33606544,0.6029111,-1.1775262,2.5265288,0.52666616,0.8528487,-3.3599958,0.45486513,-0.14521605,0.29320934,-1.3949081,0.84194577,0.18288147,-0.85429174,-0.079442516,0.80954766,-0.98592114,-2.1485837,0.14313984,0.5460887,-1.4068251,1.1162264,-1.006903,-1.2271256,-0.18840481,-0.2679208,0.19294816,0.7925964,0.32012236,-0.39481044,2.5593212,0.245966,0.0604831,-1.1496267,-1.0614989,-0.8922857,-0.6025845,-0.009685606,-0.22978033,-0.03353201,-0.44305107,2.163367,0.07578218,-0.8494371,1.7337046,0.45048457,0.41705564,-0.28643587,-0.19660865,0.49176586,-0.08348232,-1.7890655,-0.07103819,0.33863428,0.3858874,-0.79611176,-1.5089055,0.44018313
target_dataset:RPMI-7951,-0.687141,-0.14971672,0.29520008,-1.2672312,1.1890675,-0.24548593,0.88836306,0.5116352,0.53088146,0.5132792,-0.5504826,0.86880165,0.46687317,-0.35117307,0.36125004,-1.3143721,1.4973698,-0.090614155,-0.77415705,1.4935099,-0.96367985,0.9097962,-0.5781078,-0.42907938,0.13127445,-0.14770345,-1.5198257,-0.51063406,-1.2806575,0.36839876,0.37506542,0.24879026,-0.9432073,-1.6421673,1.0738404,0.6722345,-0.12655962,-0.039558478,-1.8136019,0.1260946,0.39580706,-1.4134282,0.20913634,0.8984749,0.33117026,0.5120054,0.020308405,-0.24604437,-0.77969056,-0.18303797,-0.16523826,0.6042901,-0.6965056,2.116034,-1.3131306,0.6302111,-0.043015517,-1.7636403,0.2860306,1.5152141,-0.8780883,-1.0297722,-1.5415951,0.4990882,-1.3615755,-0.42553094,0.02385068,0.022625662,-1.2000527,-1.3641342,0.57487637,0.45932323,0.04255892,-0.67412686,-1.079891,-1.4224043,-1.3308924,0.32894406,1.2390261
target_dataset:COR-L23,0.37801543,-1.0337659,1.0392128,2.185324,-1.918362,0.0035506785,1.2995894,0.1656265,0.17670439,-0.843633,1.1635324,-1.2283634,-0.42047217,1.1022695,-1.1512274,0.4172127,0.06512354,0.26242498,-0.04094181,0.270918,0.70056057,0.5551991,-0.37134007,-1.3012724,-1.6529157,-0.3418706,0.08361224,0.17739041,-0.47507003,-1.0928836,-1.3594801,-0.5081203,1.0879365,-1.0884212,0.3035715,-0.4117438,-1.1790165,1.4870131,0.8801405,0.51539844,-1.285627,-1.2182603,-0.34179682,0.4123663,-0.24019617,0.9815896,1.081312,0.9910847,0.93694955,-1.0556346,-0.2525118,-0.7396152,-1.2175734,-1.723509,2.050881,-0.2169086,0.9080734,-0.1154076,-0.1779476,0.28757513,1.2017968,0.70939946,-0.76395345,0.23871991,0.24066667,-0.8292973,1.3125068,1.6397692,0.45958894,0.90524024,0.6066226,0.48502576,-0.38403928,-2.7005305,0.8800909,0.19956186,-1.0296078,-0.64341897,-1.0505702
target_dataset:Hs 571.T,-0.68738204,0.71229964,0.11704102,-1.6351844,0.6367702,0.27633753,0.17763594,-0.2758115,0.32740787,1.3977386,0.49895194,0.75748193,1.0985732,0.60792387,-0.50226426,-2.121049,-0.29892898,-0.6922715,0.6830705,0.2543766,-1.1382658,0.20374352,-1.2993947,1.1032099,-0.09574489,-0.36204484,-2.0622165,-1.0086876,-0.5001437,1.464957,-0.13769922,1.9941587,-2.305117,-0.020574741,0.33532795,2.1736588,0.42151138,-0.58389056,-0.65245324,-1.6311336,-1.0810415,1.4096051,-1.3910706,1.1557285,0.40043977,0.19187728,-0.7222449,0.5702013,0.5100368,-0.53332525,-0.26010048,-0.56604534,1.3772575,0.9006553,0.0076733977,-0.63547975,-0.7236046,0.22735003,-0.10039218,1.4758936,-0.90824836,-0.75351584,-1.3288871,-0.5054691,-0.33944005,-0.28787008,0.05739665,-0.2337786,-1.6474793,-0.13013703,2.445606,-0.5453421,0.6446177,-0.4620667,-1.0186108,0.3372954,0.38221782,-0.9238726,-0.36947584
target_dataset:SNU-1272,1.364546,-0.5534836,-0.5246947,-1.7917898,0.54841024,0.17582096,1.0149378,1.6069933,-1.4293242,-0.4469831,-0.15577203,1.4969313,-0.5766702,-1.9463372,0.8706738,-0.331307,0.067818165,0.022339836,1.0133198,0.80789036,-0.28541142,0.15474308,-1.1598716,0.19598317,-0.14018346,-0.071669616,-0.52763575,-0.4102949,1.3135512,-0.48159853,-0.04949215,0.99821806,-0.9788078,0.103806496,-2.527233,0.584889,1.4199611,1.1131656,-1.8658968,0.23459917,0.84772986,-1.5199851,-0.044307154,0.17030956,1.1471202,-0.6329084,-1.1195955,1.5405892,-0.85188293,2.4826245,-0.6042331,0.8433459,-0.75123656,0.86543614,0.47541666,0.5461677,-0.033484623,-0.8313259,0.5180811,-0.24617158,-0.54536885,-0.3525432,-0.3910273,-0.10125091,-0.2299702,-1.146341,0.67619306,-1.4717662,-2.3774853,-0.50229615,0.60625786,-0.7990431,0.30467275,-1.603839,-1.4680158,-0.48655528,-1.0541705,-0.64287007,-0.027805097
target_dataset:OCI-M1,-0.019901544,0.8212366,-0.23872617,-0.6742926,-0.5363768,1.5461919,-2.3726118,-0.8054766,-2.2739475,0.24106677,1.0637609,1.4504824,-1.0118084,-0.7027391,0.9483668,-1.3125104,-2.1052096,-2.024822,-0.20844407,1.3365628,-0.038370863,-0.9075869,0.4776716,-0.58147484,0.29782653,0.9914849,-0.7518356,-0.79145426,0.19064678,1.3764223,0.57756585,0.38566458,-1.0198255,0.75863564,0.08681021,-1.4104699,-0.8969871,-0.16947967,-1.3522159,0.30311754,-1.0186824,-2.507683,0.6671392,-1.4619857,-2.2134786,-1.8836889,0.36607623,0.38309184,-1.4489863,-1.0980364,-0.6255169,2.2124686,0.9671954,-0.3948564,0.35755756,0.61717206,0.8838041,1.6316686,-1.1905363,1.7330165,1.8119829,-0.47714853,0.89614916,0.31632647,2.1186266,2.2638981,-0.7876272,-0.24211723,-0.12724517,-0.5071137,0.72800756,0.982579,-1.3950555,1.8176904,-1.47234,-1.9232453,-0.5574208,0.9590872,-2.500605
target_dataset:EB1,-0.5922166,2.4577518,1.1965936,0.9905917,0.7904885,0.39264467,-3.4544826,-0.8784437,0.3988712,0.7157121,1.263134,-1.2977952,-0.5253563,-0.9208772,-0.5299231,0.004894519,0.006589195,-1.1465656,1.3397747,0.8797955,2.3450332,-0.12314418,-0.47307736,-1.2264479,2.606375,1.7642473,1.1972809,-1.5592471,-0.05962008,-0.29323322,0.5919744,-0.57776415,1.3328134,0.6084755,-0.2088196,-0.7850051,1.2931918,-0.9733763,-1.9402952,0.19463867,0.639021,-0.19234344,1.0077982,-0.23826854,-2.1742966,-0.036679313,-0.74114496,-0.15792313,-0.51851016,-0.9706223,-0.3531852,2.2479799,1.3243879,0.28440487,-2.2227159,-0.26919702,-1.2911862,-1.240363,1.5720146,-1.6081439,-0.008220008,-1.1183388,0.88286906,0.19594249,0.3938061,2.7618265,1.9095085,0.43612808,-0.20729986,0.074774146,0.7825773,1.8185612,-1.8193676,-0.0011545494,-0.508701,-0.31667745,-0.52401483,-2.2842853,0.75140035
target_dataset:U-178MG,-0.37823182,-0.23239452,0.10905149,-0.9130377,1.4493222,-0.13819572,0.8849803,0.8020596,0.47634053,0.8441419,0.501968,0.38512444,-0.14434743,-0.6707963,-0.0913946,-0.8367915,0.30159292,-0.19266997,0.21743253,0.8409621,-0.638599,-0.5477864,-0.122634776,0.20696852,0.020278022,-0.5622037,-1.3677984,0.0022279024,-0.86633325,0.5034453,-0.83058065,1.7042941,-0.55706286,0.008860692,-0.4089932,1.5956113,0.24368472,0.15699619,0.040098827,-0.9387064,1.1548755,0.26219344,0.05371405,1.3739564,0.93727905,0.41414493,0.09285833,0.30383307,-0.53637743,-0.7939305,-0.25511947,-0.5000375,-0.17537029,1.5912757,-0.13408792,0.5047532,-1.6906272,-1.4887222,0.011390322,0.9562772,-1.5612395,-0.60960835,-1.402053,0.8876928,-0.8040718,0.24227583,0.06101727,-0.02316285,-1.6202077,-1.436443,1.4486238,-0.030547038,0.60925734,-0.7523788,-0.82683784,-1.3559606,0.4800429,-0.53256947,1.2513531
target_dataset:MeWo,-1.1890019,-0.47037375,-1.0388875,-0.60581046,0.5607997,2.3730667,-0.47450536,0.7831658,0.03924644,0.14409858,0.3514065,0.5061896,0.13813755,0.46925417,1.4186281,-1.0565964,0.08847343,0.4678686,-1.1143091,-0.80098647,-0.6563142,-0.66623235,0.10031247,-0.17689359,-0.87026864,0.75908196,0.65583813,-0.50848114,1.3178172,2.7712646,0.287025,0.15179034,-0.16946441,-1.1924868,0.61670035,1.1682312,0.085500345,-0.07580538,-0.38308087,-0.32471973,-0.51403874,0.54149884,-0.41166645,-0.8704642,1.1761122,0.32294583,1.1947263,-0.74883384,-0.830802,0.8711606,1.5308285,1.4878478,1.4161114,0.670102,-1.2955121,0.8471897,0.45861554,-2.1363788,-1.2056856,1.0277463,-0.5912986,-0.6387018,0.3774062,0.29152784,-1.3990698,-0.4250153,-0.32494813,-0.6815838,-0.117145225,-0.57160896,-1.4342914,0.37794095,-0.816274,0.96345454,-0.20826268,-0.56494045,1.4581022,0.09341259,-0.68243766
target_dataset:SNU-620,-0.07346412,-0.8219463,0.16562524,2.951473,0.22569473,-1.3418876,1.683341,-0.69890743,-1.1161193,-0.8861032,-2.14743,0.16183656,1.6597174,2.324926,0.8180944,1.5089037,-0.9651912,-2.2698808,0.17989422,-0.13746062,0.66871285,-0.21727929,0.13753882,-0.6533212,2.1430702,-2.203696,1.8520107,0.8926543,0.27526355,0.69184566,0.05765941,-0.87800413,1.7039979,-0.42748502,0.70595086,-1.3173159,-2.2873292,-1.3620504,2.1397479,-0.57006675,0.2396808,1.8866553,0.021422727,-0.88606083,-0.24238479,-1.8981389,1.0090904,1.2488495,1.4172221,-0.4107144,-1.5036902,-1.1543245,0.22049278,-1.0051427,-0.32153097,-0.15465958,1.4914205,0.6061127,0.014426157,1.4875609,0.40842572,-0.46519065,-1.0706315,0.8554023,-0.9086356,-1.2921854,-0.692626,1.2944149,0.3466199,1.488685,-0.9246821,-0.31356904,0.54279375,0.6611082,0.28233564,-0.3276108,-1.8984717,-0.36016664,-1.4859525
target_dataset:MDA-MB-175-VII,1.9685998,-0.5997577,-0.7483965,1.9768934,-2.6840827,-1.9575032,-0.5709276,-1.2779206,-0.14872868,-1.1952333,-1.5927956,-1.0338371,0.63163173,1.1221882,-0.78687996,0.19101427,-0.2804081,1.0040234,0.08385492,-2.4715304,0.34684235,0.9818156,-1.7506845,-0.9431642,0.35116976,-0.28266746,0.16839993,0.51741827,0.1283946,-1.5713665,-1.3274593,-0.34811422,0.6930855,1.3637446,0.31716764,0.24284212,-2.6099749,-1.3502684,2.368642,-0.34010574,0.36922592,1.2438742,-0.18411733,0.4534724,1.1183507,0.69204587,-1.3319218,1.0607175,-0.7434233,0.2938041,-1.0018013,-1.5131474,0.47152787,-2.088153,-1.5076451,-0.42373636,0.39511138,0.78144026,-0.7526708,-1.9445764,1.9159501,-1.2931528,-0.3596448,-0.5641178,0.7852691,-1.762915,1.9292221,1.3131353,-0.1003373,3.8054988,-1.5264724,-0.36489993,-0.37161213,-0.39466867,0.12510136,1.4022727,2.814328,1.3528783,-1.2612963
target_dataset:SK-LU-1,-0.06411767,0.0008006841,1.3335896,-1.0339074,1.0658666,-0.050225854,0.5236436,-0.49559933,-0.24896021,0.11651995,-0.6890888,0.0015518399,0.14550164,0.8277022,-0.3097373,-0.08391687,-1.0519085,-0.11437031,0.864082,0.11672505,-0.1766437,1.1077728,-0.34570295,0.34363878,-0.046024173,-1.8554956,-1.5578141,0.29547843,0.17864494,0.011522602,0.40046182,0.72399175,-0.8825128,0.102004334,0.7776527,0.29595745,0.845589,0.16928977,-1.173806,0.45031053,-0.85566974,-0.5407501,-1.0403844,1.1636888,1.328556,-0.25831547,0.6136887,1.5735458,0.67945755,-0.47941545,0.26289254,0.3573332,0.25166875,1.8695108,-1.3098654,-0.6303915,0.09800081,-1.8127383,1.2545077,0.86594063,-0.8067232,-1.0943354,-0.4705543,0.28029656,-1.6904118,-0.31501114,0.5606538,-0.8846411,-2.2776885,-1.3472084,1.1261947,1.4117291,2.0427701,0.32301313,0.23130983,0.33607528,-1.5508413,-0.04464599,1.5620072
target_dataset:SK-MM-2,0.12115936,0.52137864,-0.31257233,-1.242099,0.45194966,-0.14839527,-1.9260375,-0.32038575,-0.18160746,-0.43324324,-0.5377794,-0.9993573,0.19080338,-1.242156,-1.8193736,-0.36802253,-0.6199292,-2.0847764,0.52032536,0.5856715,2.7377644,-2.000801,1.1060134,-0.31349328,1.6090225,-1.4508336,0.5047811,-0.74179876,1.6231129,-0.15973456,1.2915834,-0.39738554,0.16953814,1.0626131,-1.3952261,-1.3414209,0.1255907,1.292607,0.32448488,-1.4551078,0.1202797,-0.53621715,1.16412,-0.3020453,-1.11105,0.07074681,1.174919,0.25749165,-1.2290108,-1.3435053,-0.29182756,1.9615929,0.7649275,-0.3127573,0.34833062,0.015503064,-1.466764,0.10218266,-0.32427382,-0.41946617,0.9955059,0.194583,1.3940767,0.67407393,-0.75995713,1.5293367,-0.17686798,0.5718286,1.5295628,-1.7180647,0.12898363,2.0453346,-1.2147375,0.9381812,-1.412066,1.4662042,-0.25176305,1.0163583,0.82620394
target_dataset:GSU,0.67598593,-0.5382438,-0.23624766,3.8289075,0.05725068,-0.8341898,2.368245,-0.6340677,-1.5570296,-2.107968,-2.2499948,-0.7715202,1.0903552,4.083557,1.8609532,1.7913674,-0.9131237,-0.2597079,0.49499905,-0.23552042,1.7355646,0.1827206,-0.5846279,-0.2744832,1.2399764,-1.3580712,0.7268209,0.3470996,-0.109690204,0.61387867,-0.9551669,-0.80471104,0.9279114,-0.19239196,0.558319,-0.7276581,-2.2298067,-0.85944575,2.294176,-0.5184773,0.9335406,1.9389442,-0.34969604,-0.293004,-0.02862028,-1.0803143,-0.3962091,0.9774019,1.2628556,-0.82643116,-2.6854777,-0.9235237,0.3577366,-1.3546507,-0.01061929,-0.20957436,1.366223,1.9248551,1.1694056,0.065242566,1.2821358,-0.2884093,-1.2681317,1.0686197,0.3476119,-2.199694,-0.23030668,1.3474156,1.0674386,1.7934942,-0.99801135,-1.0179627,1.610811,0.76819956,0.12389537,0.22361849,-2.3313682,-1.1328003,-1.8550406
target_dataset:KNS-81-FD,-0.18305796,-1.5188174,-1.4306306,-1.4627011,1.5822335,-0.5460852,-0.27976596,0.81934077,0.6291357,1.653062,-1.1740643,-0.3847094,-0.105231114,-1.2648276,-0.72022486,-0.83154786,0.46505472,-0.26983988,1.8697851,0.29459533,-0.72859704,-0.76713735,0.3358866,0.81756663,-0.27881438,0.91056365,0.19557112,0.33422974,-0.77748275,-0.49814102,-0.057777457,0.7712223,-1.5890175,-1.1984272,0.34036472,0.21043985,0.49356097,0.1674846,-0.7350526,-0.9306484,0.69588417,0.07150333,-1.4163358,-0.64992154,0.7244564,-1.1883725,0.21333064,-0.0873044,-1.7452171,-0.18810482,-0.35379547,0.010357246,-0.9703149,0.97867316,0.6086118,0.8002959,-0.46505135,-1.9801592,-0.6718882,2.4599779,-2.9493666,0.41666532,-0.33988884,-0.37174386,0.4506433,-0.15898971,0.54098403,0.10343032,-1.554274,-0.60039574,-0.5513327,0.358125,-0.6816987,-1.0198002,-0.12985931,-2.494079,0.71192056,0.03948415,0.46825802
target_dataset:RPMI-8402,0.38695675,0.257131,2.151765,0.29572558,0.07909073,0.8495354,-1.9139471,-1.7150989,-1.1033107,0.28381538,1.789465,0.16348152,0.4099784,-1.0442011,1.7101611,-2.4371095,1.213811,1.2499064,-0.439305,-0.6825194,-0.24130195,-2.0130317,1.9228245,1.309071,0.99867177,-1.8200432,-0.18789828,-0.60361665,-1.9902623,-0.7833904,1.2836336,0.17313287,2.3057694,2.02944,-0.9987398,-0.33259094,2.227945,0.20992343,0.73247,1.0344962,2.168334,-1.0907596,1.5640366,-1.3728722,-1.8605359,-0.038939655,-0.46552283,-0.98986167,0.40208668,-1.3301698,-0.29712123,1.2007991,-0.37746194,-0.2537387,-0.09710112,-1.3578782,0.13995507,-0.20998482,0.03329946,-1.4768972,1.2631421,0.10593068,0.2970545,1.3025281,0.43772152,1.8850555,-1.2349007,1.0080258,-0.75438017,-1.4566629,2.1623068,0.77086085,-0.034353644,0.9579205,-0.71748906,-0.0072998526,-0.68956316,-0.033055447,-1.1554364
target_dataset:KYSE-410,1.0422947,-1.8701562,-1.7486132,1.4517169,-1.5743868,0.5192037,0.87670445,-0.01820146,1.1464633,-2.4815676,-0.3207122,-1.2430277,0.15144081,0.8607742,-0.7548219,0.1540399,1.3150754,0.6821348,0.75097996,-1.4530238,0.90494424,0.8597686,0.47616312,0.102978125,0.3193852,-0.30863243,0.2636816,1.0240679,-0.13701922,-0.8607297,-1.9074223,0.08304855,0.56394213,-0.548435,0.25005257,0.15069178,-1.2112291,-0.04595106,0.9287101,-0.7380148,-0.41526088,0.096044466,-0.8050811,1.280596,-0.032001585,1.5147301,-0.358021,0.9285173,0.5911455,-0.17137903,-1.4620367,-0.99787885,-1.0176929,-0.52335984,0.8609674,-1.0426037,-0.5170257,0.20612796,1.4098518,0.70460635,0.50159436,0.29580677,0.5948137,0.43961763,0.46573633,-3.1811275,1.2433654,2.1703532,1.0065031,0.07999493,-1.1228837,-0.43973956,1.9927082,0.09644819,-0.57049227,-0.29040986,0.009514263,-0.17305592,-1.0702628
target_dataset:EJM,0.7419878,-0.6812912,-0.18066669,-1.6055161,1.204692,0.76334506,-3.1387775,0.6368629,1.3379169,0.1343518,-0.8692868,-0.98376554,1.0838696,-2.028363,-1.5846146,-0.17695013,0.0495622,-0.33725557,-0.12146481,-1.6410496,5.0091147,-3.1786258,1.0521284,1.1431415,0.68676,-0.38280922,1.6301157,0.18542464,1.2556046,1.6433531,1.2123928,-1.7519677,0.080511466,1.1930172,-1.6488044,-2.6638,0.9087236,2.1472392,0.35582238,-0.8441659,1.2840611,1.0717553,0.8285074,0.63003707,-1.1589439,1.2240986,1.2975795,-0.6771526,0.24633327,-0.61661744,1.2433318,2.3393102,0.6889638,1.3744515,0.32356226,0.74101007,-0.9371722,0.37780553,1.0652612,-0.7461085,0.5095072,-0.3780328,0.93716544,0.56218046,-1.4476066,0.3305168,0.66449594,0.4883235,2.0891929,0.8070311,0.61840385,2.468379,-1.9520861,0.38026145,-0.03982766,1.1695491,-0.34740123,-0.22344206,1.0184568
target_dataset:Hs 604.T,-0.9544284,0.12479513,0.5145832,-0.9977167,1.5333382,-0.5710503,-0.5146439,1.1196172,-0.4295466,1.6453558,0.270252,0.5424123,0.3181094,-0.1538079,-0.15216476,-1.2994499,-0.23087183,-0.92250264,0.06773483,-0.17797814,-1.0154995,0.70401835,-1.2752519,0.65679675,-0.6416025,0.25147757,-1.6026024,-0.71093106,0.099279165,0.444455,-0.2810056,0.8311225,-2.5742524,-0.1973811,0.2451468,3.100571,0.27263686,-0.7602579,-1.0235838,-1.4080672,0.03427878,0.80310225,-0.99048555,0.6968503,1.7275016,0.4363425,-0.016680965,-0.2513819,0.35146943,-0.08910559,0.20863086,-0.81705356,0.5291421,0.5212277,-1.0537513,-0.64547527,-0.8678443,0.056309577,-0.095576495,1.053037,-1.9596682,0.28757837,-1.4210583,-0.5230877,0.4310637,-0.09579527,0.82646304,-0.6176422,-1.5411326,0.15041353,1.3901762,-0.3853659,0.15640026,-0.6037916,-0.6064622,-0.23818947,2.003694,-0.5470624,-0.5761423
target_dataset:PE/CA-PJ15,2.3353908,0.18639356,0.5072009,1.8666148,-2.086365,0.06472868,1.6949755,-0.06848994,-0.3339773,-2.3320434,-0.44286698,-2.364165,1.1307797,1.09015,0.4387222,0.2517143,0.2919047,-0.6113018,0.59235793,-0.7240385,-0.8427578,1.4447807,-1.0016468,0.6429637,-1.5435101,0.7582745,1.1343614,3.0005953,-0.7131668,-0.7763639,-0.66670144,-1.8378259,0.8621939,-0.1524582,-0.57252836,-0.81236976,-1.4277716,0.1168793,1.1135967,0.4005204,-0.9786818,0.027736975,1.0739177,0.52341455,-0.43842965,0.10485981,1.1989079,0.45673966,-0.049664125,0.1679042,-1.6422516,-0.4296112,-2.365062,-0.7122894,-0.12869236,-0.866162,1.6079829,0.29980332,1.67136,0.33245715,0.0675203,0.7664969,-0.73298776,1.5977968,0.40217203,-2.2671285,2.025107,1.956116,0.9630017,0.40289977,-1.0300106,0.56718725,1.5903051,0.13061827,1.4749682,-0.124751285,0.6479129,0.24293174,-0.54475766
target_dataset:COR-L311,1.1244549,0.8627444,1.1579771,-0.546797,0.53501695,-0.15156579,0.31247768,-0.71483076,1.2962899,-0.78273165,-0.4054004,0.19357473,2.1701868,-0.31300378,-1.0195134,0.8602031,-0.90710866,0.2706981,0.5328602,0.91521597,-0.08414797,-0.9355003,0.8157262,-1.2378316,-0.07957816,-1.0048095,0.03274744,-0.5456572,-0.14835012,-0.23180372,0.46528292,0.017616354,1.7204062,0.23497155,0.8756397,-0.72236013,-0.26141977,0.80128425,0.9701836,0.95544887,2.0903082,0.16710034,2.2432792,-1.7388091,0.099987775,-1.3002656,-0.42816943,-1.6052223,0.4600605,-0.82616013,1.4962412,-0.48880005,0.23320629,-2.2522488,0.7629077,0.3720172,-0.053655375,-1.1114799,0.50658256,-1.4778227,0.47074267,-2.136706,1.2551985,0.22511244,-0.36878812,1.2894956,0.060407013,-0.5909826,-0.40193892,0.3026492,-1.2045842,-1.3414953,-2.2017624,-0.7699604,0.11383243,-0.23131526,-0.8415563,1.2763258,1.2633775
target_dataset:DMS 153,-0.9314338,2.5317214,-0.94969165,-1.9708631,0.20417304,-0.39088473,-0.23212598,-0.5378182,2.4344397,1.2743919,-1.4480633,2.0076532,1.2102119,-0.21815783,-1.7629831,1.462925,1.020728,0.76110595,0.45284432,1.2943282,-0.031904027,0.146454,-0.20097141,-1.0676837,1.8601116,-0.6793626,2.8430488,-0.51120347,1.5383224,-1.1956315,0.75105923,-0.16345713,0.4418992,-0.60392755,1.4291792,-0.09021873,-0.5806032,-0.42207494,0.061811294,1.5656055,-0.35059294,0.5368713,-0.2903477,-0.84890884,-0.44978565,-1.5514927,-1.1168132,-1.6500262,0.67782134,0.27468717,0.3895594,0.3615455,-0.7477863,-3.4315464,0.26845548,-0.10036711,0.3449204,0.1718677,0.956609,-0.6212165,1.583902,-0.17441133,-0.26714295,-1.7376174,-2.2506096,3.4989388,-1.4830878,1.2429693,0.79593784,1.2111629,-0.43204084,-1.7325164,0.07373838,0.05944806,-1.1721301,0.2354571,-2.0748124,1.0410743,0.933103
target_dataset:CFPAC-1,0.18749046,0.38057408,0.2214843,2.2635949,-0.053411394,-2.5693104,1.9546944,-0.9235716,-0.0821434,-0.501791,-0.34372625,-1.4104925,1.3873405,1.7920004,0.89596504,0.010040447,0.3986916,0.9815745,0.2618249,-0.9262334,-0.089083865,1.6887896,-2.4451993,0.074586734,-1.179867,-0.53936446,0.04984819,-0.12480791,-0.19299765,-1.7279551,-0.33382884,-0.8674131,1.0325972,-0.23721786,0.7832566,0.20863153,-2.9483557,1.271389,0.43054682,0.17812394,-1.6597562,-1.8293684,-0.26690677,1.8228142,2.1646814,0.9408381,2.1030202,0.07189591,-0.39760843,0.5772183,-2.2896888,-0.005005844,-2.071408,-0.2516058,1.390833,-0.5427561,0.8497268,0.1682497,-0.65578705,-0.78549397,0.55455476,1.5197649,-2.046689,0.64592516,-0.26209435,-2.0380123,2.1764035,0.79526925,0.04988274,0.6694869,0.35933247,0.534583,1.1177193,-1.2374604,0.5025897,0.423982,-1.1450499,-1.4818347,-0.38758603
target_dataset:SBC-5,-0.79532754,-0.16492775,0.049765177,-0.63050896,-0.48943022,-0.71341574,-0.54992676,0.7479112,0.28016913,-0.027927011,-0.078589685,0.15688431,-0.32991135,0.089077055,0.48376027,-0.5358436,-1.2737527,0.38587224,-1.0938146,1.362998,-1.2032155,0.63584435,1.7674108,0.318236,-0.20437166,0.33725291,-0.9707192,-0.14416075,-0.6810509,-0.5045659,0.5835006,-0.14386205,0.8524709,-0.80944616,0.8674035,0.75907063,0.78973824,-1.3657423,0.00039735436,-0.6942507,-1.4938966,-0.5299034,0.42109016,-1.2507763,-1.4773535,-0.25449178,-1.4834286,0.46981835,0.11502731,-0.6095565,1.4890114,-0.58626306,1.1256405,-0.22442721,1.1083584,-1.5043408,-0.9766598,0.93709695,0.035932243,-0.5923951,0.25845072,-0.07040724,2.5642684,-1.3698994,0.1060632,2.4983234,-1.1657226,-1.1869265,0.77848095,-1.2677618,-0.5902391,-0.56773585,0.29997554,0.5267954,0.34661388,1.0314919,1.6387299,0.9740182,0.052561056
target_dataset:SNU-213,1.8116463,-0.47145525,-0.46477097,2.5155752,-1.1518371,-0.7414615,1.41767,-0.36185014,-0.7231457,-1.3971647,-1.1159835,-0.5492209,0.3042176,0.5226981,1.4975588,0.9136863,0.009410864,0.49683028,0.91748893,0.38557917,-0.31418243,1.2611738,-2.4812949,0.5836234,-0.6094542,-0.61198527,0.30674034,-0.1858258,0.03530343,-1.1272159,-0.81897086,-0.925456,0.2716193,-1.4406028,-0.2518185,-0.7762557,-1.7873652,1.7087083,0.098771095,0.9382854,-0.26741952,-1.3675208,0.31536332,0.8266919,0.23513986,-0.5893909,1.6312307,1.1619908,0.3253246,1.046965,-2.2630272,0.5497033,-1.9571621,-1.0579597,1.0227422,0.7648753,0.8753397,0.90820277,-0.118226364,0.36943933,0.63885784,1.5847481,-0.67930305,0.87621224,-0.24247731,-2.4632232,1.3797665,1.3766901,0.2589178,0.97310036,-0.018206164,0.32687214,-0.1737757,-1.2764899,0.3775974,1.0444542,-0.7134426,-1.5920914,-1.0685558
target_dataset:NCI-H596,2.2741983,0.25851473,-0.231483,0.7659126,-1.2805147,0.14763628,0.90967417,-1.2106699,-0.313911,-0.49274385,-1.4003565,-0.9179098,-0.15403913,0.60920507,0.073709264,-0.82479984,0.7078237,-0.6125935,1.3017869,-0.36543542,-1.3360947,1.4356453,-0.6955701,1.7463944,-0.49094623,0.41646892,0.5300789,1.7858379,0.0074907723,-0.7504769,-0.045785643,-1.097926,-0.11103493,-1.0328872,-0.19476542,-0.73094815,-0.38684374,-0.18522874,-0.89174044,0.1968618,-1.1753573,0.06303762,-0.70569366,1.2891434,0.33143306,-0.5873783,1.6062328,0.9494301,-1.2269061,1.3884629,-1.8371795,-0.022250101,-1.6568086,-0.8346479,-0.46805695,-1.3707796,1.0253624,1.6200387,1.0295237,1.1079736,0.08897392,0.544677,-0.15831512,1.4192797,0.1510506,-1.3334491,1.5763314,1.3208835,1.4797243,1.2321249,-0.15105975,1.0894318,0.087236226,0.67154634,1.0400425,0.8946629,0.6948559,-0.15545416,0.1616782
target_dataset:NCI-H2291,-1.2186587,-0.4969072,-0.36499703,0.2977765,-1.5252098,-0.023510382,0.47648206,0.5575032,0.32914013,-0.3542553,0.58293986,-0.5585517,-0.37575665,0.8208048,-0.52731586,1.1624479,0.25393012,-0.11689705,0.3348706,-0.29602644,-0.2966691,0.3262136,-1.8987534,-0.56067127,-0.8622498,1.090642,1.0893046,-0.21149693,0.60816705,-1.0766773,-0.5979815,-0.21657611,-0.56586677,-0.27204406,0.82875663,-0.23722538,-1.1874372,1.8301938,-1.3933648,1.3844082,-2.0246263,-1.3512799,-0.39392707,0.71855724,0.9370295,0.9330501,2.7923453,1.3620089,0.38562807,1.0271404,0.27513868,0.12945455,-2.2125766,-0.8244376,1.1358395,1.0921291,1.0704923,-0.4089811,-1.1488626,0.51803744,0.6867394,2.331843,-0.74316746,0.3116969,-1.2937344,-0.91001487,-0.10122941,0.09558134,0.9086798,0.9195968,-0.8378632,0.22484145,-1.7651888,-2.6128616,-0.062300004,0.039542012,-1.0632043,0.34884623,0.62919796
target_dataset:Hep-G2/C3A,-3.5662913,-0.55900794,0.4553433,0.28628114,0.92167723,-0.5005528,1.1995612,-0.579576,0.6805231,1.0301698,1.0220251,0.98727274,0.1098274,0.92981577,-1.4914156,1.6244498,0.10796496,0.56992996,-0.2533187,0.8391084,1.4674462,-1.0974642,0.86782193,0.35725668,0.4090274,-0.66627187,0.424687,-0.10041982,0.68304104,0.9722374,0.5485829,1.5402788,0.789709,0.43601367,-0.55127966,0.7810861,0.3575977,-0.53848106,0.95121527,-1.6021351,-0.9733425,1.5605909,-0.10628112,2.596237,1.7530308,0.2339313,0.56150186,-1.5462688,2.6951811,1.8933489,0.9428078,0.15350936,0.90085006,0.076861314,0.89860845,-1.0517367,0.032839198,0.5095173,-0.179452,-2.825294,2.8081012,-1.0547644,0.23382717,-0.9559013,0.26170364,-0.5596234,-1.5258799,-1.6398051,1.5170176,1.5240294,0.298609,-2.1132054,0.4372589,0.8749713,0.2415334,-0.6865434,-1.1867111,-0.18147433,0.32925904
target_dataset:IMR-32,-0.23740211,0.71838415,-0.5002928,-0.8087121,0.42520928,-1.224898,-0.22008829,1.6247984,0.47869003,-1.4114908,0.31641036,0.60544205,2.0018306,0.952312,0.8473066,-1.1421798,1.2474343,-1.3583338,0.6231509,1.3084664,-1.8868266,1.1518731,0.5772217,1.2692788,0.16636233,-2.8710084,1.529086,-1.8773807,0.49058452,0.4382726,1.1564422,-0.122664616,-0.16076872,-0.5449043,0.1546478,1.496286,0.4391678,-1.0255566,2.4433794,0.4134524,2.1099586,1.2950062,1.2679844,-1.5247957,-0.22742824,0.30306113,-0.9119543,-0.9192927,-0.5860116,-0.9234312,0.9606278,0.26219368,0.7775252,-1.050113,0.21827593,1.0239594,-2.5712247,0.47109407,0.9697362,-1.3961135,-0.048950553,-0.24472187,1.1242423,1.385461,-1.2560015,1.7547154,-0.5721605,0.20724194,-0.0911565,-2.3695152,-0.652509,-0.42277327,-0.7308362,-0.4602381,-2.1000917,-0.20939866,1.0894166,1.7264047,-0.28167558
target_dataset:ST486,0.6756306,1.5967093,1.356667,-0.43375286,0.18385337,0.82517093,-2.9327352,-1.8980075,1.381382,0.19500984,0.83299905,-1.0176785,-0.17080747,-0.9324908,-0.57670194,0.5397943,-0.28108862,-1.0127605,0.5853763,-0.89664805,1.3340596,-0.9522815,2.0531993,-0.26180217,0.9858643,-0.5972774,0.7208454,-0.6911146,0.7505185,-0.3948581,-0.2888419,-0.0041637863,0.75932145,2.3939953,-0.22796813,-0.6474606,0.46799567,0.11931241,0.6870146,0.22656578,-0.55319977,-1.6194749,1.1949574,-1.175486,-0.9795477,-1.6368878,0.04004696,-0.9045336,-0.67051256,-1.2842498,0.93138963,1.1926674,0.14862746,0.3549167,-0.82787204,0.699759,1.0747256,-1.4337626,0.37139428,-0.8237084,-0.20167992,-0.46506625,1.428975,0.0606254,-0.28773063,1.9533336,0.11495863,0.14336182,0.06662299,-0.9345805,-1.1508108,1.3833295,0.0748746,1.5988712,0.23593965,0.19936576,-0.6787263,1.1478322,0.6082832
target_dataset:MDA-MB-157,0.4570559,-0.5704147,0.30573153,-1.1484067,0.26612252,-1.196273,0.43823048,-0.12878288,0.40057954,-0.29497257,-1.0715052,-0.027170498,0.20457746,-1.0628965,-0.36678994,-0.7867084,0.32687652,0.24620299,-0.75337404,0.12931561,-1.4429497,0.71183443,-0.41763306,0.70025676,0.41596577,-0.45788002,-1.3103167,-0.44130427,-0.69807357,0.19951119,0.66140455,-0.19833744,-1.4964623,0.31668016,0.6738255,0.33751228,0.8494687,0.22290601,-0.84848684,-1.6180828,-0.3527833,-0.0586457,0.09588636,0.36298662,0.002498407,-0.5930445,-1.043402,-0.55261916,-0.66096234,0.5529576,-0.34355772,0.5978863,0.33727494,1.8896841,-0.7178325,-0.5098099,-0.72946024,-0.68371767,-0.4324965,0.012349866,-0.40605313,-0.9513563,0.322281,-1.4410464,0.70111144,0.06402838,-0.827829,-0.53903997,0.03584878,-0.61193067,-0.84276336,-0.5493603,0.2645577,0.47011954,-0.5824473,-0.6079849,1.4417171,1.8179526,1.4177909
target_dataset:8305C,-0.20633169,-0.21320012,0.9798,-0.34534812,1.9589803,-0.2979704,1.8792828,1.3319676,0.36795035,0.041084804,-0.84667027,0.0024577081,-0.3199957,-0.5299641,-0.41414076,-0.6453097,1.3193566,0.60947967,-0.106363714,1.5498561,-0.15049243,1.9329928,0.0540453,-0.044343397,-2.2809074,0.10652639,0.0947801,0.05746968,-0.16843207,-0.13480005,0.30626774,0.573189,-1.2214596,-1.3575515,0.11041893,0.50118476,0.12058645,0.17541493,-0.98245823,0.3115216,1.6670593,-2.190029,-0.38054657,-0.3717275,0.17695151,0.326342,0.28850642,0.2971453,-0.23704785,-0.99026275,-0.48216435,-0.6886284,-1.9235256,1.4358926,-1.6376951,0.70418847,-1.0947124,-2.5232327,0.72664094,1.6718391,-1.7920449,0.173132,-1.852373,-0.46631607,-0.42406958,-0.13538113,0.05246947,-0.204992,-1.8602893,-2.0936556,0.6457674,0.35884297,1.7081991,-1.3347893,-0.113697805,-1.3260156,-0.6323725,-0.3662886,0.73657733
target_dataset:NCI-H2196,0.4176437,1.3870531,-0.8404492,-2.9924123,-0.050359834,-0.44533697,0.492491,-0.44516277,2.3613448,2.2801979,-1.7358551,0.85144323,0.8722119,0.22511502,-2.396221,0.84418076,-0.0469345,0.2759995,0.077017635,1.3071465,-1.0807341,0.3900829,0.55282164,-0.85024554,0.77215916,-0.19284274,2.2760227,0.30316916,1.5853676,-1.5154395,1.3429189,-0.29108676,1.0001974,-1.2880278,1.8179767,-0.7009287,-0.3153745,-1.0584531,0.18416928,1.8277202,-1.2322568,0.73214775,0.4333693,0.9782037,-0.99321836,-1.2448853,0.6496626,0.5346624,-0.05941342,0.5172359,-0.29159552,0.10118035,-0.5369367,-3.3191147,0.33629405,-0.29077494,-0.39145184,0.6293008,0.7102015,-0.8691979,2.461803,-1.1558497,0.73067665,-0.94011056,-1.7469155,3.6013107,-1.3890275,0.7084557,0.73930156,1.949069,0.14077082,-0.88886464,-0.6367439,0.22707465,0.8058896,1.5322434,-1.3745542,0.7114606,1.091232
target_dataset:SUP-B15,-0.6015136,0.9837948,0.9537012,-0.70865214,1.697622,0.092705026,-3.0193748,-0.9496536,0.5555054,0.48669603,1.2036537,-1.2961797,0.41150352,-1.5419154,0.50144637,-2.2489376,0.40808403,-1.269456,0.60427606,-0.21020506,0.4718106,-0.9817362,3.2152154,-0.0640514,0.7513791,0.2627635,0.5760313,-1.0871623,0.13947538,-0.9151066,-0.21041228,-0.1418997,1.0613656,2.3500886,-0.9632001,-0.097334586,-0.32171002,-1.3234757,0.508978,0.43188795,-0.2350014,-0.7896698,1.9952261,-0.51301324,-2.515328,-0.3599554,0.056688763,-0.27697423,-0.87206596,-1.9490491,-0.11795203,1.06933,-0.55839264,0.915566,-0.23549804,0.08519936,1.4650329,0.5998632,0.72482026,-0.71116024,0.63081837,-1.3362732,0.41054237,0.6972945,0.81177354,1.382061,0.48376837,0.3860926,0.3148643,-1.5896124,-0.7751821,0.5538434,0.5248617,2.041627,0.14683959,-1.8652048,-0.4435538,0.43948063,-0.1416519
target_dataset:RD-ES,0.926709,-0.15690085,0.64652604,-1.2806914,0.65257543,0.5901895,0.46375084,-0.034979977,0.21999174,0.39317948,2.4189312,-1.26486,1.2491275,0.01143821,0.16063565,-0.6760499,-0.72522646,0.9477924,-0.5616701,0.37578893,0.432258,0.90336454,0.27178767,1.422835,-0.12947309,0.4978388,0.14792484,1.1174992,-2.2946053,0.33586472,0.6391772,0.4730607,0.085819826,2.9530742,-0.16190785,1.464536,0.97199637,-1.1197109,1.9273185,0.16874743,0.95754534,0.51444,2.3362818,-2.8689086,-0.124189526,-0.7418444,-0.4723113,-1.0810744,-1.38827,-0.23123369,1.2737234,-1.1987816,2.211652,0.30320048,0.27281058,-0.28820208,-1.3488414,0.25600296,-0.8331783,-1.4830316,0.61232334,-0.15642214,0.87393636,0.13473623,0.976546,0.7569439,-1.1886488,-2.1962833,-0.29008377,-1.6415031,-0.30342063,-0.65685064,-0.65193796,1.4645858,0.15418048,0.5000467,1.2383668,2.3657167,-1.2307551
target_dataset:COLO 679,-1.1341696,0.27811727,-0.8205055,-1.0634964,1.3981767,1.9306536,0.6165573,0.84025556,0.38021678,-0.44376573,1.2759385,0.6575283,-0.9680342,0.91524935,0.94605327,-1.3151883,0.5701784,0.3827162,-2.1743665,-0.9583092,0.6147982,0.007343782,1.284322,-0.9057,-1.0365994,0.553044,0.4637378,-0.4398569,0.8035658,2.7728343,-0.9420958,-0.4407152,-1.049078,-0.4923861,0.6691303,1.0961325,-0.5782269,0.140196,0.1914069,0.3275376,-0.8887402,0.1831658,-0.23045145,1.073263,1.2047074,0.74689245,0.82977915,-0.51784974,-1.1103008,0.39761925,0.81227493,1.0349417,1.9884857,0.78422165,-1.6796008,0.5374551,-0.22033074,-1.619747,-0.23339438,0.48941946,0.24422832,-1.907154,-0.7298602,0.39215684,-0.6406189,0.011350923,0.40431553,-1.5874479,0.7144726,-1.0202953,-0.94738126,0.8795123,-0.44541624,0.22038315,0.27659166,0.2929505,0.4379959,0.3883562,-0.20578247
target_dataset:JM-1,0.30279014,1.2293991,1.5335085,-1.4426112,0.9095711,0.5387909,-2.5755787,-1.377287,1.4902931,0.22734141,0.9861095,-1.3628666,0.7562526,-2.0911348,-0.7990717,0.043084778,-0.049197167,-0.88909984,0.3021537,-1.3762193,2.3756747,-1.5059832,2.4058895,-0.38790876,1.3144056,0.083910204,0.9199822,-0.985024,1.1455414,0.18368655,0.27063793,-0.44257763,1.0404679,2.0256765,-0.5988486,-0.22777641,0.45699495,-0.4207045,0.4532127,-0.030965358,-0.36030948,-1.5038028,1.752994,-1.6311895,-1.5247916,-1.2959927,1.235334,-1.7339113,-0.42526174,-0.25792712,1.5837257,1.2977419,-0.3975885,1.0986743,-0.9147631,1.3181313,1.6111065,-1.4594138,0.5006203,-1.0803006,0.13203226,-0.5755895,1.1198903,0.53459126,0.85831994,1.572448,0.17445424,-1.0808158,0.007235786,-1.2006506,-1.6207719,0.64359385,-0.411004,1.9460814,-0.29086608,-0.23759155,-1.1718326,1.2708131,0.07217854
target_dataset:GI-1,0.016939938,0.31693003,0.8958638,-1.5540073,0.42212883,-0.5842247,1.277831,0.4527238,0.88406056,-0.5625616,0.037132125,-0.2580151,0.3971252,0.6504147,-0.53395724,0.019794725,0.97765243,-0.18035895,-0.62457496,-0.5014864,-0.9680429,0.5458929,-0.110042825,-0.18397972,0.3761023,0.23907971,-0.968053,-0.31878442,-0.22153363,0.42657554,-0.35839584,1.0924329,-1.5141189,-0.041794956,0.68136644,1.3826092,0.469299,0.38587457,-0.26236653,-1.6367319,0.062090512,-0.32857522,-0.6046556,0.40134823,0.49541172,-0.42319238,-0.34833503,-0.55146146,-0.6178676,-0.74199945,-0.11637423,-0.4373489,0.9469924,1.926623,-0.3142099,-0.016366377,-0.7026447,-1.012961,0.26811942,0.3296911,-0.75973153,0.41957918,-0.840079,-0.36075374,0.66938025,0.96937424,-0.5895066,-0.6205349,-0.13800876,-1.2265638,0.41700625,-0.09580627,0.7858793,0.115024135,-1.2563124,-0.124294,-0.41462147,0.76790684,0.85592335
target_dataset:PK-45H,-0.59340227,-0.28601128,-0.24603716,-0.4888933,0.82220566,-0.09271316,0.5499672,-0.8183011,0.29683423,0.537269,0.39669493,-0.14610106,-0.7125605,-0.03375856,-0.1531729,-1.0244249,1.8821741,0.08737975,1.1723094,0.53029406,-0.5416009,1.0825948,1.402863,0.590137,-0.03633097,-0.3466115,-0.1527512,-0.41192403,-1.0399866,-1.2605127,-0.46078998,-0.29810476,-1.1896573,-0.95579696,-0.62807417,0.80752945,1.2766186,-0.21171196,-1.6417389,0.5302775,-1.5739096,-0.64914,-0.70953214,1.3089913,1.0950941,-0.12358275,0.9547422,1.5930171,-0.40909073,0.65875685,0.3432005,-0.37840915,-1.656775,0.57954395,0.959607,-0.20190331,0.4483858,-0.57498074,1.124785,1.3151354,-0.7263245,0.5589167,-1.2794814,1.2858729,-1.3772454,-0.8154755,0.4294616,0.16272618,-0.012167312,-1.3336118,0.5886325,-0.017407961,0.6325037,-0.96146435,-0.38028696,-0.005851048,-2.397068,-0.050980147,0.4621537
target_dataset:K-562,0.72502315,0.4383159,-0.32446167,-0.31026265,-1.092507,1.328873,-1.3489809,-0.41080695,-1.5477238,-0.21814147,1.9457093,1.5645875,-1.0124834,-1.6196913,0.2170186,0.42929742,-3.0410776,0.9673328,-1.0949563,-0.048707675,1.0043693,-1.0883272,0.48732132,-0.3959961,-0.5584579,1.3337195,-1.2516843,0.5083097,-0.13104294,1.0777843,-0.2721585,0.48369586,0.40408042,1.7238939,0.43856418,-0.7107172,-0.34484696,0.10738444,0.2802161,0.62190974,-0.44200423,-0.5895642,1.5861598,-1.0680342,-1.7267749,-1.0487015,0.29007646,-0.11944301,-0.266177,-0.7164607,0.094726905,0.5204266,1.2259617,-0.10208349,-0.020248288,1.2675937,-0.29158732,1.2306422,-0.977167,0.63541394,2.565622,0.1341489,0.5354475,0.22958073,1.5602415,1.9023596,-1.2404809,-0.7695527,-0.33776826,-0.4781782,0.97217155,0.84729415,-1.2964877,1.5334041,0.2246892,-0.28268743,1.2296308,0.56653583,-1.820893
target_dataset:HCC2218,1.5016432,-0.30312327,-0.45828804,1.0174402,-2.0981991,-2.1296122,-0.21696459,-0.6957792,-0.24260561,-0.8476855,-1.6354476,0.86391234,-0.6160779,-0.6382205,-1.529594,0.57688004,-0.31582037,1.0108172,-1.5279077,-1.2422587,1.2348021,0.76957506,-1.4822924,-0.6024823,0.52567077,-0.33674327,0.06025684,0.014308676,0.07769683,-1.9996318,-0.49832973,-1.2639344,-0.08987782,1.9845812,0.3180677,0.1427967,-1.3601726,-0.6577319,1.2630428,-0.77165926,1.0546013,-0.26711246,-1.5119328,-1.3066664,0.17837544,0.13661483,-2.062916,-0.56517184,-0.78384274,0.2613327,0.50103796,-1.9196018,1.8664091,-0.6934521,-2.0691204,-0.09903014,-0.7171127,0.7415004,-1.4402138,-1.0934196,2.4661317,-1.2014539,-0.6366574,-1.8543822,0.26305085,0.21287008,-0.115496114,-0.4526607,-0.30184138,3.3734198,-1.8895818,-0.71416813,-0.7836044,-0.80421364,-0.2556343,1.8120373,0.90111434,2.4989347,-1.3524729
target_dataset:RL95-2,3.1495497,-0.26945615,0.050299212,2.166463,-2.2565145,-0.2650012,-0.6031692,-0.39002556,0.41931403,-0.19688329,-0.82148385,-0.34152716,-0.8563589,0.12299076,0.81131274,-0.021462956,-0.64219797,0.60575527,-0.02623201,-0.31958526,-0.795039,1.7443051,-0.9291294,-0.31333005,-0.3866248,-0.25629243,0.38490084,1.2012026,0.17282705,0.43002838,-2.2099671,-0.58263814,0.79525614,0.5953231,-0.67388433,0.7515754,-1.1344229,-0.79377997,1.6497668,1.0742544,-0.3065341,-0.025809526,1.0285864,1.9522154,-0.725511,0.86237216,-0.600638,0.46109045,1.886704,0.44034597,0.012148786,-1.2840198,-0.60596746,-0.88330966,-0.41490832,-1.3407551,1.8514372,1.1539768,0.65393597,-0.9631816,0.29621005,1.1385672,0.80872893,0.53623164,1.3297639,-1.8051431,2.5970652,0.78126323,0.5462161,1.540946,-0.3488247,-0.47566777,1.6605198,-0.9426191,2.2359693,1.4792054,1.4091752,-0.31022877,-1.1452682
target_dataset:NCI-H2030,-2.0959117,-1.2200423,-0.3430625,-0.31854472,-0.702812,-1.8546445,1.5200071,0.42274195,-0.6370876,0.91881907,0.5589545,1.6055998,-0.89844275,-1.3759444,0.509562,0.3015243,-0.2629794,0.78967565,-1.4273084,0.68968207,0.9027348,0.043283038,0.71880066,-0.51048154,-0.3603221,0.46503285,-0.7751292,1.6037043,-0.41265434,-1.5338897,1.310776,-0.28442848,1.4328969,0.07515577,-0.8569472,-0.1940077,1.8986622,-1.1108137,-0.7073744,-0.27517134,-0.35034513,0.3956745,-0.039775953,1.4391416,1.2956471,2.0222905,-0.931663,0.40254933,-0.57820547,2.2292972,-0.2239705,-0.896807,-1.8249824,1.5365523,0.51860535,-0.67195207,-1.1246078,-0.6398063,0.025111789,0.9136299,-1.9403878,-0.059065156,-0.12674496,0.13398704,0.23172343,0.029345173,-1.1329968,-1.7419298,-0.19320947,-0.3888172,0.497791,0.054819293,-0.71868104,-0.101388425,0.22052483,-0.9927665,0.64303166,0.23089027,2.4381514
target_dataset:SK-MEL-3,-1.4694219,0.15736872,-0.94235533,-1.0069253,1.3174317,2.5453262,-0.7399954,1.443375,0.08875823,0.1632317,1.3868887,0.81458795,-0.24556312,0.7858014,1.2711794,-1.1439451,-0.78783727,0.66828114,-1.1789677,-1.3045022,0.6591555,0.2634481,0.060847033,-0.8493095,0.25740057,0.3236752,0.2969076,-0.86606514,1.3515738,2.2074695,-0.40464765,0.130614,-0.9253651,-0.8571883,-0.123030625,2.6114333,-0.98487014,0.26310992,0.032804064,-0.2549972,-1.4947693,1.1308377,-0.43462554,-0.18023424,2.1416895,0.89832836,0.93439144,0.39828798,-0.10689174,-0.20546444,2.6527393,1.8488485,2.8469112,-0.55070716,-0.9868301,0.6288707,-0.82582974,-2.0554445,-0.6734678,0.3907123,-1.1083345,-1.1659311,0.79128,0.019465849,-1.999581,-0.3026986,0.08355042,-1.7551675,-0.65571135,-0.6669887,-0.9980762,0.27382705,-0.54182756,0.3801623,-0.5621866,0.54023314,1.0451164,-0.095115505,-0.8117301
target_dataset:HCC1937,2.2420979,-0.73818225,-0.68957144,0.9377696,-1.9549212,0.26694578,0.016543776,-0.37052864,-0.54831,-1.9867649,-0.4766728,-1.2214756,-0.938485,-0.47719914,-0.8367222,1.2551908,0.2420638,-0.2949125,0.72014403,0.03944557,-0.62410516,1.4396198,-0.8166626,-0.09155831,0.11577375,-0.35080957,0.369175,1.2540238,-1.4688718,-1.7327594,-1.6419507,-2.7238693,-0.3163242,-0.81138057,-0.89977264,-1.5000938,-0.62341005,0.14312935,1.0212003,1.4868511,-0.92625606,-0.19308518,0.34076107,-0.8745179,0.07973157,-0.3812947,0.23766685,0.9377394,0.090143055,-0.54123706,0.55897576,-0.55211484,-0.66382146,-0.5047552,0.3146962,0.56108755,1.7736776,0.29084247,-0.09459843,0.5164157,-0.77295315,0.73906034,0.81590617,0.40204263,-0.30475324,-2.4345298,0.6858754,1.0801775,0.55945855,0.34190986,-1.9547994,0.80614763,0.61514956,-0.55077994,2.9148164,1.3350687,0.29473254,1.9756736,0.1483269
target_dataset:SCC-15,1.2388383,0.83031243,0.17256753,2.0366035,-1.1376503,-0.27627462,2.043136,-0.15795125,0.3480268,-1.776042,-0.87172323,-1.5098151,1.4202106,0.4373838,0.80098873,-0.13560003,-0.054175165,-0.39937207,0.49947578,-0.29625988,-0.2755017,2.9979267,-2.5614688,1.3952855,-2.7776551,1.4156111,0.85167253,1.9617058,0.41064978,-0.4162001,1.116215,-0.58153284,0.05019661,-1.1476116,-0.37580237,-0.4577827,-2.0227864,0.6063879,0.4704389,-0.3482036,-0.07903662,-0.38455245,0.1510895,1.1991954,0.10302159,0.6427895,1.6956347,-0.19753471,0.6589911,0.99048716,-1.9114145,0.04919564,-2.6931236,-0.18559557,-0.3999973,-0.9481624,-0.9606133,0.15688547,1.1957774,1.631494,-1.3239666,1.519029,-0.50612134,-0.087555975,1.2066997,-2.5871694,2.4832683,1.6390473,0.09827173,0.7277075,1.0129222,0.5395709,1.3510607,-0.44089207,-0.17319402,0.46529353,1.4130951,-1.7184836,-0.33487874
target_dataset:Panc 02.03,-0.16221073,-0.63971037,-0.10350553,2.5077958,-0.75888985,-1.031996,0.70363295,-0.54150647,-0.77120936,-1.0725433,-0.33132172,-1.928803,0.22618556,1.9680918,0.65256786,0.4586272,-0.14737195,0.08436674,0.18112847,-0.43864584,0.54539156,1.8324726,-0.46104923,-0.320221,-1.5349163,-0.9383934,-0.30697298,-0.18342894,-0.8163436,-1.6389847,-0.70285875,-1.6387503,0.1456611,-1.2544355,0.42104295,-0.3369733,-0.91101104,0.6867968,1.4272557,1.6017371,-1.4245846,-1.5326276,-0.09555439,1.0578557,0.84900475,1.305251,1.4667598,1.3432664,0.11461958,-0.30053648,-0.60176814,-0.8102821,-1.7335814,-1.3603591,1.70593,-0.20057541,0.9380679,0.3860172,0.4223289,-0.0662975,0.12720995,1.0737653,-0.32984433,0.3716127,0.011053517,-1.6834295,1.7973416,0.74025595,-0.23723955,-0.17693892,-0.14164583,0.6215111,1.0553095,-1.3749723,0.7178436,0.25969714,-0.9957181,-0.31020665,-0.5650882
target_dataset:TUHR14TKB,1.9223481,-1.3467344,0.16213092,-2.1849306,0.4353991,0.074964575,1.1527535,1.5806108,-1.0173138,1.3979152,0.35296005,0.6890005,-0.97897565,-1.4137107,-0.4021003,0.16786498,0.29949704,0.14593895,0.7881488,-0.105654396,-0.40464887,-0.30249864,-0.49904773,-0.39248368,0.455292,0.8617558,-1.0178212,-0.56540674,0.46994764,-0.855427,-0.74962634,1.1404529,-1.7569878,1.0394657,-2.1856694,0.6372129,1.5276525,0.8773876,-1.6308213,-0.14883055,-0.8251142,-1.0133227,-0.68436986,0.03620758,0.5652265,-1.3905948,-1.399477,1.669313,-1.5283687,1.3805429,-0.62047535,-0.7845954,0.68754554,0.42285532,0.6153343,-0.15014866,1.2007301,0.6753195,-0.13969332,-0.47598746,-0.8917434,-0.50432533,-0.14333329,-0.3431145,-0.21107437,-0.2303818,-0.21743193,-2.1155324,-1.0934514,0.15885444,0.2248955,-1.1967027,0.42057455,-1.4597808,1.6707352,0.92270344,-1.8859189,0.18756855,-0.25243396
target_dataset:C2BBe1,-1.8249723,-1.8236985,-0.14656547,0.4369831,-0.30904996,-0.14246348,-0.11180932,1.655962,0.9755075,-0.7715844,-0.15374385,1.2839482,0.43279082,-0.6423971,0.81988364,1.381634,0.94235885,-0.55206877,-0.48871398,0.9523312,1.631894,-1.238335,0.2987234,0.04457957,1.3543562,-0.34343734,-0.29709375,0.7849855,0.7045637,-0.07865665,-1.1131414,0.42224407,-0.5479895,-0.2705859,-1.7058918,1.4723843,-0.12971663,1.1391684,0.009942621,-1.103436,1.2720146,1.6933724,0.4568459,1.9462405,0.9827147,1.3406632,0.9072355,-2.002161,3.4794853,0.9406354,2.124058,1.2910781,0.8950697,0.5824149,0.70856744,-0.27069512,1.160022,1.3203242,-0.2649708,-1.4764858,0.32143584,0.82492554,0.100663766,-0.8311813,1.1437823,-2.4843395,0.018631764,-0.30153638,1.5396291,1.1605251,-0.49670935,-2.274365,0.089083046,-0.67497,-1.2591481,-0.72047853,-1.2151574,0.26807588,-0.2276769
target_dataset:NCI-H1155,-0.20679785,0.46501005,1.3731055,-1.1032073,0.73737943,-0.32943562,-0.15303147,-0.3627111,1.5927205,-0.7072498,-0.55777335,0.5376084,0.09878367,-0.102914676,-0.06532393,0.11363603,-0.038790867,0.9194993,-0.5926458,0.9042897,-0.633978,1.1649321,1.1401932,0.8929802,0.012138984,0.103168346,1.4678522,-0.80117816,0.77363366,0.44444305,1.0332938,-0.42314306,-0.74339795,-0.5559797,0.7634631,-0.069245644,0.6942117,0.28212753,0.2788852,0.84775484,-0.102463216,0.42329168,0.42944863,-0.40683916,0.20885955,-0.55066335,-0.29996055,-0.5686511,-0.87083596,-0.9399671,0.017700098,1.0503551,-0.41123348,-2.4607418,-0.1761507,0.7171725,-1.201047,-1.226196,1.2607632,0.045104668,0.0067623947,-1.4277653,1.1272923,-0.6304607,-0.22771357,3.583366,-1.6298691,-0.11292344,1.3757027,-0.07006976,-0.31561062,-1.2063638,-0.12920934,0.32409114,-0.6126758,0.3793586,0.22541475,2.235521,1.1053475
target_dataset:Hs 934.T,-0.34975657,-0.11052044,-0.034105167,-0.6121092,0.20277329,-0.032900132,0.37309426,0.6299528,-0.4636709,0.91522473,0.033161335,1.2805173,0.41738048,-0.30413085,-0.1686461,-1.0579154,0.65085006,-0.6443608,0.93052083,0.14276958,-1.6224042,-0.72443014,-1.3147645,1.6555957,-0.07045314,-0.09848164,-1.0144796,-0.121282026,-1.0063097,1.1177387,1.2672352,2.3084354,-1.5822064,-1.0731024,0.6289108,1.305754,0.75665426,-0.06494276,-0.8779208,-1.627437,0.18312183,0.23626411,-1.9301275,0.3725378,0.7143245,-0.8553234,-0.12467186,0.17934129,0.14878018,0.33823454,0.022950526,0.2427175,0.5580903,1.934004,-1.3130001,-0.06032604,-1.0873865,-1.6291171,-1.0892078,2.172034,-2.20588,-0.32234028,-0.31866562,-0.15844816,-0.73915756,0.3576209,-0.5893891,0.49529213,-1.8011392,-0.41481394,2.0174227,0.86645234,-0.021375343,-0.72239137,-0.7828673,-1.1417273,0.47099063,-1.5922183,0.5523973
target_dataset:KP-3,-1.0949403,-0.29457325,-0.37873492,0.71484965,-0.9898863,-1.1398988,0.33875722,-0.61984056,-0.0763343,1.6924448,-0.8064467,0.53853726,-1.6175017,0.73379594,0.37482226,0.18612371,-0.6655351,1.3622762,-0.9711071,1.3996927,1.3327726,0.14701827,0.787364,-0.9167781,0.36819905,-0.19674912,-1.1612058,0.0011596978,-0.28948995,-1.24619,-0.46246067,-0.09208317,0.37919447,-0.6005415,-0.058368973,0.6553406,1.1712644,-1.421545,-1.423928,-0.4476978,-1.7615982,0.04952719,-0.5676623,1.825339,0.092626676,0.099004395,-1.243099,1.8559277,-0.2426031,1.6003839,-0.32176784,-0.81689334,-0.64296687,-1.2475594,1.6975323,0.48394996,0.61368173,1.3755041,0.37838328,1.2018373,1.4888706,1.1087487,-1.1418408,-1.2063477,0.025450386,0.5148869,-0.61304086,-1.375324,0.6814945,0.77264446,0.4836258,-0.48745874,-0.55167854,-1.365321,-1.0355265,-0.2607638,-2.0173376,-0.670191,-0.28865102
target_dataset:MDA-MB-134-VI,1.0765737,0.021338915,0.6811425,-0.7982403,-1.9887846,-0.7915523,-0.7543472,-0.5448141,0.9521652,0.5070622,-1.9310786,0.38205785,0.9172591,-1.6010684,-1.734307,-0.4475228,-0.5466909,0.5935532,-1.4592237,-0.64031875,0.69000345,0.15949929,0.4197227,-1.0521902,0.092629224,-0.29633957,0.43007317,-0.7909609,0.5554452,-1.2690557,0.9733338,-0.47785765,1.1897006,2.4602094,-0.8011569,0.4884861,-0.6094865,-1.7138724,1.3858849,-0.44523552,1.1013355,1.0197833,-0.20013244,-1.4646808,-2.3088777,0.08557323,-2.6073217,-0.122384995,0.68917847,-0.06510037,2.18162,-1.866643,0.8130148,-1.2449057,-0.9238544,0.33912158,-0.21316332,1.9498205,-0.46804342,-1.3444922,2.5183263,-1.4351671,0.5617155,-1.2464559,-0.12270369,1.0469804,-0.70534027,-0.5871476,-0.033516876,2.4971266,-1.432318,-2.2479286,-0.26124704,-0.77295417,-0.9512514,1.6969428,0.42609626,1.1661354,-1.08367
target_dataset:SW579,0.059497736,0.25296134,0.5205752,-0.9742353,0.2839979,-0.40614304,0.89175874,-0.02668955,0.47726595,0.5305667,0.2671063,0.7555349,0.2196706,-0.11334278,-0.33328503,-1.1023794,0.73770887,0.29324222,-0.041352272,0.087612666,-1.4395179,0.2578502,-0.9372395,0.8061214,0.040398017,-0.31514138,-1.5428067,0.27660704,-1.5159179,0.12825663,0.21209449,1.8897032,-1.2065419,0.16068691,0.36301938,1.6156031,0.3871206,-0.011102252,-0.14061105,-1.0660571,0.6253732,0.05908099,-0.9036183,1.0010973,0.8440848,0.460522,-0.50031286,0.3194959,-0.22714421,-0.6083341,0.43880108,-1.1445751,0.4531922,1.827141,-0.97191876,-0.010086581,-1.0135263,-1.4863554,-0.08050424,1.4275756,-1.241535,-0.7301486,-1.593687,0.5652926,-1.2888855,0.42192784,-1.3693031,0.17277911,-2.0212538,-0.87824714,1.5210848,0.5860167,0.3209803,-0.3712001,-0.871352,-0.4097275,0.16684239,-0.022470327,1.3019737
target_dataset:SCLC-21H,-1.0226079,1.1355319,-0.12108687,-1.322014,0.42884064,0.05487514,-0.4990498,0.19917156,1.0462505,0.6421362,-1.2907411,0.8327779,1.7709899,-0.44336274,-0.397735,0.86088616,-0.109241545,0.42706326,0.060903072,0.5311315,-0.130595,0.08842891,-0.067204945,0.4376409,-0.46249637,-0.09607769,1.9527111,-0.9046241,1.1672976,-0.07743147,2.3412766,0.25236678,0.48316064,-0.5024204,0.7923516,-0.7338577,0.5271223,-0.8421293,1.4556754,1.2047437,1.4584734,1.3220702,1.0300221,-2.00506,-0.49557394,-0.32348317,-1.1465075,-1.2424325,0.2533524,-0.074438885,1.2420328,-0.13151623,-0.13729982,-2.6983502,0.056582473,0.7955647,-0.83054,0.40228987,0.31497073,-1.507798,0.7074148,-0.3952148,1.1499821,-1.4464217,-1.744374,2.8363395,-1.7246373,0.13396832,0.5066212,1.3052359,-0.5188514,-1.0957966,-0.6113283,1.0458211,-0.4528518,0.3990812,0.82083595,0.95781374,0.7420365
target_dataset:OVISE,-0.8817551,0.64776427,-0.60124797,0.20225209,1.356863,-2.7392035,0.040894136,0.03223586,-0.8359508,0.64460516,-1.9461234,-0.3640126,-1.3010285,0.6200311,0.9671669,0.7740952,-0.7543204,0.5139581,0.48679715,-0.8483341,-1.2481121,0.5475863,-0.9094501,-0.68136126,-1.4027531,-0.32555175,0.3119896,-0.39726233,0.9334841,-0.55231315,0.2930603,-1.0849123,-0.70861065,0.58561134,-1.1617914,0.26955396,-0.2891256,-0.2802038,0.06305657,1.353278,0.14343561,-1.4684509,-0.34310782,-0.37742445,0.81242603,0.6616381,0.011327192,0.16903807,1.0160278,1.957779,0.47653124,-0.55571723,-0.79276377,-1.1393298,0.6056443,0.7702373,2.237115,1.1161679,-1.8679436,-2.5317047,-0.39940402,2.18049,-0.8576764,-1.6757599,0.5446603,-0.6773973,1.358263,-1.539355,-2.0024927,1.0845225,-1.5721757,-1.3682956,0.77323043,0.13190034,1.8744663,0.78587455,1.0472962,-1.1019176,-0.051131174
target_dataset:PL45,0.079039976,-1.4729917,-0.21780324,1.462417,-1.2406311,0.13481162,0.7618804,0.024513148,-0.46043918,-0.08693367,-0.4769375,-1.0668315,-0.29108128,0.13068327,0.07183617,1.2520396,-0.39378375,-0.5819057,0.33215758,0.057262704,0.899727,0.86067545,-0.27915373,-0.5474971,-1.5132796,-0.9670838,-0.30612293,-0.4639034,-0.15741453,-1.3228796,-0.3916546,-1.8204231,-0.6506228,-1.3041832,0.07095016,-0.5778495,-0.24632128,1.0706981,0.82263,1.9314318,-1.7441578,-0.7210044,0.14228418,1.8108295,0.21713401,0.22001773,1.5385404,0.805518,0.20058456,-0.107506946,-0.27985856,-0.93345606,-1.2038897,-1.0770336,1.0764515,0.18229428,1.2114245,0.6197816,-0.027200885,0.52969444,0.16303435,0.06344421,0.5346893,0.5481686,0.11775597,-1.8047292,1.4781133,0.69152343,0.66183203,0.42970175,-0.7893306,0.6354481,0.04874391,-2.116528,0.8446508,0.6721166,-1.7398473,-0.2096602,-0.84342134
target_dataset:DMS 454,-2.142796,2.7009556,-0.881558,-1.786267,0.9445733,-0.40675429,0.48831162,-0.407776,1.6738681,1.3470718,-1.7503686,1.6845696,0.02739339,0.16254526,-1.8806038,-0.06612647,0.6778277,0.40134436,0.31026137,1.9793888,0.90665054,-0.23337762,1.6366702,-1.7496084,0.124985926,-0.698253,1.628765,-0.3759063,2.9606786,-0.5382993,0.8877307,-0.7307262,-0.5642952,-0.7165137,0.6097464,0.2115278,-0.53877354,-0.28915682,0.47100538,0.5884157,0.21068053,0.38323867,0.7291925,0.34162766,-1.0052145,-0.82688564,-0.99377674,-2.550562,0.6268014,0.1654793,0.80883145,0.16699143,-0.0014124871,-3.2560785,0.28385442,-1.4112674,-1.0414563,0.5946677,0.007981788,-1.2347946,3.1029532,-1.4126089,0.629481,-2.235141,0.24025136,2.4854429,-0.7248499,0.36048135,2.4693286,0.9517484,-1.2207152,-2.8049002,0.18916866,-0.2672976,-0.90456045,0.24223071,-2.0035949,1.1454272,0.7337443
target_dataset:GCIY,-0.97497785,0.12227789,0.3977035,-1.0599914,1.1376323,-0.90564126,0.09034435,-0.19616918,-0.9493652,1.0614084,0.27797115,-0.051205263,-0.5746634,-0.04302772,1.3641549,0.47518116,-0.4667355,-0.021964446,-0.7409593,-0.22493786,-0.51177484,-0.92372614,0.9588639,0.68187034,0.08205728,-0.27747723,-0.46238098,-0.22553444,-0.23229541,-0.12930079,0.00045848475,0.16526975,-0.095000796,0.82572985,-1.2227215,0.55674106,1.1978939,0.010517314,-0.75158334,-0.096395984,-0.55543333,-0.2261244,0.07558241,0.49796584,0.802029,-0.25539103,-0.27354264,0.8141503,0.32874733,1.5714693,0.7620577,0.63946515,0.22213566,0.6507418,1.1722327,0.94908786,0.8195114,0.37688226,-0.5513503,-0.85792583,0.19146593,0.65308875,0.23982877,-0.94664055,0.089205414,0.23549433,-1.0578194,-2.080572,-0.2474709,-0.27958518,0.26696226,-0.70110303,0.4530032,-0.28006363,-0.2919789,-0.14661172,-0.80276215,-0.3822246,0.2405326
target_dataset:NCI-H661,-0.99535084,-1.9394684,-0.7413717,-1.3738871,-0.7155886,-0.36090428,0.32861423,0.53449696,1.0123677,-0.5721697,0.056302797,0.7913932,-0.0278772,-1.4262018,-0.41303068,0.047597185,-1.1696167,0.6320586,-1.4427615,-0.18122107,-0.9510723,-1.2390054,1.3846574,0.8877441,0.16896904,0.7874639,-1.5979751,0.5153157,-1.0894705,0.034128718,1.3137527,0.36956963,1.0832812,0.72875,0.65402,-0.15925308,0.98805124,-0.4845716,0.32139736,-0.64809895,-0.37565202,0.34401363,-0.27071884,0.15412453,-1.1915647,0.676494,-0.80593973,0.010784835,0.39594305,1.0659856,1.604183,-0.71859956,1.1539421,2.4909937,1.370994,1.1875901,-0.60834306,-0.14664122,-0.9407907,0.11475906,-0.26992813,0.19857295,1.5614529,-1.3524175,-0.17894031,0.6063059,-1.7762395,-1.1525718,-0.3350255,-1.4060725,0.012993279,-0.79076433,-0.7918593,0.71827793,0.17859802,0.25024536,1.0734682,0.33051878,0.013765655
target_dataset:MOLP-8,1.7054629,0.66219395,0.984389,-1.3026321,0.56255364,-2.4048147,-2.432836,-0.37365082,0.9096992,-0.66753453,0.4680638,-0.3820289,-0.79006684,-0.119177476,-1.0600859,-0.9237963,1.5807744,-0.69652426,-1.1924675,0.027061969,1.3338466,-2.0448124,0.9680477,1.8447322,1.5595973,-0.45424843,1.3359978,-0.91380244,-0.050641768,1.0804498,0.3819088,0.8037586,-0.20519409,1.3123444,0.7422357,-1.1495442,-0.17201996,2.0427034,-0.114896305,-3.106249,-0.045645773,-0.5787389,-0.25909597,-0.48323682,-0.5266678,-0.26783285,1.1732357,-0.9429638,-1.3254408,-0.57507217,-0.6724005,3.146336,2.2008252,1.4255345,-0.583967,0.00028061122,-2.2190964,0.13625571,-0.72612816,-0.46636578,1.4996088,1.0847994,1.2466466,-2.172878,0.6776171,2.340781,-0.74562573,-0.3066472,2.2836542,-1.5753691,-0.1651253,2.5491407,-0.89184356,-0.10534782,-1.4799329,0.029464714,1.0165224,0.8841715,0.8282951
target_dataset:Hs 616.T,-0.56865156,0.79511505,0.6748831,-0.90916085,0.56913716,0.3619153,0.39413399,0.2011686,-0.23844366,0.907682,0.6047383,1.1371967,0.8378581,-0.024090115,-0.5099828,-1.4657047,0.48598883,-0.62103885,0.95147747,0.7216963,-1.7388207,-0.13707411,-1.5521702,1.7232165,-0.7811325,0.09344249,-1.9418495,-0.865553,-0.6686967,1.1696831,0.5103191,2.4710224,-2.0296237,-0.6632141,0.77966124,1.7527926,0.9814035,0.036074214,-1.244686,-1.4251518,-0.32144597,0.4509647,-1.5055275,0.77113086,0.5964415,-0.4223934,-0.7227282,-0.18678355,0.21789292,0.12616152,-0.22015497,-0.1216509,0.598371,1.0978907,-0.59956574,-0.19730744,-1.0757011,-0.2813903,-0.21922743,1.6211976,-1.3867894,-0.37715316,-0.89673734,-0.81262374,0.12425922,0.122971565,-0.22514111,0.017436955,-1.0553411,-0.38397264,2.357563,-0.20103206,0.16008842,-1.2066061,-1.5410396,-0.6570336,0.3339121,-1.4249582,-0.14924927
target_dataset:SLR20,-0.16755053,-1.0474948,0.42528963,1.0457127,0.4222924,-0.17924154,0.9167334,-0.2469447,-0.69958824,0.03390236,0.8592297,0.42379895,-0.9729942,0.12417799,-0.31193745,-0.7687975,0.60741097,0.8600391,0.27430516,-0.19283834,-0.6146063,-0.23192628,0.57001346,0.88472104,-0.2245453,-0.7766159,-0.46995896,-0.42722183,-0.93716437,1.3319271,-1.3454459,0.44170293,-0.083693415,-0.26215738,-0.14074723,1.0340358,-0.18109258,0.0013640895,-0.35515475,0.16259931,0.026799086,-1.200827,-0.06723174,0.24268901,-0.51237905,1.0307174,0.23019464,0.81322896,0.24505943,0.15713882,-0.9925839,0.14202961,-0.6855599,-0.42411968,0.74904305,-0.34521878,-0.482244,-0.57738465,-0.8584209,-0.122412324,0.57625943,0.75688607,0.014248833,0.4298869,0.19390027,0.054733917,-0.26498672,0.027046753,-0.48632288,-0.9497319,0.50798655,-0.69685674,1.2212353,-1.0509099,-0.08430435,-0.23412254,0.44495496,-0.6619224,-1.2741413
target_dataset:HT,-1.5921301,0.8554972,0.41843015,0.45304906,0.20386328,0.99958044,-2.5942128,-1.7826875,0.93728304,0.09235043,1.4543248,-0.8238981,-0.25456023,0.2551397,-0.40083036,0.8139498,0.18118246,0.7034782,1.2953719,0.22090122,1.7559689,-0.25161284,0.10512673,-0.05344349,2.5807114,1.0953212,1.4371393,0.6649673,-0.39544535,1.3147136,-0.15918735,0.12227743,0.835158,1.6998088,0.2973788,-0.96592194,2.2473726,-0.46955615,-1.0849493,0.98830926,0.5461635,-0.03528751,0.890926,0.34847686,-2.2191858,0.18845513,-0.5405925,-0.9068188,-0.5260354,-0.82818997,0.20198224,1.7729601,0.89908737,1.417913,-1.4800138,0.31239182,-0.14855039,-1.327491,1.1597273,-2.5243556,0.5805833,-0.72465247,0.7746805,1.1532302,0.8697477,2.2928462,0.5522822,0.0052785873,0.5278796,0.12108956,-0.1335008,1.0059779,-0.9832318,1.6267173,-0.7912369,-0.12234401,-0.09130888,-0.2691976,0.8470192
target_dataset:PLC/PRF/5,-1.5452325,-0.19845548,-0.36704218,0.37856475,1.3523195,-1.4742495,1.6919568,-0.26532614,-0.688697,1.0786015,-0.3450796,1.5518258,-1.3993835,-1.1423677,0.43339932,0.9718634,0.21043725,0.39345592,-0.90832144,0.77294356,0.7366533,-0.2984491,0.17788525,0.42068988,1.0034907,0.43823108,-0.69490737,0.8476728,-0.26501647,-0.08258433,1.1789021,-0.5449966,-0.40482104,-0.2341155,-0.5725713,0.509885,1.250391,-0.5522991,-0.4856633,-0.39919508,0.4616725,0.09077814,0.29679647,0.9202923,0.79306763,-0.2660572,0.51718897,-0.7261847,0.7651134,2.76635,0.7602114,0.92504406,0.69176614,0.11618622,-0.14171591,-0.4588762,-0.42436072,0.46731645,-0.91022587,-1.154099,0.31385636,-0.14688422,0.2748098,-0.5839125,0.9066239,0.3572506,-1.170859,-2.6564999,0.4998045,-0.087173715,-0.046960805,-1.3428096,-0.0525627,1.100136,0.6412598,0.26983318,-1.1524658,0.013416608,0.48295265
target_dataset:RERF-LC-A1,-0.86513937,-1.0536671,0.2137281,-0.7563292,-0.32269558,1.4054561,0.53905445,-0.0790626,1.0563171,0.5217832,0.607625,0.65393776,-1.5759423,-1.7575476,-0.88142496,-0.031169862,0.4518332,0.73267967,0.62325746,0.8121066,0.34107298,-0.445357,1.8423378,0.95006627,-0.33929926,-0.4024931,-0.9090913,0.8988762,-1.3398901,-0.30675727,-0.5933279,0.52933174,-0.69574827,-0.7110648,-1.6512771,0.827439,2.1318295,-0.41028902,-0.5771304,0.4091027,-0.6992818,0.74161327,-0.5690518,0.98920614,-0.56392103,-0.0704793,-0.2346916,0.9995641,0.80182886,0.7300256,0.7241999,-0.1371236,-0.54442096,0.7725403,0.22646412,0.92755485,-0.5604543,-1.1432605,0.6187144,1.8512096,-1.0057653,0.0211223,0.20115814,-0.4667571,-0.16903841,-0.5423985,-0.23141503,-0.21725531,-0.77793485,-1.4716033,1.0486916,-0.43035662,0.5393601,-1.1367986,-0.47097754,0.21425425,-0.5856599,-0.3391763,0.5583549
target_dataset:Ishikawa (Heraklio) 02 ER-,-0.6403972,-0.40669814,-0.097681105,-0.48697597,-0.26647845,-1.2701759,-0.3778398,0.005023891,0.8720895,0.09551914,-0.35581636,1.790418,-0.7049464,-1.4457649,-0.81371075,0.7686898,0.55016375,0.28569022,0.015441477,-1.0950351,-1.0345132,-1.503636,0.5427035,0.79255027,0.10444842,0.63296247,0.4044227,0.1726442,0.63310885,1.2743877,-0.7513655,-1.0503681,-0.75362957,0.51579934,0.56267244,0.44098654,-0.19038174,-0.056700185,-0.9023161,0.44087097,0.036848783,-1.1081066,-2.0865219,-1.2048062,-1.358332,-0.22335616,-0.11705452,-2.193421,1.5887591,0.2647907,2.4025164,0.106162064,0.45877084,0.32613948,-0.02729328,0.013275893,1.70168,0.59885025,-0.9960463,-1.0101843,0.66285706,0.57541525,0.045888633,-1.2439051,1.2725179,0.36192217,-0.84683734,-0.46306488,0.60642326,1.4613738,-1.3611571,-1.8584967,0.36387035,-0.6807588,0.2983967,0.13202015,0.3621269,0.38675284,-0.7193582
target_dataset:KYSE-70,1.7015182,1.0104152,-2.869851,-0.6836221,-0.02435927,0.87856376,1.0475569,-0.7978082,-0.1791411,-2.6200488,-0.602939,-0.39252397,0.0034376923,2.3060324,-0.61353236,-0.6427921,-0.035428878,1.4353391,0.61292183,-1.9815688,-0.6053546,0.9402518,0.63679093,1.6527648,1.1450975,1.912575,0.83217686,1.9129404,-0.47307274,1.0397683,-1.1320899,-0.10508637,-1.0211221,-0.34949383,0.03705859,0.10509105,-1.3714308,-0.97845376,0.6736143,-0.06093271,-0.8674146,0.3229208,-1.2925143,-1.2555107,0.21142033,1.0003154,-0.52887106,0.86960876,-1.249317,0.46641117,-1.2164294,-0.7495673,1.7323577,-1.6944344,1.7610524,-1.9827859,-0.16612886,1.4054304,0.44666168,0.009062659,0.64155096,0.88557535,1.2496495,0.3597448,0.19600156,0.1937321,-0.048972607,1.0585785,1.6369653,-0.1852032,0.09181358,0.55265206,2.433082,3.5061831,1.2718675,2.5452232,0.6112912,-0.44116327,-1.0844617
target_dataset:TE-4,-1.2739395,-0.21851945,0.22742894,0.3450131,-0.6323216,-1.6586454,0.7042032,-0.8128826,0.16900745,-0.353539,-0.048575968,0.3744609,-0.35495046,1.1284564,-1.122438,0.6434659,0.24704713,1.1252166,-0.60899824,-1.2229775,1.3546491,1.2700448,-1.5630784,-0.47475243,0.5153775,0.44616306,0.59525764,1.0549531,0.62702787,-0.9664849,-0.1718355,-1.0606543,-1.281703,0.5929223,1.1472192,-0.45269537,-1.3695693,0.6459172,-0.99005806,-0.0736534,-1.1510147,-0.4233263,-0.67137396,-0.1871432,1.175063,1.4160028,0.4355128,0.13047495,0.057792287,0.023868542,-0.36922622,0.51934636,-1.4635174,-1.6707294,-0.33761886,-0.79366314,-0.43095276,-0.47186863,-0.39312613,-0.40122598,0.853504,0.61109823,-1.26402,-1.0621876,0.45552313,-0.002499409,-1.029399,0.45429993,0.6455965,2.2484202,-0.36169368,-0.94775844,-0.18144211,-0.5502405,-1.0224662,-0.59585834,0.2148873,2.489125,0.9751144
target_dataset:Lu-65,-0.97430795,-0.5178343,-0.4783627,1.7281237,0.6611601,-1.3547109,1.3836284,-1.4682043,-0.41493052,0.34272674,-0.16436063,-0.07527078,-1.3779256,1.0859418,0.16833796,1.0925449,0.5905561,1.2790394,-0.8834723,-0.85942805,1.4243455,0.4417538,0.82393324,-0.47510004,0.19206972,-0.06819397,-0.26228386,-0.11476846,-0.35706937,-0.8819325,-0.21414414,-1.3769392,0.064908765,0.07379683,0.7003254,0.5371272,0.55629456,-0.42196426,-1.0822845,-0.83587384,-1.0602999,-0.50660473,-1.7447227,0.6721966,1.599693,0.43941104,0.37226355,0.2051304,-1.6645473,0.79669756,-0.7660761,-0.38315362,0.16518939,0.35942107,-0.12892967,-0.9735637,-0.63610023,-0.4137495,0.29327843,0.30989033,0.75486225,-0.36187875,-0.81069225,0.9717265,0.0616807,0.45217562,-0.4209003,-0.7084326,1.0938032,-0.25678992,-0.7186945,-0.09953351,0.102242,0.035912417,-0.72906494,-0.16707496,-1.9043535,0.17290741,0.17750882
target_dataset:SUP-HD1,1.3453393,1.442281,-1.3723716,2.4436197,0.42109752,-2.2607415,-0.8443291,-3.2117832,-0.8733678,0.10064466,0.21011281,1.145355,-0.33016407,-1.7948283,-0.34155503,-0.12557548,-0.10421271,0.83159155,0.6293745,-1.4855039,1.6518881,-0.9211811,-0.05692698,-1.6609058,1.6280869,-0.05307536,0.8843105,-2.6777875,0.17222764,-0.81943834,0.29767552,-0.34531718,2.0729926,-1.1337794,0.39138627,-0.5198426,-1.6701459,1.4489505,-0.28230175,-1.7716502,0.368274,-0.94839025,0.13948134,-2.3943312,-0.9697059,-1.6434942,-0.4679535,0.009513713,-2.4877913,-0.32052648,-2.705558,3.0896893,0.11149644,-2.638578,-0.60320413,-0.12503834,-4.9783707,-2.042593,-1.9905416,0.22198069,-0.7987824,-0.05914318,1.618356,0.2297783,0.90445507,2.8325386,0.5048665,1.7218534,-0.61307967,-0.0853195,-0.66309947,1.1566764,-2.902518,-0.49725544,-0.3609107,0.7020786,2.187127,-2.4850223,0.6365559
target_dataset:MDA-MB-468,0.97286844,-0.9282446,-0.5887471,0.77924234,-2.3345468,-0.046177033,0.31339923,0.42078424,-0.39611843,-1.3202546,-0.6168231,-0.106511444,-0.6816993,-1.3215824,-1.1624315,2.0069091,-0.47821787,-0.35332447,-1.1506991,-0.48401022,0.260126,1.1015568,-1.2637421,-0.5134071,0.17390111,-1.2269572,0.68676156,0.2949681,-0.6045687,-1.5085326,-0.46846858,-2.5047727,0.905825,-0.06815268,-0.31974506,-1.8048648,-0.34544176,0.13444875,0.97070706,1.1165838,-0.28080425,0.16782892,-0.31133088,-0.90124124,-0.08066869,0.37613988,-0.46044174,0.00026934664,0.94766104,0.4984566,0.079734445,-0.87233406,-0.2036506,0.86685663,-0.57854706,0.4933075,0.47970614,0.38174212,-0.5693332,0.39773607,0.5117157,0.8315373,-0.107105576,-0.593813,-0.23252931,-2.1729622,-0.05593336,0.330579,-0.6235017,1.0207118,-1.2160691,0.7743473,-0.01130562,-1.1977938,1.5316213,1.8510311,0.866556,0.87271816,0.19166231
target_dataset:Hs 863.T,-1.6821527,-0.26711878,-0.466276,-1.5134909,-0.17584613,0.48741457,0.500623,0.37016848,0.42657045,0.778531,0.44710675,1.2227814,1.141892,-0.47629058,-0.71096826,-1.2997954,-0.0012084693,-0.5034836,-0.16129778,0.06644347,-0.5529013,-1.1625059,-0.63598406,0.8241579,-0.42406398,-0.33088937,-1.5037297,-0.49353117,-1.0182061,1.2912391,1.1048269,1.8367125,-1.4708294,-1.129453,0.4688915,1.2449225,0.8442951,-0.14940786,-0.21115617,-1.2974836,-0.20868978,0.57930475,-1.5200119,1.0324365,0.18110691,0.16325381,-0.40808877,-0.37577915,0.5457271,-0.08915084,0.20738603,-0.14196256,0.6790999,2.340646,-0.4578026,-0.09824189,-1.2993891,-1.5081023,-0.80545664,1.9991773,-2.0859194,-0.7704899,-0.3769281,-0.7727795,-0.7984768,-0.47198376,-0.38239172,0.22130126,-1.9743434,-0.667293,2.239689,0.13863383,0.26223546,-0.70201,-1.4721955,-0.58737564,0.39555767,-1.0035989,0.40550876
target_dataset:RT-4,1.3906287,-0.558688,-1.4118896,2.859593,-1.2802763,0.09370603,1.1223342,-0.3311244,-0.6080236,-2.178891,-1.7985106,-1.0745157,1.4341745,2.304942,0.42965293,1.1393822,1.0424364,-0.3255849,1.3322631,-2.365687,0.3545974,1.5145936,-2.2821524,-0.17565882,1.3719426,-1.0057971,1.8215175,0.19568215,0.8737677,0.836554,-0.91880924,-0.69749975,0.72146726,-0.93377876,0.70968753,-0.7344219,-1.9624441,-1.0752516,1.1340882,-0.6173413,0.18889067,0.3250705,-0.7366886,-0.4885381,-0.07396113,-0.09949746,-1.146845,0.0800182,0.746354,0.73700774,-2.52847,-0.36506924,-0.74356335,-1.6920753,0.05899531,-1.0490551,0.70824784,0.9904705,0.92365533,-0.7959435,-0.22781408,0.58502287,0.50234145,0.6286551,0.5593354,-3.2347226,1.7766092,2.3907745,0.0405208,1.5447268,-1.8122969,-0.94924766,3.0890267,0.87590903,-0.18514237,0.52857155,0.58213013,-1.322602,-1.7492685
target_dataset:NCI-H1437,-1.1461585,-0.099442214,-1.0002517,0.50946903,-1.1862305,-2.0847006,0.76116085,-1.1449492,-0.61602324,-0.010270585,-0.31611058,0.808992,-1.3225679,-0.2959147,-1.548161,1.3062388,0.14773655,1.0204079,-1.3695323,-1.7994505,1.9476324,0.60706246,-0.6146425,-1.2249029,1.2268755,0.3875087,0.26651534,0.8334645,0.5238311,-1.5027151,-0.80767214,-1.452467,-1.2680094,1.2392793,-0.4831944,0.45857808,-1.3572607,-0.8031625,0.18090236,0.03489647,-1.346861,-0.3541666,-0.98383975,0.18230899,1.3410212,2.0554242,0.49871165,-0.05461684,-1.5219424,0.085283585,-0.05379334,-0.85310304,-0.40096703,-1.4157995,-1.1033796,-0.85986614,0.47886014,-0.7640175,-2.0765254,-0.4447316,0.5904716,-0.5925121,-0.6110776,0.32068688,0.75126624,0.17683335,-1.3998659,-0.2582144,0.24089444,2.195093,-2.1059241,-0.45222777,0.17352234,0.5525498,0.37266123,0.50183356,-0.075664796,2.548302,0.802351
target_dataset:NCO2,0.55029845,-0.3530589,-0.48855418,-0.28020424,0.19650114,0.7135113,-3.144145,-0.35483348,-1.2342709,0.25897738,0.9484445,1.5323154,-0.7672312,-0.7837449,0.78785896,-1.1228294,-1.4335389,0.07938575,-0.48551786,0.4596448,0.7121538,-0.7563253,0.5316805,0.30123574,0.013778119,1.0970495,-0.3462716,-1.1302539,-0.17114046,1.4994315,0.03306535,0.3476688,-0.1736256,1.5094242,0.63868713,-1.288742,-1.0219299,-0.5112674,-0.796661,1.0679066,0.5580191,-1.877656,0.7061207,-1.734897,-1.6983322,-0.71794474,0.3344436,0.18875018,-0.023413807,-0.8930163,-0.2912683,1.6052096,0.67479,0.32102695,-0.48242697,0.5091968,0.5475119,1.7011571,-1.2550399,1.6859307,1.7733579,0.20803592,0.65882945,0.23391871,2.264822,1.6565759,-1.0061152,-0.2481676,0.1638078,0.20340675,0.74319184,0.24634339,-1.6325047,1.3093157,-0.20977995,-1.6437057,0.25304663,0.9613694,-2.6380517
target_dataset:MKN1,0.95539904,-0.038149506,0.11660953,-1.0546182,1.1568246,0.030362152,1.0942421,-0.8403965,0.40349177,-0.34496394,0.7713492,0.43120062,-0.6462176,-1.9561307,-1.3501347,0.7225453,1.3607293,1.2892792,1.6385331,-0.472502,-0.8712714,0.30649352,0.18151154,2.5246315,-0.5466448,1.1723493,-1.3597988,0.070965886,-2.2505705,-0.39500138,-0.8315176,-1.0414613,-2.621145,-0.21445478,-0.06462009,-0.0420387,1.1314087,0.39905682,-1.7433345,1.4205893,-1.0618846,0.11374402,-0.6929502,-0.2517977,0.82307446,-0.56389505,0.6859778,0.6154405,-0.88967884,0.5118071,0.7129524,-0.51167136,-0.17938115,-0.86881584,0.42764705,0.8909638,0.6292294,0.8513039,-0.09559283,1.0777292,-1.089103,0.10638915,0.22858965,1.02957,-0.9322884,-0.3196059,-0.78439325,0.26839447,1.8783897,-0.86696845,0.26596832,-0.48208347,0.14989702,-0.066812485,1.3616939,1.2182951,-0.4093783,0.33650872,0.6079164
target_dataset:NCI-H1734,-1.911842,-1.0721966,0.15417552,-1.1776458,0.1021706,-1.0864639,0.6927669,0.009449482,1.031181,1.0805247,-0.05365014,-0.42060208,-0.34196836,0.6002191,-0.4058189,1.2789265,0.96972966,0.8201683,-1.0238533,-1.1542778,0.06897184,-0.2533168,0.41359058,0.032809794,-0.51797307,0.8439623,0.49278694,-0.117601395,0.18941897,-0.52279276,0.21597865,0.35741782,-1.2961683,-0.48201922,1.4190361,-0.04705821,0.101481944,0.9238771,-1.7930986,0.12063688,-1.6257391,-1.0806817,-0.87517124,0.5491969,1.114656,-0.2629932,1.6649001,-0.5225666,0.20504531,1.022141,-0.34878132,0.8385206,-1.2800475,0.49723452,-0.31214696,0.7480369,0.8922073,-1.2480243,-0.60276186,1.1732126,0.10890709,1.5407466,-0.7323657,-1.5752351,0.33397278,0.3717279,-1.7193887,-1.1093327,0.39704722,0.642416,-0.7868751,-0.8558707,-0.82779676,-0.4584132,-0.335947,-0.941078,-1.4992287,1.3988172,0.04571602
target_dataset:SNU-46,-0.47672263,-0.48567918,0.8450356,-0.54846287,0.37743047,0.34640467,1.4276721,-1.0770417,1.079833,0.35351676,1.0789717,1.062405,-0.9655619,-1.1080201,-0.5385752,0.97435313,1.115389,1.3529062,0.6448077,-0.0072071627,-0.16618517,1.1454524,0.5145988,1.7630074,-0.2151554,0.9724901,-0.9314136,1.1741353,-1.7871962,-0.38124913,-0.2514032,-0.49868846,-1.8484197,-0.7503233,-0.62704587,0.8433716,1.653176,-0.06944482,-1.4516637,1.0979033,-1.6813667,0.09612627,-0.956854,1.0104325,0.7328791,0.43802324,0.786648,1.163482,-0.4643515,0.37926063,-0.6376907,-0.075257,-1.7023817,-0.46891132,0.469707,0.24329515,0.07896666,-0.36312267,1.4432119,1.472954,-2.1459186,0.6483922,-0.9576963,0.98414886,-0.8404602,0.19852725,-0.6280323,0.41038194,0.6630865,-1.2391776,1.8578211,-0.39234164,1.0720798,0.38022628,-0.043232508,0.45161745,-0.7484705,0.54570925,0.77336603
target_dataset:LN-229,1.4501032,-0.8901838,-0.26236942,-1.4694785,-0.006056569,-0.22287044,0.8472322,1.1293794,1.7391119,0.51592016,0.91466504,0.5643494,-0.5429988,-0.28320548,-0.75225455,-0.8492246,1.7254281,0.015678817,-0.6458792,0.6811838,-1.3441317,0.862149,0.054194815,0.12998775,-0.18510294,0.6405066,0.85634744,-0.2011146,-0.43648195,0.75977063,-2.2331471,0.21883687,-0.55831325,-0.14094351,1.1310924,1.2529902,-0.1665887,-0.18005946,-0.4088701,-0.3335313,-0.17167576,0.96568906,-0.22630851,0.6831233,0.81307405,0.08441445,-0.02791467,0.08274969,-2.495755,0.129068,-0.6533071,-0.21732037,0.8806606,2.3923724,-1.2810103,0.59912676,-0.67212653,-1.8427889,0.2654163,1.7154362,-0.42212933,-1.2270459,-1.6629052,1.2312127,-1.4629365,0.39178777,-0.31365237,-0.6201284,0.35008776,-0.2850313,-1.3415587,1.4695214,-1.3392248,-1.6994586,0.60719573,-0.47775406,0.40524045,1.6275538,1.0144501
target_dataset:NCI-H2122,-0.10779482,0.091056116,-0.87581843,1.0889293,-0.7074823,-2.021192,1.4870629,-1.1023313,-0.33713305,-0.9606894,-1.3203462,-0.8446871,0.8302456,1.3357826,-0.2894917,0.9337203,-0.6030397,-0.08548921,-0.0282752,-1.7620366,1.8091792,1.8557498,-0.9247614,-0.45894808,-0.13695349,0.096477374,0.16108018,1.3169817,0.5977725,-1.5626485,-0.03493693,-1.775052,-1.1921275,0.74905735,-0.058225885,0.10023397,-2.3552096,-0.04615122,1.2439007,0.65525556,-1.6444534,-1.0576712,-0.34081787,0.6997078,1.2346951,1.8278784,1.2516224,0.08695668,-0.54896516,-0.32451808,-0.88464886,-0.7791627,-1.2141517,-1.5074018,0.112634346,-1.4317249,0.9335911,0.69699305,-0.42944315,-0.44900048,-0.27211523,0.3217429,-0.0299422,0.2931525,1.2735872,-1.246412,0.69831663,0.8957279,0.54544663,1.2745389,-1.2668568,-0.43584627,1.793335,1.225009,0.53548735,0.7873474,-0.8598957,1.647824,-0.09429616
target_dataset:SNU-489,-0.49003103,-0.67643905,1.3556275,-1.6880628,0.47721887,-0.022771306,0.94279414,0.18467987,-0.5442045,0.98709583,-0.3203467,0.33528584,0.593045,-1.2374983,-1.4362464,-0.63379353,-0.18034585,0.07464067,0.7987642,-0.53913754,-1.5606457,0.13779762,-1.0964072,0.23525976,-0.6108363,0.94448644,-2.211692,-0.40289804,-0.3775884,-0.7936616,1.0222839,2.129314,-2.1879501,-0.9014596,0.3202052,0.68044883,0.79286283,0.35050887,-1.290967,-1.8351107,-0.116578124,0.030489631,-1.2521282,-0.19536754,0.9367049,-0.7806528,0.35619012,0.48927733,-1.3892628,-1.8137634,0.3903469,-0.63931847,0.27968806,0.7112511,-0.9617917,0.20838368,0.055394094,-1.9147795,-0.82126105,0.7470032,-1.6043254,-1.5710704,-1.0028433,-0.06753987,-0.6738346,0.9436964,-0.6653215,-0.15939504,-1.944037,-0.3038834,1.7286294,0.65738446,0.39531928,0.79857606,0.50233907,-0.6331214,-0.00067925453,0.47304928,1.1550783
target_dataset:TE-14,2.0936553,0.6514834,-0.86010647,1.5548233,-1.9690908,0.7561552,1.7228686,-0.56613725,-0.37115502,-3.1863618,-1.1179378,-1.4706388,2.196288,2.2188497,-0.9033581,0.8260902,-0.48045075,-1.7512183,1.092908,-1.5529335,-0.5126614,0.68961203,-0.72996306,0.6202579,0.16548678,0.6124715,1.25234,2.8484378,0.30341327,1.1520226,-0.4702078,-0.75690377,0.37475145,0.09511334,0.5929514,-1.9085149,-2.1390698,-0.77322304,1.8211286,0.23826188,-1.3320241,0.70964104,0.7418188,-1.4261583,-1.1220276,-0.040065505,-0.14138238,0.81712633,-0.031075045,-0.1723819,-1.5882075,-0.96069074,-0.6070585,-1.4430254,0.770835,-1.5688367,1.5368383,1.2851707,0.8223778,0.18887767,-0.50004876,0.56646276,0.49362868,0.5134502,0.37304643,-1.988078,0.918376,2.5445154,1.3631941,0.6472858,-1.3046381,0.2739438,2.605387,1.8318752,1.461093,1.3330036,0.4112041,0.5956154,-0.88247633
target_dataset:HEC-1-B,0.33600342,-0.504403,0.18810941,-0.087110296,1.1439325,-1.0021052,1.2915907,0.073033154,-1.6364383,0.08978379,0.33322504,-0.96643066,-1.4043823,0.73900676,0.96033376,0.51659167,-0.24796607,0.7099548,-0.23020129,-0.0522421,-1.0504696,-0.59413815,0.9022461,-0.7408699,0.7147188,-0.34644684,-1.2737236,-0.926137,0.048847187,0.15157282,-1.432747,0.849214,0.09965891,1.5224553,-1.3649412,-0.05158762,1.6731193,-0.49261007,0.25140375,-0.18983673,0.30938312,-0.11663367,-0.24668208,-0.31432632,0.21973729,0.1932062,-2.3526511,1.0932615,-0.5949736,1.3135619,0.08359974,-1.6552297,1.1741368,0.26837844,1.5714873,0.47244114,1.1861455,0.89056206,-0.9308812,-2.6439855,1.3266968,-0.14024553,0.028355407,-0.75116515,0.6622446,-0.2917515,-1.1149466,-2.2499204,-1.1448323,-0.36905116,-0.74293894,-1.8499565,1.387961,-0.18734655,0.7805904,0.6557162,-0.7822015,0.21426156,0.36163238
target_dataset:Hs 821.T,-0.61962545,0.88539946,-0.334215,-1.5247724,0.06292396,-0.17882478,0.25545993,0.5513727,0.2083067,0.12164149,-0.16862026,0.71049064,0.7415377,-0.7139573,-0.46471542,-1.1082643,-0.047894146,0.064471975,0.57383,0.37164035,-1.6427091,-0.075778864,-1.4167379,1.3699187,-0.44547957,0.6642789,-1.5948018,-0.9218005,-0.59913206,0.5620196,0.3313761,2.0410764,-2.1211417,-1.1789343,0.37969005,1.3483076,0.25935322,0.1381778,-0.8918609,-1.4652919,-0.55217326,0.6999326,-1.3254472,1.0146164,0.5645474,-0.37071946,-0.065817,0.21981128,-0.3897702,0.033202976,-0.14003044,-0.07695478,0.7136619,0.9178247,-0.48647028,0.2554998,-0.88488597,-1.1845939,-1.0994796,1.4941366,-1.0444071,-0.88009274,-0.2790578,-1.5231194,-0.10404809,0.26651245,-0.6715431,0.0652569,-1.2804967,-0.22852154,1.6532484,0.10082028,0.050714538,-0.46853366,-1.0082469,-0.412332,1.1438726,-0.75042564,0.73895204
target_dataset:EFO-27,0.9562552,-0.59093225,-0.28016093,0.30516076,-0.27104774,-0.25351286,1.11658,0.0070504025,0.17046632,-0.6737374,0.89421284,-0.39438152,-0.509163,0.2885695,1.4888021,0.45949018,0.16346699,2.9101577,0.7808178,0.062385563,-0.90781534,2.190532,-0.6056721,1.2776543,-1.0574267,1.7185085,-0.62720734,0.5773682,-1.6070476,-1.6210119,-1.8939513,0.028411692,-0.40548325,0.46248257,-0.35407004,1.0871224,0.37843114,0.420468,-0.713385,1.0861772,0.06848951,0.45408177,-0.41284135,0.91057754,0.6228049,0.50307536,0.15631,1.0472953,0.21837376,-0.19793583,-0.19405122,-1.1102563,-0.44178516,0.9879548,0.32556635,-0.3035967,0.122965224,0.7692441,0.7861343,0.12202567,0.100448914,0.6048063,-1.0726844,0.6430089,-0.32164103,-1.8315083,0.12343877,-0.15611595,0.11457203,-0.31277046,0.5426321,-0.5956645,0.9734322,-0.051434085,1.347524,0.847651,0.050322764,-0.5287142,0.18074399
target_dataset:IA-LM,-0.8450462,-0.8956492,0.9868554,-0.052604154,-0.46463832,1.11059,0.96904576,0.90215725,0.800673,0.14277168,0.2775057,-1.5396731,-0.31116965,0.80999744,-1.2097694,1.0719893,0.13164926,-0.63134754,-0.8584262,0.69095945,0.40649906,-0.07199956,0.69742244,-0.61263126,-2.6030574,0.46956217,-1.0287945,-0.1890918,-0.7946285,-0.26255107,0.52314234,1.6696628,0.4250576,-1.8203542,1.047293,0.109998256,1.0546532,0.25804543,-0.9284544,-0.74917793,-1.1287307,-0.7213789,-0.8582707,0.41349563,-0.11212512,-0.13514094,0.043051004,0.78685755,0.9180804,0.64714074,0.03063015,-1.0333674,-0.82088035,-0.6443693,0.30766335,1.677499,-0.6466756,-0.10802981,0.14235191,2.162298,-0.8131136,1.2802998,0.6439469,-2.2314098,0.43256897,-0.4737903,0.073524535,-0.24888785,-0.1003151,-0.6821853,0.8240171,0.20376591,0.18291403,-1.5623114,-1.0889275,-1.2422571,-0.3860294,-2.1628923,-0.4063644
target_dataset:JHOM-2B,0.9339387,0.11695236,0.18649867,3.069234,0.29873773,0.5005484,1.9969982,0.08766687,-0.35638964,-0.81318516,-1.6309686,-0.44067407,0.1317138,2.0300217,1.3418168,2.548639,-0.12646618,-0.7660934,0.7432667,1.029733,0.8427227,0.8995791,-1.1643785,-1.0609213,1.3941554,-0.897413,2.1542015,2.1249745,-0.85789204,-0.43426535,-0.6645474,-1.2672609,0.7665366,-1.4300922,1.3283913,-1.7411499,-2.2686474,-0.11534395,1.169898,0.29670423,0.8369117,1.758591,0.5342218,-1.2046018,0.705525,-2.969233,0.85853386,-0.06617239,2.2869189,-0.319898,-0.8475041,0.08312247,-0.10903421,-1.4154665,-1.203411,0.7202802,1.894092,0.50956523,0.83281696,0.8600983,0.07072362,0.2936226,-1.5109503,0.5678829,-0.23938398,-2.135553,0.24027058,0.28161058,1.2018543,1.6374289,-1.8892457,0.3277787,0.41627687,0.48065704,2.055483,-1.4329133,-2.0096767,0.82738894,0.42817307
