,E0,E1,E2,E3,E4,E5,E6,E7,E8,E9,E10,E11,E12,E13,E14,E15,E16,E17,E18,E19,E20,E21,E22,E23,E24,E25,E26,E27,E28,E29,E30,E31,E32,E33,E34,E35,E36,E37,E38,E39,E40,E41,E42,E43,E44,E45,E46,E47,E48,E49,E50,E51,E52,E53,E54,E55,E56,E57,E58,E59,E60,E61,E62,E63,E64,E65,E66,E67,E68,E69,E70,E71,E72,E73,E74,E75,E76,E77,E78
source_dataset:TE-15,2.519995,0.7697623,-0.043601546,3.4375908,-1.7707607,-0.8921816,0.35791504,-1.0269245,0.08771098,-1.7317753,-0.93432146,-2.9275155,2.131147,3.3252738,0.41381377,0.40019515,-0.81336796,-1.9128972,1.2114829,-1.4902551,-1.6867902,2.4242697,-1.1021634,0.86352056,-0.9881711,0.7033925,1.3531767,1.8343177,1.391638,-0.48702255,-1.005831,-0.9777579,1.9812534,0.4819728,1.1716515,-0.4647844,-2.1765058,-1.2878411,1.4041306,-0.26435068,-0.7906945,0.3683278,-0.514632,-0.14164983,0.6525434,-0.026445225,0.32035816,1.0111367,0.3103841,0.4507839,-1.1288904,-2.6813622,-1.8068736,-0.6749472,0.4695579,-2.583007,1.8260458,1.1563089,1.7288638,0.076937616,-0.87089103,2.026354,0.51647216,0.9216222,1.3339605,-2.8722878,2.5242486,1.6625626,1.3596231,1.9957527,-1.2209406,-0.32189566,1.6703976,0.54861623,1.3252276,0.97446465,0.8596445,-0.2717652,-1.3972243
source_dataset:SaOS-2,-1.6081518,-0.8069914,0.50636125,-2.0942266,0.029975887,-0.27852783,1.1136485,-0.422672,0.5775116,1.9292166,-0.30342865,0.77520883,1.0325278,-0.15345907,-1.3592217,1.2590882,-1.1949223,0.18492565,0.81507254,-1.8339486,-2.1838005,-1.7316425,-1.57755,-0.6492698,0.49020064,-0.34082922,-1.7522494,-0.12755623,0.13924304,1.5875438,2.2132468,2.6088982,1.0715146,0.04698956,2.231901,-0.9639423,0.7790568,0.29256505,1.0980101,-1.4614866,0.82885873,2.4560971,0.004797384,1.0766565,1.429818,-0.29163224,-0.23674214,-1.8671658,0.7403501,-0.28015855,-0.095771804,-0.3176563,0.4944041,2.2841744,0.14153078,0.7433327,0.036978696,-1.3262328,-1.3804888,-2.0935051,-0.9490246,-1.087474,-0.26818112,0.8276802,-0.18071549,-0.05987985,-1.1675512,-0.17354897,-1.3583146,0.1896026,1.3748434,-0.45880228,-0.32854408,1.967209,0.017952269,-1.489477,2.056534,0.055860907,3.3094947
source_dataset:NCI-H747,1.5223742,-0.16931161,0.06758313,2.8969867,-1.7309928,-0.5635003,0.49934363,0.044267856,0.5052759,-0.7978419,-1.1129026,-1.5984358,0.4271567,1.3834223,1.8567113,0.36578935,-0.48845923,-0.56010383,0.7106959,1.2598947,1.1720454,2.3579686,-1.203714,-0.13491279,-0.33800912,-0.5148712,-0.24533951,0.5078546,-0.6171254,-1.7014376,-2.2121527,-1.8057661,-0.95442456,-0.8931203,-0.54679894,0.93352723,-0.8494157,-0.10829574,1.1109643,1.0717844,-0.8644796,0.089537196,1.1710997,1.1864228,0.3309466,-0.31579217,0.41737348,0.5774613,-0.2013122,-0.31955367,-0.105229795,-0.3166072,0.14766674,-1.3292329,0.6111713,0.3824738,1.8649751,1.0912127,0.7352164,0.4084393,-0.32944718,0.39244255,-0.79136705,-0.23233326,1.2218809,-2.2615516,2.6634622,0.37347338,0.2621645,1.34123,-1.4078411,0.042939134,-0.5599031,-1.9165932,0.76475674,1.1714394,-2.0420952,0.7254772,-1.7428408
source_dataset:IM-9,-1.1067079,2.5749412,0.22177418,1.3101394,2.6015732,0.99321973,-2.8023741,-0.38701716,-1.1622264,1.5769325,1.8630588,-1.7403445,0.1746529,0.27417576,0.99036586,-0.66199285,0.008334128,-1.0158861,0.27712426,-0.15775251,2.261518,-0.30090767,0.22729965,-1.1363109,1.184703,1.8758252,0.6886284,-2.2130864,-0.1013217,-0.7575648,1.341884,-0.8587791,0.9377439,-0.45463285,-1.1565006,-0.17482482,0.6546225,-1.1750114,-1.5810368,-0.54580075,0.6542592,0.88243306,1.468631,-0.9449043,-0.5725442,0.4480292,0.22821747,-0.1935772,0.7736038,-0.08621487,-0.95127904,1.9998963,0.9588818,0.21157867,-1.4122887,-1.6492736,-2.4795897,0.44471362,0.6112341,0.19800335,-0.80307037,-0.33715993,1.1271672,1.3569123,0.32900777,1.2733016,1.1675763,0.014516726,-0.040652413,-0.37922135,1.3307924,1.2256061,-1.782827,1.0322771,0.71420753,0.9965593,0.18825693,-3.0462775,0.32861808
source_dataset:NCI-H2591,0.7107643,-1.0892667,-0.821468,-0.510278,-0.75227416,1.4441955,-0.12862705,0.08132209,0.5860947,2.3587897,-0.71779805,0.3036333,-1.0370839,-1.942658,-0.39415336,-0.71901965,-0.04607569,-0.18834338,1.4907203,-0.20358908,1.5294552,0.050034888,1.0484262,0.57719535,-0.51362234,0.046992764,-0.9374555,0.7891291,-1.4221367,-0.02297822,-0.21655038,1.0552363,-2.6179216,-0.32834652,-2.9425657,1.3313597,1.4560815,-1.7007314,0.77680105,-0.20261557,-0.778829,2.052221,-0.5269939,1.2234251,-0.6972542,-0.99695575,-1.2312348,0.45421863,0.023429822,1.0321823,-1.1151792,-1.0040952,0.117186934,-0.5639191,-0.91966987,0.37775266,0.055940576,0.7524391,0.844764,3.1684065,-2.4771347,-0.75968915,0.46499178,-0.37612942,0.6485162,-1.2126672,1.4322501,0.31777257,-1.6598859,-0.08830601,0.37118095,-0.027341016,1.5781269,-0.5820594,0.6304579,0.6125009,0.08290681,-1.3073077,-0.79665375
source_dataset:JVM-2,-0.6986321,1.957746,-0.028907023,0.76496243,2.0367222,-0.06234686,-2.8746696,-0.78415966,-0.7918609,1.4595038,0.87083787,-0.61932343,-0.3592109,0.25248766,0.7364713,0.62127775,-0.561549,-0.8143425,0.3419999,-0.23329794,1.7133487,-0.8497056,-0.28669208,-1.4307061,1.6910565,0.32716215,0.95610875,-2.8408945,1.1050133,0.88887215,0.38828182,-1.0540367,0.9083178,-0.40387025,-0.26923504,-1.554598,1.0276214,-0.20060909,-2.6412833,0.4079999,0.2278364,0.11790415,1.3336953,-1.1556692,-0.44199073,-0.34622264,-0.2878751,0.317474,-0.01796168,0.6505128,-1.8035145,3.15052,0.23506752,0.6088994,-0.40335256,0.22227153,-0.57327795,-0.24190974,0.17684746,-0.20168263,-0.78173435,0.57888484,0.73549986,0.6108841,0.16180122,1.5267636,0.7711248,-0.60717344,-0.052967526,0.053064138,0.47190565,1.3821521,-2.2551165,0.16971093,0.4159488,0.103826545,-0.22633225,-2.42966,1.5944284
source_dataset:NALM-6,-0.37577444,0.8283423,0.53629565,-1.218216,0.47311503,0.7011742,-2.5003378,-1.3998799,1.1847141,0.32411695,1.2730927,-1.1653125,0.025265954,-0.8516943,-0.041259058,-0.94983935,0.8849498,-1.2625089,0.8725149,-0.13702741,0.40933648,-1.5295932,3.1473744,-0.1505692,0.92686313,-0.58939934,0.45998827,0.012306094,-0.3880107,-0.5038408,-0.115360856,-0.19245961,1.1313233,1.8222846,-0.7831452,-0.025543917,-0.18108399,-1.3985126,0.9532057,1.3187494,-0.7053279,-0.75873506,1.9171287,0.012138993,-1.55078,-0.04958595,0.15504725,-0.5619686,-1.0902692,-1.3435268,-0.29031202,0.91474026,-0.35419956,0.4587157,-0.8696061,0.7899522,1.2474878,-0.2847536,0.81491673,-1.1809523,0.2534333,-1.1263127,0.7108083,1.1388062,0.08177195,1.281761,0.3435762,0.8647198,0.16742513,-1.6251708,-0.7628524,0.8096026,0.97915137,2.2084048,-0.48624218,-1.021195,-0.58576965,0.7781148,0.28356174
source_dataset:GCIY,-1.4016347,-0.63490057,0.28413197,-0.65103483,0.47690165,-0.98722845,-0.17443739,0.472804,-0.89674157,1.2292453,-0.40433377,-0.6464955,0.4377276,-0.05883622,1.0279297,1.3861798,-0.94412726,-0.13035372,-0.546203,-0.27041376,0.13123724,-0.9769095,0.5167117,-0.43513817,-0.39621475,0.17372228,-0.5450611,-0.112219855,-0.009804765,-1.6165533,0.8028419,-0.31114516,0.5540751,0.5595322,-1.1001647,0.34589624,1.2894976,0.3150329,-0.87000215,0.33787882,-0.3404782,-0.10564165,-0.29471692,0.8683456,1.339023,-0.12615392,0.10182063,0.99222356,0.4157071,1.1940713,0.95188385,-0.42462325,-0.54841965,0.60434747,1.5414655,0.5370855,1.7667485,0.7128321,-0.40990195,-0.23778266,0.07625964,0.29008436,0.13499036,-0.7726866,-0.32156974,-0.3848564,-0.16212802,-1.2943078,0.0069463253,0.60277534,0.77332664,-0.6608865,-0.06947996,-0.4063502,0.36245868,0.11030734,-1.666126,-0.9823803,0.0031261928
source_dataset:SK-MEL-30,-0.8914801,-0.23103008,-0.8115258,-0.8945666,0.39603958,2.147279,-0.21227603,1.2887714,0.09420356,-0.13641915,0.72326815,0.147849,-0.53681624,1.0591491,1.7992634,-1.6338894,0.09158519,0.94331145,-1.9573518,-1.0647018,0.102019414,-0.46632177,0.86919487,-1.0156698,-0.99209654,0.33650666,0.12129557,-0.88384795,0.26287627,2.0996094,-0.15323986,-0.21371272,-0.4597932,-1.5311219,-0.015663631,1.7043735,-0.62889886,0.14414881,0.16570349,0.49016204,-1.0585123,0.5086925,0.14074624,0.49034125,0.9996179,1.1650434,1.2710834,0.47773036,-0.26728174,0.3956256,1.4139416,1.2209828,1.690571,-0.07650788,-1.5863886,1.0446049,0.3509034,-1.9278302,-1.416109,0.9331437,0.082686596,-0.6115349,0.5152749,-0.14009121,-1.7713786,-0.32068503,0.028990235,-1.3881695,-0.5124096,-0.72555774,-1.1225709,0.67470634,-0.45620534,-0.40908167,0.21688032,0.31893554,0.8351492,-0.53259254,-1.0401628
source_dataset:MKN45,-1.2211548,0.37250382,-1.2180194,0.50263816,0.15215905,-0.8480722,1.7133074,-1.3810462,-0.93085814,-0.85822874,-1.525686,0.7145824,0.57729656,2.2194872,-0.5936972,1.1635022,0.53646,1.9964426,0.2342735,-1.5484425,1.5174739,-0.944754,0.766442,-1.1479315,1.0568055,-1.1395116,0.9318677,1.4021538,0.15429252,-0.6054867,-0.0015778765,-0.93106824,1.070634,0.59499496,0.5488149,-1.4167156,-1.3641609,0.37477553,0.3742739,0.30850244,-0.510131,-0.088042274,-1.3317597,0.29535204,0.19269979,0.059295516,0.2155129,0.07192016,0.9120245,0.30390704,-1.2214094,-0.45694542,-0.8200215,-0.68693995,0.70131713,-0.58765775,1.3183299,0.9792817,0.27283993,-1.507009,3.307351,-0.0064516515,-1.9382085,0.14060411,-0.38875294,-0.6548031,-0.7541293,1.1595973,0.63172126,1.000332,-0.22004475,-0.8837708,1.9079348,1.4743559,0.044540346,-0.0828677,-2.656031,-0.7841257,-0.010140836
source_dataset:HCE-4,-0.9739875,0.2519806,1.8592945,-0.5544378,0.17259152,0.49135524,0.027583411,-1.3829886,-0.023124903,0.5359161,0.9910218,0.84521204,0.08259612,-0.39325044,-0.25967672,-0.37913853,0.095068626,-0.056524273,-0.027464198,-0.8749857,-0.6692832,-0.39008117,-0.036433827,1.3762622,-1.0175691,0.0494601,-1.7991958,0.5256285,-0.72280055,1.5013431,0.48224482,-0.01347553,-1.9050732,0.12841778,0.41291305,0.8401941,1.5783046,-0.015183484,-1.8142052,0.4144052,-1.8082007,-0.01521847,-0.7533743,0.57928485,-0.24696484,0.27227855,-0.37728867,-0.18760474,0.9638262,0.2831949,0.7419759,0.28513902,-0.48697683,0.19287317,-0.035426997,-0.022949137,0.46660715,0.78836447,0.57850033,1.0417062,-0.8157221,0.40442398,-1.151479,-0.48640478,0.85847175,-0.084201425,-0.32897055,-0.43262675,-0.17087127,-0.42209914,1.7800969,-0.64701575,1.193807,-0.4514323,-1.6233302,-0.14779419,-0.071656786,-0.55494606,-0.537784
source_dataset:LB2241-RCC,-0.28562802,-1.2115433,0.48333424,-1.1385145,1.2070497,-0.11564791,-1.1491603,2.7575276,-0.9806305,2.007804,-0.023201376,-1.0796679,-1.9541016,-0.2081548,0.48162544,0.21827208,-0.25196883,-0.17414215,-0.08212172,-0.033640806,0.0071645556,0.4719234,-0.6121479,-0.25503725,-1.0299132,0.24888542,-0.6813652,-1.0921488,0.28306907,-0.5472081,-0.8153911,1.6781164,-2.2537014,1.1426691,-2.3804936,1.1842108,0.36640662,0.16169927,-0.65487146,-0.5993523,-0.21448801,-0.85784924,-0.05587872,0.47659382,2.016151,-0.12668575,-0.33735853,1.5537273,0.22511035,1.5571778,-0.44814712,-1.0223184,-0.10306755,-0.22032595,0.00086560566,0.9106581,1.5860451,1.1918786,-0.45721248,-0.49504533,-0.32783055,0.52507174,-0.31658196,-1.9075563,0.2192863,-0.93742514,0.11622453,-2.2768393,-1.9041502,0.6287032,-0.80720013,-0.07186258,0.61469865,-1.3021742,0.62401694,-0.1489872,0.82203734,0.21710344,0.054227445
source_dataset:ES8,-0.37863818,-0.5713316,-0.13441303,-1.2183099,-0.51169086,-0.2916539,0.86602014,0.07742387,-0.46337277,-0.8646134,0.6822187,0.8499581,1.2891066,0.07427955,0.7829225,-0.43180344,-0.45593432,0.764498,0.3471338,0.6204826,-0.5962114,0.38511753,-0.8852362,1.7640656,0.15999086,0.34845304,-0.23584163,-0.19048819,-1.448592,0.41867545,0.99974114,0.5608249,-0.97170556,0.59180933,1.2536496,1.3559133,0.004028678,-0.5930572,0.50683147,0.5045003,1.5913339,-0.1274029,0.60915095,-2.1065779,-1.8114989,-0.20108066,0.025992177,-0.69022095,-0.34037963,-0.57568496,1.8115993,0.6355847,2.6484964,-0.056877315,-0.36950186,0.6001965,-1.7190944,0.8642354,-1.5764829,-1.2356398,1.163528,-0.06870611,0.92406046,-0.15423349,0.5359824,1.6007466,-1.9706903,-1.447466,-0.5958618,-0.69851,0.30497533,-0.8870566,-1.3163838,0.9159107,-1.0879526,0.59477085,0.9121678,1.643475,-1.46451
source_dataset:NCI-H64,0.00577268,1.9642732,-0.11411767,-1.8826945,0.6675113,-0.79516476,-0.79200023,-0.07106299,1.4506552,0.677737,0.0501324,0.5903207,1.1724685,-0.6867502,-0.60563433,0.89149547,0.17776649,0.42925563,-0.06791033,1.1519208,-1.7316602,0.1005612,-0.076765686,-0.20764306,1.0469642,-1.1885151,2.207311,-0.4027279,0.33345163,-0.9142349,1.076226,0.20446768,2.0121353,0.65657234,1.126369,-0.48260555,-0.33044198,-0.62073445,1.0654818,2.1975427,0.4766999,0.52681494,0.8498676,-1.7921118,0.0904344,-0.85560364,-1.0816691,-0.77299684,0.39845297,-0.47142994,0.4787934,-0.5897521,-0.57678986,-1.9315424,0.655212,0.5046512,-0.11778337,0.10077056,0.6699542,-1.0784159,0.41634667,0.73438287,0.20889178,-0.7813975,-2.4488637,2.717012,-1.3113402,0.7226985,-0.6268805,-0.53943706,-0.6141368,-0.82324564,0.1635078,0.57257855,-0.2534561,0.059214465,-0.027775362,0.84875244,0.79740673
source_dataset:KOSC-2,2.4315114,0.90421474,-0.8363891,2.8218973,-2.372214,0.9705321,2.3239608,0.39825308,-0.48930448,-2.329255,-0.38230184,-1.5893521,2.1458993,1.0912291,2.2368522,0.007815223,-0.4843384,-1.109027,1.1057194,0.17729169,-0.078553714,2.4339654,-1.639731,0.7416616,-2.2383778,1.6446755,1.1874255,3.2856083,0.8890255,-0.15583058,-0.14502393,-0.13203603,0.86814094,-0.55829036,-2.2124536,-0.80278534,-0.93340254,0.1888141,1.9827831,-0.53104323,0.42259085,0.8295941,0.77399814,1.0360289,0.06571795,-0.15961565,0.27704257,0.1748982,0.035746012,0.7535705,-2.740296,-1.7007105,-2.1085038,0.07499871,1.2211095,-1.6391919,0.5324612,1.4981269,2.8439553,1.7514575,-2.0119486,0.80948925,-0.3548948,2.0791643,1.666045,-3.6035264,3.588996,2.1645792,0.7619163,0.6845931,0.67977715,0.594023,1.6345491,0.0554319,-0.12820601,0.8636,0.82033014,-1.7866092,-1.5114101
source_dataset:QGP-1,-1.39808,1.6612731,0.7092471,-1.2869595,-0.9051668,-1.5910686,1.1566877,0.88360703,-0.3036096,0.80829483,-1.2361292,2.1599905,0.44531056,-0.62565446,-1.2129401,0.73083866,0.98395264,0.7843678,-0.10804401,1.1339614,1.0379126,1.277559,-1.3856913,-0.4790555,-0.88207906,0.5709723,1.67007,-0.77501774,1.6918715,-1.7170675,1.2573404,-0.8629195,-0.9550704,-1.7653527,0.89701027,0.61330676,-0.977918,0.0012631058,-0.3640863,0.49265796,-1.1381392,0.095777534,-0.2994619,0.24406374,-0.43289897,-0.37474385,-0.25584352,-1.3213261,-0.7492611,-0.5314408,-0.0016056583,1.1111071,-0.69999474,-3.5550935,-1.4318832,0.74247617,-0.9248047,1.2179099,-0.27727267,-0.57477474,1.4002168,-0.05093416,-1.246112,-1.6178327,-0.031813793,3.4808407,-2.0493467,0.3918767,2.1694622,2.0730865,0.33999923,-0.7178438,-0.21495976,-0.94704765,-0.84094614,0.6165827,-0.514007,0.1520505,0.22590286
source_dataset:NCC021,0.6037336,-0.41359758,-0.5176269,-1.9459318,-0.0028091334,0.07701908,1.3988764,1.0161401,-1.5683892,-0.64856434,0.12561086,0.74257135,-0.59493893,-1.3703147,0.10558325,-0.04748401,1.2029337,0.16809292,1.2681673,1.1274387,-0.17228554,-0.15860178,-1.115158,-0.6986892,0.6587872,0.23602557,-0.719991,-0.638669,0.13571857,-0.6835262,-0.45704028,0.90630937,-1.5406519,-0.31995505,-1.7135143,0.033910744,1.913556,1.2382327,-2.2458284,-0.5381736,0.4661279,-1.62863,-0.126749,0.22869961,0.072380975,-0.7454554,-1.1299986,0.96504295,-1.4430232,1.3731427,-0.27201197,1.1240002,-0.10612045,1.5853106,0.025578827,0.90988845,-0.12748356,-0.8321503,0.16714102,-0.6565718,0.12463364,-0.6631378,-0.79007345,0.25013086,-0.08209634,-0.9428509,-0.21747345,-1.2442129,-1.1916087,-1.2018279,-0.20765506,-0.4390015,-0.16117367,-1.4100639,-1.6090696,-0.7928253,-1.838894,0.0045209974,0.7820548
source_dataset:G-mel,-0.11227816,-0.8388206,0.3566846,-1.3755914,0.76635957,2.560304,0.24728152,1.0159678,0.0032330048,0.8463858,1.4209445,0.102666706,-2.3651967,0.90512407,2.5699852,-0.85662395,-0.40532535,2.1947274,-2.7553947,-2.878201,0.33291808,-0.46723017,0.7346086,-2.3847847,-1.478025,0.6881712,-0.66241115,-0.94035655,0.7600541,2.1454983,-1.3004874,0.039362997,-0.69802713,-0.15686473,0.19558477,0.46576312,-0.8234734,0.9649826,1.1921141,1.1928335,-0.42795816,0.3286414,0.23342624,1.5026367,1.3752782,1.5979805,0.91937286,-0.13027301,-0.3017819,-0.5571102,-0.26629853,1.6793159,2.090456,0.52105504,-2.7193856,1.5315489,0.13821656,-1.5641418,-1.1680175,0.19302866,0.016472865,-1.5386194,-0.66423386,0.5324889,-1.1119415,0.013972057,-0.79940045,-1.7160971,-1.551937,-0.16505396,-0.31388715,0.81303513,-0.6236268,0.60889995,1.7158389,0.2527314,2.1259208,0.16371362,0.30095997
source_dataset:SN12C,-0.44359535,-0.5022268,-0.36036256,-0.6040906,-0.73150927,1.0945089,1.1335614,-1.2096434,1.0395204,1.0203714,0.8458701,1.4336205,-1.6328084,-1.6565747,-0.9790262,-0.21238267,-0.102181315,1.2409596,0.07783555,1.0070347,0.23446634,-0.5753942,1.8966528,0.9374989,0.027170105,-1.2183559,-0.91922885,0.5422309,-1.249511,0.31143677,-0.80826366,1.170141,0.07807322,-0.5221148,-1.4479879,0.13475648,1.8007901,0.063552275,0.3649466,-0.07348692,-1.3064839,0.99580055,-1.0913342,1.3975908,-0.15439792,-0.9104648,-0.5673244,0.77996826,0.1884739,0.59025055,-1.28412,-0.57111865,-1.2875003,1.7075586,1.4506065,0.39726254,-0.85649854,-1.2186068,0.64633644,2.3604107,-0.56534135,-0.056772083,-0.4409795,0.6641596,-0.22879717,-0.4722499,0.07292302,0.05192136,-0.8527428,-1.9207586,1.6005898,0.48705435,0.45962915,-1.3664533,-0.20900929,0.41110078,-0.3258657,-1.0662359,1.487345
source_dataset:COLO 783,0.130202,0.5782826,-1.1217659,-1.2186189,1.5234649,1.9559195,-0.16666059,1.5648203,0.2469148,1.023181,0.7906802,-0.08358825,0.1108151,1.5867844,0.44786966,-2.560183,0.17740011,-0.5466457,-0.7535841,0.5468077,-0.09386148,-0.21812543,-0.15190294,-0.58691275,-0.8618229,0.12503706,-0.0016064197,-0.3643019,0.51677215,2.1059945,-0.83268464,0.5770877,-0.8647757,-1.0769798,-0.2044291,1.8269997,-1.5392114,-0.10467939,0.42997515,-0.16823436,-0.71986663,0.82382005,-0.36961275,0.6217263,1.7322375,1.0157586,1.1878903,0.13777241,-1.021395,0.33190703,0.60127515,0.58921707,2.444276,0.7131095,-1.4313595,-0.3104794,-0.49226215,-1.6243515,-0.42779285,1.4080386,-0.4696918,-1.8159229,-0.32028455,0.8946575,-2.218558,-0.83653504,1.6517652,-1.0358707,-0.9495663,-0.5381804,-0.79271245,2.2596579,-0.6538165,-0.6172071,1.4044203,0.7495741,-0.0914457,-1.0125039,-0.38204348
source_dataset:KNS-42,0.012083776,-1.9261043,-1.323775,-1.6541383,1.1544477,-0.09216285,-0.10434241,1.0949984,2.2421725,1.3339106,-0.90536267,-0.7414212,0.45485663,-0.5600619,-2.1937625,-0.5782103,0.42655545,-0.9308571,0.22227767,-0.75186956,-1.265466,-0.6443761,1.351729,0.6484712,0.5884886,0.30109003,-0.042824022,-0.5953603,-0.39556146,0.27453145,0.6803264,-0.9315862,-0.7185226,-1.2580886,1.4271989,-0.101199895,-0.04917634,-1.5006858,-0.1812461,0.23523937,-1.3573332,0.6291728,-0.32236463,-0.41712055,-0.91315466,0.31109455,-0.1801272,0.33861288,-2.4797883,-0.3976513,-0.6780167,-0.9458114,-0.46455473,0.51021355,1.353736,1.1763848,0.6458638,-0.6097755,0.39376387,1.6679507,-1.8458408,-0.88669676,0.78904915,0.40635264,-1.6427933,0.35185638,-0.9717844,0.58766854,0.18277095,-1.5244654,-1.9200392,-0.46777943,0.465808,0.8370121,1.4520047,-0.6764042,-0.44689307,1.5873189,0.024444029
source_dataset:OC 314,-1.09408,-0.1409649,0.44085163,-0.45448858,0.13193023,-0.27763474,-0.5969784,0.08274228,-0.52551407,2.0537162,0.045834348,0.033947773,-2.2961414,-0.08936833,0.024443187,0.5466568,0.4800878,1.5954767,-0.7715518,0.46669856,-0.23359272,0.5216408,0.6563308,-0.9768816,-0.52630115,0.07961887,-0.19245365,-0.6149164,0.70956695,-0.39675242,-0.9003915,0.3730462,0.2645192,0.8499559,-0.11096291,0.11784045,2.1685936,-1.1714205,-1.7470977,-0.15772535,-0.8673812,-0.7351081,-1.2751778,0.296619,0.50192666,-0.3914923,-1.9991677,0.8170535,0.7520432,1.9712352,0.89185876,-1.6849561,-0.8874927,0.2680074,0.7350044,0.6622922,1.1831101,1.0022844,0.29443756,-1.1219672,1.0904915,0.9891505,-1.441621,-1.1523275,0.0570311,0.14469652,-0.7549925,-2.417316,-0.05800177,0.5812216,-0.2970396,-0.86607254,0.109926,-0.7576262,-0.1943697,-0.100133285,-0.46799526,-0.5870257,0.10393377
source_dataset:NCC010,0.5657856,-1.2423784,-0.7196243,-2.2129626,0.024534771,0.7653714,0.84877455,1.6002961,-1.9917665,0.3741919,-0.4062713,0.55939156,-1.161642,-1.6439298,0.6310258,-0.34521228,1.2062154,0.07162998,0.5671804,0.66232926,-0.2691798,-0.0990058,-0.63595074,-0.9303243,0.59741473,-0.31651187,-0.54767084,-0.19978113,0.13429584,-0.6745626,-0.124097236,0.7543289,-1.5268047,-0.69800806,-2.1185603,0.061241433,2.065431,1.2374825,-2.039773,-0.16218649,0.26573285,-1.6429203,0.21699893,-0.009445548,0.48052144,-0.8378548,-0.729993,1.0325315,-1.4049736,1.8223556,0.039579663,1.1099415,-0.0852012,1.9430443,-0.036257885,0.51441854,0.6268373,-1.2656442,-0.24769601,-0.70170325,-0.54437476,-0.3080885,-0.25539547,-0.23901501,0.028724251,-1.3308078,-0.24931346,-1.8489952,-2.1274679,-1.0631367,-0.49909264,0.35371214,0.06866047,-1.2731253,-0.42820537,-0.9241239,-1.5821981,0.39145356,0.79789513
source_dataset:A-388,2.806782,0.51401305,-0.2896719,2.257832,-1.6621364,0.63721,2.0082498,1.0742768,-1.7276095,-3.0309963,-1.6763175,-1.6580116,1.5170335,1.7701327,1.2727708,-0.11785683,-2.0956323,-1.1113911,1.0346178,-0.6154356,-0.52297413,2.463239,-1.559173,0.3085341,-2.2488143,1.170347,1.2062441,3.5191832,2.2028468,-0.19018933,-0.49303,-0.3737416,0.71689254,-0.75614214,-0.5144441,-1.7264636,-1.7579179,0.7944459,2.615014,-0.27742523,0.34178975,0.07872476,0.5847769,0.14902733,-0.2424641,-0.27071667,0.66566503,0.71947634,-0.2134786,-0.89289385,-2.8049119,-1.374593,-1.3117734,-0.31136346,0.3778786,-2.233726,0.5425121,1.5841503,1.5960733,-0.07542371,-0.5331115,0.43675882,0.06132053,0.7753991,2.6355898,-2.4404788,3.2697337,2.1076136,0.91100055,1.2545146,0.7641902,1.6202471,2.2118092,1.3208352,1.925105,0.8111203,1.7467319,-1.3088638,-1.2171489
source_dataset:Reh,0.69667846,0.7273975,0.78321403,-0.82967246,0.35615104,0.5501583,-2.4827173,-1.9765084,0.96221584,0.26452038,2.0742998,-0.8290356,0.4350279,-0.77476907,0.6108162,-1.9283764,0.21043245,-0.24535468,1.0350873,-0.42495894,0.24670033,-1.2351435,2.991834,-0.09608403,0.65922755,-0.6614051,-0.222399,-0.49088505,-0.9441688,-0.795619,-0.1433338,0.086469255,1.3436929,3.0828214,-0.3167145,0.17161398,0.7166224,-1.9569633,0.8356614,1.6043836,0.42806086,-1.0729558,1.4319274,-0.20196468,-1.8553947,-0.18688144,-0.36185548,-0.5171523,-1.0872095,-1.4056941,0.030801922,-0.20863979,0.14601138,1.5858507,-0.577604,-0.13556911,1.1037205,0.029059242,0.99980766,-1.1986586,0.758822,-0.67567325,0.38323024,2.346061,0.844863,1.1307315,0.61093414,0.11570654,-1.1789247,-1.2126857,-0.10888994,0.08776775,0.5766534,1.8823034,-0.30186653,-0.7488801,-0.73971564,0.036039777,-0.7721514
source_dataset:PC-3,-0.42402107,-0.67916864,-0.5051027,1.4496804,-1.3005812,0.4102149,1.5795527,-1.0434891,-0.073252395,0.12872116,0.0584971,-1.4374382,-1.0155582,1.131531,-1.1722739,0.40682757,0.37598756,0.2716654,0.28451303,-0.67677826,0.057786245,0.65981644,-0.8588659,-1.0686693,-1.174297,0.40838626,0.65853107,0.3290817,0.44938904,-1.2615625,-0.9991451,-0.20837972,0.16610199,-0.20457718,0.9798549,-0.8578854,-1.8067504,0.7506614,-0.31040943,-0.55106795,-0.7430853,-1.3015475,-1.9999762,-0.29336673,0.4010085,0.12760088,1.552357,0.5882568,-0.18467715,0.5039974,-0.511032,-1.6056706,-1.8884776,-0.3020463,0.63678396,-0.4976735,0.09261419,-1.3054869,-1.2090116,0.27039486,1.2687142,1.2401627,-0.9595556,1.1912723,-0.4710468,-1.8467761,0.2257529,0.46524352,-0.22193934,0.95960516,-1.6160392,0.35067365,-1.3448414,-1.2233158,0.33255807,-0.008477587,-0.3152401,0.03658598,-0.015373415
source_dataset:RL,-0.47391108,0.912584,0.280011,1.4829323,-0.42097983,0.6600318,-2.9086661,-1.6075822,1.1054299,0.5780694,1.7020956,-0.7499348,-1.2332383,-0.41233152,-0.5450646,1.884247,-1.3335845,-0.31156635,1.3505298,1.9130622,2.008514,-0.9534014,-1.0354627,-1.1242939,2.6553528,1.8838482,-0.06358386,-1.1906258,-0.59216744,0.07321674,-0.17002028,1.3205379,0.98443985,1.1848476,0.8501167,-1.261672,1.6956675,-0.3279547,-1.5190845,0.66278297,0.077551335,-0.972696,0.6708271,0.5956973,-2.5136378,-0.4474173,-0.47133702,0.5307332,0.16826808,-0.7247909,-0.122416094,1.2447567,1.1001554,0.030158354,-0.6497974,0.71190375,-0.73071706,-0.42063573,0.35174048,-1.6317216,0.32925534,-0.24402967,1.5789539,-0.087264955,1.1759597,2.1564612,0.7444006,0.04091122,0.041541584,0.26653773,0.86617297,0.7895963,-2.5357614,0.062081918,-0.851184,-0.13734697,-0.461988,-1.2823964,0.89373046
source_dataset:T84,-0.35769466,-0.73465514,0.7337321,2.0091412,1.0552338,-0.3590182,2.569774,0.3198187,-1.5766441,-1.2783508,-0.7429534,-0.060616497,0.1684452,1.7458895,2.7520337,2.852101,-0.42674848,-0.7542272,-0.20661412,-0.15460819,1.7347091,-0.30112243,-0.64442766,-0.39260298,-0.29643643,-1.2614844,0.70094293,1.6453147,-0.7029294,0.77624434,-0.09386071,-2.6207068,0.19317839,-0.4152882,-0.35937285,-1.03947,-0.20124523,1.1667632,0.5095209,0.6441862,0.6277448,0.27012825,0.63328224,0.43897897,0.46102163,-0.9669892,1.3519009,-1.0428867,2.0750973,-0.7448128,-0.7132603,1.1411475,-0.018733071,0.06011434,-0.6907154,0.19949558,1.3835847,0.87565076,1.295999,-0.38303953,-0.44688395,0.20317481,-1.5289445,0.52587044,-0.38861448,-1.9920007,-0.32296127,0.23418415,0.63394475,0.06267239,-0.18834494,-0.5217007,1.8826532,1.044393,0.6197647,-1.0016261,-2.5284147,-0.59216076,-0.7736276
source_dataset:TE-9,1.0080706,1.0550268,-1.2329308,1.4064204,-1.7071704,1.1904039,2.1721005,-0.52327853,-0.3009575,-2.8523066,0.4258168,-0.9813857,0.9668007,1.4526842,0.57548165,0.49603626,-0.19786753,-0.46339226,1.2092195,-0.999752,-0.5312141,1.117729,-0.14321586,0.99952227,-1.3646543,1.4813831,1.3031139,2.9928558,0.18168703,0.74943256,-0.18168549,-0.4388383,0.67191243,0.17634976,-1.2437632,-1.416534,-1.0243819,0.19334191,0.6138484,0.44436428,-0.29193455,-0.063555084,-0.3890771,-0.22656539,-0.7672712,0.8562967,0.31736284,0.63814455,0.50412065,0.665243,-1.9364042,-1.1015103,-2.1880064,0.19628775,1.4972242,-1.2924703,0.5123991,1.0197365,1.7685851,0.9492586,-0.69171244,1.2608362,0.40540683,2.045644,0.5059561,-2.2191753,1.3093659,2.019911,1.0097052,-0.2205882,0.4771178,0.0054623187,2.0687747,1.1983569,0.09900154,1.0340706,0.08063573,-1.3602742,-0.1205678
source_dataset:SW1573,-1.0299364,-0.8570196,1.6213832,0.36928058,0.51613486,-0.0041499287,1.2290666,1.2577227,-0.95546997,0.24834323,0.106128775,-1.0227686,-0.49962604,0.22887866,-0.023459129,-0.120348394,-0.79026836,0.080061756,-1.3049498,0.48915988,0.4285962,-0.22128248,0.2876965,0.018127412,-0.99686,-1.0793352,-2.4445593,-0.66133165,-0.62886125,-0.7989301,0.8861028,0.5731065,1.1829728,-0.6875725,-0.0008789003,0.13781178,0.7724891,0.48007417,1.2968221,-0.022466335,-0.2668895,0.52287114,0.5663375,1.2614291,0.9813349,1.2770189,-0.3155723,1.0358199,0.08026137,-0.39999852,-1.1670823,-1.0649433,-0.6837818,-0.21904205,0.32456264,0.32452112,-0.92706984,-0.36192426,0.6605207,-0.0120199835,-0.5360452,-1.231669,-0.10187946,0.013276808,-0.36317694,-0.34701818,0.29890642,0.21564978,-0.43817174,-1.124028,1.9277836,0.41856527,0.8969843,-1.4384304,0.45399407,0.02624615,0.28044248,-0.74612963,1.9113054
source_dataset:MG-63,0.5180951,0.7315533,0.29049504,-1.4109998,-0.17665917,0.36864302,-0.51656085,-0.037264816,-0.9692969,1.1992713,-0.42199954,1.467101,0.052168116,-0.022077654,-0.105631225,-1.3251845,0.051409822,-2.15411,0.102358095,0.56096154,-2.781823,-1.0228426,-1.6995894,0.6133944,-0.13071498,-0.49277103,-1.073579,-0.31319115,0.2897517,1.7411277,0.87420654,1.7059499,-0.47243896,-1.0306978,0.18180816,-0.020605605,1.0721873,-0.71548873,-1.2731037,-1.7973152,0.7814333,0.5098025,-1.5497594,0.4982283,0.20660034,-1.235254,-0.54380774,0.85380137,0.19814523,0.5718843,0.70164144,-0.164029,0.42992485,1.3259214,-0.4885054,0.52616054,-0.14204334,0.051699396,-0.7107781,1.2530335,-0.676399,-0.09018244,-0.90606046,-0.32975304,-0.3773478,-0.013547484,-0.14666931,-0.5094342,-1.7934223,0.24372782,2.0224414,0.56530094,-0.947423,-0.30836052,-1.1216909,-0.94155717,1.0253669,-1.037702,0.109525464
source_dataset:SK-MEL-3,-1.4439361,0.22147004,-0.43144125,-0.7629776,1.2099274,2.0647817,0.0045877583,1.2324128,-0.0873999,-0.22847536,1.2984847,1.5237538,0.45034212,0.43683556,0.99720097,-1.3520408,-0.85634285,0.38201395,-1.1123141,-1.7955657,0.91115093,0.042661313,0.14152168,-1.6339767,-0.37860486,-0.24564745,0.33507743,-0.5841432,2.0938897,2.4461772,-0.37256274,-0.14909822,-0.47148466,-1.1783247,0.12927823,2.1490645,-1.2436938,0.32627448,0.7397368,0.17871684,-0.43339235,0.9185299,0.3274745,-0.7970871,2.363733,1.639187,1.3127646,-0.47756743,0.07561061,-0.013764143,2.2752771,1.5958017,2.4899201,-0.32810712,-1.1837437,0.2464189,-1.1128155,-2.3614743,-1.7005293,0.1568858,-0.9525561,-1.3547069,0.3016953,1.2072186,-1.2241405,-0.5059427,0.43592015,-1.6175206,-0.7991578,-0.40043,-0.21781817,0.6288523,-0.6686717,0.18815137,-0.08628658,0.6818873,1.2224238,-0.41818964,-0.782885
source_dataset:HCC78,-0.43321615,-1.9911737,0.51478565,1.1352711,-1.5599171,-0.43857038,0.18533543,0.10227248,-0.2755341,0.54926187,-0.5283771,-1.3183069,-0.8635802,1.5792725,-0.66999495,1.9738022,0.58456886,-3.575363,-0.5662856,-0.040098958,-0.71022654,0.2696892,-1.2758262,-0.71965677,-0.31730947,-0.75150025,1.0112134,-0.39552706,1.8567947,-0.13741489,0.4660147,0.009654668,-0.63255286,-0.6540144,0.7756753,-1.5090213,-0.32666916,0.68906003,-1.1151558,-0.24000114,-1.2544482,-1.7616246,-0.9169695,0.47223333,0.6217183,-0.24117556,2.5983076,1.1539503,0.49462467,1.217808,-0.33409384,-0.5991068,-1.8265104,-0.46371704,-0.2543952,0.02977606,1.4698472,-0.27719977,-1.0424191,0.7504505,-0.011627048,1.8104101,0.26688054,0.16184765,-0.5285668,-1.335238,-0.99399275,0.42911845,0.2369899,1.5199133,-1.2882135,0.16080028,-1.8837684,-1.2151065,-0.66959727,-0.041367583,-1.4828048,1.7618716,-0.010712162
source_dataset:G-401,-0.8602387,0.037536778,0.9553814,0.05993437,-0.040393647,-0.83273476,-0.27643263,-0.38528812,-1.0520437,-0.16077107,0.7633361,0.42427784,0.1032241,-1.0206094,0.58414173,0.7576358,-1.9732533,0.05663654,-0.9987121,-1.5682356,-2.3755193,-2.2150323,0.8736581,0.5763293,-0.8129571,0.7092899,-1.4443669,0.76186335,-0.90105444,0.67972475,0.13216299,0.9207376,0.7863089,-0.21158952,-0.5577563,0.07423157,0.75207686,-0.22135232,1.8429703,-0.5015208,-0.8157421,1.7146316,0.06664805,0.09979917,-0.45541435,0.7445677,0.16866678,0.16715391,0.12251887,-1.5037744,2.1598022,-1.04124,1.6255866,-1.4520171,2.0009105,2.309838,0.41739503,1.1361208,-1.4478782,-2.2188735,-0.018167613,0.29184008,0.6180804,-0.23982249,0.11519723,2.4232063,-0.59247804,-0.525352,-0.440477,-1.2995191,1.2754182,0.78410083,0.58411515,1.6437391,0.8281722,0.38966894,3.101738,-0.802568,-0.25003016
source_dataset:SW1088,-0.13446522,-0.30020434,0.12744445,-1.3860024,0.42364842,-0.2547813,0.27579233,1.005543,0.7752736,1.181479,-0.6624971,0.726742,-0.34296104,-1.2533334,-0.33877417,-1.1521355,0.14937288,0.017043129,-1.0786881,1.2158961,-0.7808592,0.052961834,-0.80789816,0.3547617,-0.19908251,-0.34399176,-1.4129326,-0.08820371,-0.73393977,-0.18332444,0.43192667,1.7494494,-1.1369537,-0.85974413,0.09178497,0.56205314,0.06658581,0.74577934,-0.21669114,-1.5635834,-0.015557513,-0.74727666,-0.7761698,0.7683424,1.3295301,-1.0137846,0.3792956,0.16016388,-1.0233463,0.5895718,-0.9369433,-0.51376224,-0.78202933,2.5515983,-0.7058431,0.3539745,-1.1702517,-1.3673145,-0.5079725,2.1854715,-1.7251294,-0.47918203,-0.32454166,-0.7155935,-0.5518459,0.00913221,-0.36574835,-0.70169663,-1.6878133,-1.3086008,0.48073852,1.6214703,-0.23112579,-0.6474044,-0.4862395,-1.1838654,0.97599113,0.17255916,2.0188558
source_dataset:NCI-H748,-0.35886508,1.4436709,-1.4505059,-1.7351333,0.899661,-0.11789476,-0.20678635,-0.26643816,2.4600902,0.9509986,-1.1786069,1.5078439,0.6171702,-1.1355097,-0.8855169,1.533307,0.65107393,1.6315037,0.2461821,1.5229473,0.29986772,-0.16076119,-1.1705507,0.30011687,0.3026169,-0.8769542,2.2673075,-0.767269,0.6929336,-0.30602348,0.37648726,-0.09238965,-0.0035354272,-0.13874859,1.1510264,-0.5067836,0.67102337,0.23959202,0.7099747,2.5455394,1.6853825,1.941747,-0.064625286,-0.30528006,-0.19694136,-0.22183006,-1.4892447,-2.0185525,-0.12468464,-0.5399333,0.46681118,-0.47698277,0.2023327,-2.070842,0.040792942,1.3391378,-0.82009387,-0.25518262,1.0438226,-0.95614344,0.40885636,0.26875165,-0.84979236,-1.1810632,-2.2098403,2.3289297,-0.8730654,1.3728898,-0.26083356,-0.16206357,-0.08559501,-0.9084003,0.16265234,0.33914432,-1.1213288,0.53277904,-0.66292787,0.36724365,0.09337634
source_dataset:NCI-H630,-1.3941756,0.47183254,-0.07921334,0.62554705,0.88611543,-0.3442489,1.4641107,0.059904423,-0.38546023,-1.1185876,-0.12700182,0.38162112,0.19101806,2.414658,1.0660679,2.9607117,-0.7660792,-0.6674928,0.26805136,0.5995314,1.6535761,-0.8943497,0.08537154,-0.5723106,1.2127655,-0.9356818,1.343894,1.3208487,0.14924164,1.1512686,-0.8797088,-0.89887166,-0.13630748,0.5264879,0.06385036,-0.28712866,-0.13296768,0.7416799,0.09627709,-0.27043894,0.7249994,0.91750234,-0.20856124,-0.74811566,0.97932255,-1.6174661,0.7534974,-1.1272678,2.9637067,-0.80711114,0.8853966,0.84312963,0.918039,0.16645628,0.11097062,-0.35548753,1.9354558,0.51283336,0.5330982,-0.6345974,0.7934592,0.31735948,-1.1349574,-0.52482885,-0.31140447,-1.1126434,-1.3327539,-0.39321813,1.2382936,0.6602508,-0.9362885,-1.595158,0.45062113,1.413723,-0.64063406,-1.40914,-2.8246992,0.9267612,-0.07005579
source_dataset:WRO,0.4797655,-1.2795753,-0.5219462,-0.76269615,0.172585,-1.2510779,0.80352366,0.5905914,-0.7773189,0.18387648,-0.3241837,1.6009692,0.1401897,-1.2383965,0.16725242,-0.056674972,-0.70748854,0.67056525,2.9954643,-1.1786449,-0.9817124,-0.6539892,-0.49767178,1.8032818,-0.5146954,-0.40254456,-0.5593167,0.093272835,0.006710209,0.48770115,-0.5286461,2.6084118,-1.7319725,-0.16927698,-0.5667109,1.7871925,0.69491506,0.5312502,1.3265078,-0.7010599,1.6639328,1.2076542,-0.9569178,0.79036045,0.31653923,0.1570017,-0.6478243,0.4563971,1.8106245,-0.47448957,-0.4712326,0.10317252,1.3156867,1.5169493,-1.162204,-0.8365449,-1.6916654,-1.4632442,-1.651882,0.7387462,-1.8048233,0.23794238,0.2013164,-0.55980873,0.5754166,-0.60169905,0.24428916,1.3022858,-1.7032534,0.33622822,3.1895084,-0.12503925,0.82919997,-0.9608792,0.30332613,-0.1335904,1.1413262,-2.470561,-0.3779346
source_dataset:NCI-H2444,0.4873978,-1.6116683,0.53405493,-0.19655986,-1.4417883,-1.3527868,0.1280458,0.687045,0.6228999,0.32657045,0.6205007,0.2845391,-0.5745492,-0.29013804,-0.835231,1.267271,0.16181912,-0.8459206,-0.69247985,-0.0023314506,-1.7319026,0.07668199,-1.141367,-0.726474,-0.061778836,-1.2638702,0.33076507,0.39645103,1.3666639,-1.2985597,-0.8903907,0.6571184,1.4524885,1.0320698,1.3936045,-0.43983278,-1.2728904,1.2677808,-0.17016388,0.99130404,-0.8016901,-0.92138356,0.1596875,1.0691701,1.7589077,0.10238576,1.5598347,0.4432256,0.35307753,1.1613005,-0.22924656,-0.8207373,-1.7009499,0.20221184,0.120006934,0.26905975,1.0817965,0.114816375,-1.4131718,-0.03291072,0.81498325,1.1032255,-0.068506904,-0.20310032,0.3745088,-1.2849431,-0.06328485,0.13741907,0.6917889,1.6750576,-1.1732247,-0.20148581,-1.6709824,-2.2136314,0.26682672,-0.5571394,-0.24716786,1.537835,0.81352615
source_dataset:D283 Med,-1.1077554,0.703028,1.1117462,-0.63758,0.6729129,-0.56620544,1.3092574,0.2579544,-1.3488134,-1.5293096,-0.088169135,1.5119201,-0.19680128,0.40979427,-0.2541112,1.1024283,-1.8276864,-0.60456866,-0.07166865,0.36770043,-2.8811016,-1.0637081,0.6426487,0.4616015,-1.065581,-0.7964155,-0.0109021105,0.19071513,1.1635817,1.6098825,1.4980614,1.7922544,3.2094026,0.6882715,1.8333797,-1.395855,-0.73431957,0.30510834,2.3557718,0.038185284,1.8204752,0.965696,0.83372617,-0.3727754,0.69705665,-0.37062418,-0.3263912,-0.8244911,0.07887675,-0.35938513,-0.39050293,-0.24849105,0.6547611,-0.015104972,-0.7004586,1.5885105,-1.4507148,-0.5716271,-1.7248731,-2.3281708,1.5689468,-0.5104854,0.5839742,-0.5385865,0.40321633,1.8551702,-2.3488607,-0.6619789,0.8276794,-0.29174176,0.6635631,0.008279711,-0.032864746,1.5457207,-0.3793183,-1.2908187,2.9638777,-0.2153354,1.8627635
source_dataset:RPMI-8866,-0.6967869,1.9906386,-0.6011119,1.366423,1.719893,0.6817475,-2.688122,-0.963261,-0.35423276,1.6159214,1.0484097,0.35091823,-0.9568014,-0.6981653,0.79270744,0.85260284,0.15526503,-0.96596134,0.6463219,1.2851108,1.5755397,-0.748759,-0.35535634,-1.6705346,2.5885541,0.84091926,1.2964377,-3.1081672,0.82006264,0.96811616,0.13677146,-1.3711947,1.3605837,-0.61119556,-1.0544714,-0.6750551,0.5012138,-0.33801493,-2.559019,0.105794534,0.6546945,-0.56085885,1.9485476,-1.0591873,-1.3461652,-0.3303574,-0.07112338,0.29853687,0.5489162,0.47858733,-0.43189597,3.2119365,-0.09096313,-0.5150559,-0.008996934,0.8290912,-0.724399,0.21601528,0.061732754,-0.27971846,-0.24329375,0.5259901,1.0548123,1.3430555,-1.1745754,1.4633577,-0.35242385,-0.18329383,0.8288356,-0.097032145,0.54909164,-0.09828449,-2.131,0.4257628,-0.091546305,0.6929359,-1.0113456,-1.8196982,0.7745079
source_dataset:KU-19-19,-0.7730298,1.0692841,-1.1481068,1.6570721,-2.252653,0.66106755,1.2005961,0.17957234,0.4173996,-2.4830902,-1.0309975,-1.6598544,-0.65471095,1.2153374,-1.4299123,0.09240525,0.31566378,1.2841973,0.4884176,-0.13245074,1.1186887,0.46900466,-0.40180743,-0.91545326,-1.3644376,0.3815928,0.6154743,0.76919514,-0.6237083,-1.6114935,-0.3300888,0.14841752,0.33672667,-1.2363666,0.49261165,-1.371109,-2.2880263,0.7248877,0.6089586,-0.20408088,-0.8922367,-1.270508,-2.1088097,-0.062958784,-1.1335008,1.7708172,-1.0425282,1.2439828,0.6368676,-0.8628503,-0.72857857,-1.0325646,-0.9291178,-1.4336087,0.6677181,0.9329825,-0.76391435,-0.50162286,0.035978615,1.6447197,1.7519614,0.9222203,-0.8736645,-1.8821367,-0.62790966,-1.6074368,1.0691875,2.1246688,-0.18270935,0.40612727,-0.5002027,1.2705238,1.6105583,-1.4574895,-1.1859405,-0.28653297,-0.3031281,-2.3010738,0.0119298585
source_dataset:KON,2.351376,1.3579631,-0.4840954,1.1873684,-1.4603662,1.1849293,2.065673,0.37733677,-0.8822492,-2.7650225,-0.7794149,-0.5044789,0.6625183,0.5925458,0.9346294,-0.57379913,-1.2288344,0.18332848,1.6050141,0.22384186,-0.3040509,1.8931772,-0.81701106,0.2684948,-2.119142,1.0919737,1.3548253,3.3747466,1.3662924,-0.2861996,-0.6782195,0.7279112,-0.010368668,-0.76934004,-2.1730175,-1.201897,-1.6217031,1.6241504,2.0625498,-0.008382198,0.4286866,0.14824659,0.4792125,0.44814768,0.066361874,-0.075963564,0.94907343,0.7614165,0.98719627,-0.3391349,-1.5516106,-0.5099092,-1.2898282,-0.6210098,0.69655824,-1.526384,0.2754393,0.11552383,0.7025933,0.82768613,-0.42998853,0.10343899,0.16475148,0.1434859,1.8466908,-2.4094505,3.208239,1.7799503,0.02280849,0.5346333,0.8435243,1.180225,1.5476699,0.02267689,1.3632444,0.66013,0.9813001,-1.3685838,0.08518148
source_dataset:KMRC-1,1.6819195,-0.17112248,0.61883557,-2.053561,0.7739852,-0.45928538,1.6288116,2.0419776,-1.309093,1.1868784,-0.08239333,1.0956397,-0.31521496,-1.1931605,-0.13352387,-0.25285643,0.2921194,-0.5233057,1.2242265,0.85585284,-0.76399267,1.427799,-2.019332,-0.970283,-0.31833228,0.47980347,-0.73102635,-0.33188927,1.4867508,-0.70470655,-0.14954893,1.7820172,-1.1391618,0.10628243,-1.4906768,1.4383786,0.7515894,0.18282327,-1.7446991,-0.4325513,1.0295534,-1.3265283,0.0511418,0.51882166,1.6987405,-1.2376473,-1.0218459,1.4626564,-1.7183944,1.069782,-1.957297,-0.08918383,-0.3230284,1.5512439,-1.5044818,-0.084367126,-0.48408037,-0.41597304,0.45519766,-0.18711464,-1.2758343,-1.2072724,-1.7894918,0.47283742,0.17361021,-0.3432388,0.26627195,-1.054939,-2.343554,0.8193229,1.2836288,-0.5793817,0.08571291,-1.2851801,-0.47027245,-0.69096667,-1.1813496,-0.81024843,0.61737937
source_dataset:TGBC24TKB,-0.36513948,-0.22343788,-2.0465627,1.3326912,0.031113131,-1.6562376,0.06966187,-0.10556517,-0.7892226,-1.0584517,-2.0894701,-0.36499628,-0.17185177,0.80206984,1.0529324,1.025504,-0.65422857,-0.69459105,0.1979087,0.746657,0.72908235,0.15349779,0.20141919,-0.70558685,1.998679,-0.8544523,-0.5757252,0.5202983,-0.34233367,-1.5341531,-1.0646722,-2.1639335,-0.7706174,0.18451986,-0.23690385,-0.604942,-1.4995238,-1.0733248,0.40286076,0.5738974,-0.3839877,0.39153457,0.82918096,-0.18483634,0.51794237,0.3284409,-0.7803104,0.6787537,0.7255945,-0.022787705,-0.19511758,-0.89945596,-0.15251853,-1.1739204,0.34479955,0.0018947124,1.6680973,1.8351986,0.011907028,0.41307613,0.340555,-0.2597972,0.18208519,-0.2544196,-0.30573583,-1.82567,-0.5197568,0.7587015,0.6436181,0.9364318,-2.3386514,-0.7750858,0.9776064,0.99080145,1.0141816,0.11429071,-1.1534089,1.3548049,0.39634445
source_dataset:RCM-1 [Human rectum adenocarcinoma],0.7305959,0.22625066,0.24316311,2.3187475,0.65671307,-0.20271176,2.554868,0.34464726,-0.7473451,-1.1767809,-0.67856574,-0.767035,-0.013388753,3.3476245,2.377901,1.3287828,-1.6971678,0.003143284,0.12501502,0.9624132,1.5962092,0.36045706,-1.3901224,-0.40321818,-0.34901696,-0.8415081,-0.5879842,1.7892307,-0.78024274,-0.4032644,-0.67719764,-1.3194788,-0.19428344,0.34505618,0.4132571,-0.9669753,-1.6510427,1.1849759,1.6974223,0.6043713,0.6532045,1.1449507,0.1583783,0.88307214,1.1388978,-0.23565802,0.3247953,-0.06477723,1.8983942,-1.2165807,-1.8221202,-0.998488,0.48895818,-1.1757207,0.81679237,-0.6805676,0.7516249,1.7027464,1.9042108,-0.20972693,0.439731,0.2947079,-1.1373996,0.7150327,0.23660061,-2.262092,0.543954,0.525171,0.8746899,0.6896093,0.08050939,-0.6067813,0.8329432,0.14891562,0.4919341,-0.056692544,-2.1939921,-0.58017737,-0.5667949
source_dataset:RKN,0.7501714,0.15401995,0.8872441,-0.09358274,1.4485394,0.81895757,1.0611299,0.6897197,0.3712662,0.41761518,-0.49648747,-1.0635253,-1.6159668,-0.012776947,0.09392062,-0.2989538,1.3008935,0.51389515,-0.15158339,1.6081207,-0.22432111,1.7517765,0.5163497,0.24564488,-2.0780685,0.3680202,-0.94128615,-0.36870006,-1.0086708,-0.5303147,-0.2608579,1.1149539,-0.79553866,-1.055742,-0.27672833,-0.16105042,0.45630497,-0.13923633,-1.0659047,0.11315599,1.0080501,-1.50773,0.14740576,0.05004629,0.8091377,-0.5555611,-0.24525371,0.774382,-0.5277215,0.9887904,-0.822477,-0.681344,-1.4834363,0.73486096,-0.82754385,0.98598737,-0.5240655,-1.0573373,0.89920825,1.3548683,-0.85657525,0.1906975,-0.80618966,-0.23847409,-0.1610442,-0.5157009,0.20026037,-1.2451786,-1.1713736,-1.5319799,-0.45634547,0.79432386,0.78456914,-0.83817244,0.32335407,-1.164401,-0.6228531,-0.46371257,1.3848134
source_dataset:Calu-3,-0.34966815,0.8532284,-1.2764221,1.3017824,-0.08942154,-0.6786906,1.9480395,0.023818064,-1.1238408,-1.2411197,-0.22679272,-0.80559933,0.9718137,1.7504414,0.92975515,1.5145096,-0.6702574,-0.1827453,0.6560444,0.3594146,-0.80980676,1.0739446,-2.9017715,-0.66717255,-0.50407237,0.029901028,0.8049014,-0.017915584,1.2688953,-0.20041928,-0.57197976,-0.9372353,1.0749527,-0.029137999,-0.43773258,-1.5664468,-1.0535884,1.5988954,-0.20233034,0.60449845,-0.72440827,0.67218614,-0.0840973,0.4721286,1.5747747,-0.45944506,1.2806171,0.034835868,1.0196466,1.67424,-1.3888946,-0.17002222,-0.9479292,0.74706876,2.633304,0.4196362,1.166461,1.4496258,-0.7390936,-1.0581439,0.8543653,1.853825,-1.6152583,-0.142804,-0.01633008,-3.7983823,1.7358019,0.11093904,-0.060240917,1.0497425,-0.024758294,-0.87282,-0.20230678,-0.43847597,1.0062355,1.3837359,-0.97921926,-1.7341459,-0.24489118
source_dataset:IST-SL1,-0.9626845,2.0166938,-1.0567042,-1.9378415,0.36724353,-0.20524761,-0.82661915,0.14585328,2.1740065,1.1273752,-1.1887636,1.175032,1.5358146,-0.70428824,-1.5489272,0.92926216,0.2589248,1.2845817,-0.20661458,0.77959275,0.7882468,-0.61496806,-0.6116886,-0.35052955,0.8258245,-0.50903994,1.8252153,-0.72983766,1.5676118,-0.6656273,1.0523758,-0.21722315,0.5986162,-0.3946314,1.2536931,0.0006516278,-0.5012751,-0.023733769,0.81887734,1.2761921,0.48242575,1.1544696,-0.03579904,-0.8868971,-0.35387856,-0.2508579,-1.7096511,-2.0840333,0.32651088,-0.3851376,1.0096443,-0.015948517,0.07037711,-2.8604903,0.70344114,0.17217512,-0.9206579,-0.21019535,0.7069637,-0.821289,1.0479537,0.09569855,0.44618732,-2.270523,-1.9858592,3.0164747,-1.3550265,0.688657,0.4157778,0.53129286,-0.11242212,-1.3919575,0.49012867,0.110377915,-1.4495654,0.44279557,-0.84473544,0.55187964,-0.1127696
source_dataset:VL51,0.025748031,1.6902678,-0.4000894,1.1944888,1.0750079,1.0702214,-2.7240222,-0.4763931,-0.6295116,1.9074944,1.2346376,-1.5670162,-0.6473958,0.57022333,0.45202214,0.037274674,-0.24645555,-1.3583755,0.32348773,0.39691377,1.9111122,-0.36584407,-1.0308009,-1.8398757,1.6607411,0.9983055,0.7634481,-1.7779536,1.0695773,-0.24544881,0.6341667,-0.5189048,1.642539,0.36774817,-1.0418653,-1.0505605,0.82188165,-1.1704416,-1.6976746,-0.8555291,0.3193102,0.30444574,0.6349682,0.15124887,-0.44977766,-0.46243393,-0.44080982,0.74654853,-0.6215098,0.8510658,-0.9144051,1.7313436,1.2100022,0.7266024,-0.5347246,-0.6342756,-2.527975,0.07725376,1.1134893,-0.3898861,-0.2651335,-0.6708276,1.1753842,1.5799663,0.054963514,1.056892,1.6277354,-0.96722734,-0.025563851,0.6403511,0.6812088,1.6879785,-2.9528012,-0.010926358,0.010488093,1.5078712,0.1934875,-2.8643267,0.8612251
source_dataset:EW-3,-0.17071061,-0.30100042,-0.09238074,-1.8813524,-0.5894079,0.26844546,0.66092324,0.7898432,0.32415578,-0.16281343,1.0388514,0.23189262,2.6341143,-0.21614806,1.1622252,-1.0635679,-0.4427077,0.2966595,0.1549161,2.1386468,1.0371013,1.2751884,-0.5828803,1.4148259,-0.1602352,0.7712424,0.6930238,-0.046216168,-1.185168,-0.46491733,1.9357154,0.25963867,-0.1860069,1.311307,0.3307527,1.2281009,1.9802744,-1.3310016,0.9749118,1.7447197,2.361587,0.4288401,2.775936,-1.8636496,-0.98258495,0.042415768,-0.26672512,-0.77949995,-1.362459,0.04615945,1.2627991,-0.46087202,1.4150404,0.36974028,-0.23038408,-0.06376831,-1.273054,0.08595106,0.44962922,-0.4050047,-0.25687385,0.22403881,0.3933723,0.11341425,0.46764457,0.99389267,-1.3853366,-1.4286624,-1.1027653,-1.3132434,0.4182313,-0.9733027,-1.6767328,0.61545783,-1.9906814,-0.34514645,-0.58652586,2.9009428,-1.7660818
source_dataset:NCI-H1963,-0.81765944,1.0985465,-0.78533846,-1.4753698,0.8854344,-0.30818215,-0.43168977,-0.26005942,1.3377502,0.3304821,-1.1914984,0.44428992,1.069488,-0.5021734,-0.33220252,1.0328795,-0.086084254,0.51988137,0.5367944,1.0440217,-0.22022039,0.4912703,-0.15755963,0.18838738,0.3349799,-0.8652416,1.797871,-0.9110824,0.92720354,-0.47866926,1.3330961,-0.01916125,0.5524092,-0.0299448,0.9052515,-0.7904127,0.29141685,-0.34924445,1.3363942,1.5558778,0.924037,0.7221712,0.72519493,-1.2906704,-0.48907033,-0.8199158,-1.495574,-0.80713964,-0.23257533,-0.5488259,0.6342613,0.22496174,-0.09381661,-1.7510304,0.79492265,1.0653727,-0.36822498,-0.13435239,0.8591475,-0.8343389,0.2771771,-0.081991665,0.49656862,-1.1966015,-1.8590871,2.5988843,-1.2618546,0.56466335,-0.18843803,-0.6683191,-0.6345107,-0.77871984,0.07060014,1.1234351,-0.974589,-0.27269688,-0.2629976,1.2431748,0.5770458
source_dataset:BHY,3.759334,-0.13434544,-0.1082042,3.6476665,-2.9270513,0.6644693,3.4443846,-0.13904451,-0.5374297,-3.5179124,-1.207303,-1.9303498,1.7166378,1.119575,1.2768157,-0.6425074,-0.44166788,0.20883252,1.3230898,-0.42421535,-1.2897278,2.825323,-1.6220669,0.840111,-3.1508825,2.0387182,1.2317593,2.7871158,0.79706633,-0.2290164,-0.095341176,-0.24440044,2.4720516,-0.86466664,-0.4763011,-2.4432998,-2.3926313,0.9819862,2.5248227,0.29720214,0.57107294,-0.76617354,0.95497555,0.74395394,-1.1911632,0.69153076,0.6058666,0.8443578,-0.7300102,0.031931657,-4.499506,-1.6235026,-3.2588062,-0.5207411,1.3224491,-2.2139044,0.7392873,1.120579,1.1811835,0.86371225,-0.7993394,0.6897253,0.07337361,1.8097811,1.8151199,-3.290847,2.857099,3.7286742,1.3176129,1.5765879,1.118115,0.6011338,1.4202763,0.19211797,1.7729931,0.3719779,1.159072,-2.2158394,-1.1641017
source_dataset:EFM-19,-0.09158172,-1.2285185,0.18592872,0.07544698,-2.6181262,-1.4589145,-1.55236,-0.8320019,0.3122648,0.26295435,-0.34307784,0.62021714,-0.26732367,-1.5389557,-2.250678,0.7647651,-0.8455935,0.5378993,-0.92025506,-1.4787393,-0.51799685,0.3782217,-1.5079195,-0.39252678,0.8150008,-0.45097512,-0.05929189,-0.7447225,-0.47981292,-1.8014228,-0.2776174,0.15640569,1.0118521,1.6074352,0.24548058,-0.01761707,-1.149716,-0.57387316,1.174612,-0.6137177,-0.45333213,0.7575073,-0.9810828,-0.955471,0.19358687,0.7980851,-1.09705,0.6608209,0.7776926,-0.22589514,1.9253353,-0.8597966,1.3349582,-1.0393926,-0.7444067,0.27760082,0.074468866,0.18371543,-2.448966,-1.4885848,1.7227591,-0.8035089,0.28667933,-2.2661037,-0.352473,0.13851036,-0.07920277,-0.014793875,-0.47262383,3.1760004,-0.32039893,-0.068291605,-1.3540932,-1.3358628,0.064890966,1.6161283,2.2745862,1.4597247,-0.8377865
source_dataset:NCI-H2009,-1.9589205,-0.14001143,-0.46139514,1.1041236,-0.35937715,-0.8139731,0.91822326,0.3227353,-1.7826825,-0.936537,-2.31099,-0.20857133,-0.06503274,-0.7296926,-0.37933105,1.5705452,-0.4371089,0.22854425,0.84672207,-0.22674754,0.7217715,1.6806602,-0.40339032,0.24907477,-2.143282,0.42053887,1.8397455,0.7291095,1.5200428,-1.2564695,0.96009743,0.30430207,-1.5923169,-2.3728032,0.6009498,-0.9287239,-1.4128183,0.95118946,0.4324432,0.84282815,-0.10656337,-1.1768082,0.04230213,-0.012274957,0.49244893,0.61339283,2.6387284,0.41588968,0.7921204,-0.030182786,0.5136147,0.26684335,-1.6060029,-0.9859638,-1.5708096,0.4826569,-0.5055971,-1.7633417,-2.6247954,0.635667,0.326681,0.9924107,0.34356174,-1.2044089,0.5116291,0.63254154,-0.0046842247,0.24888024,0.623763,0.5382061,-0.033550955,2.4739192,-0.14301617,0.06018594,0.5523877,-0.040090322,0.7907419,-0.61432755,0.3725966
source_dataset:SNU-61,-0.05772114,-0.093317404,0.11950804,2.8070426,-0.06061931,0.22832778,1.537969,0.5695684,-0.7422226,-0.7301102,-1.0116632,-0.6635517,0.4843443,2.4236286,2.35875,2.725993,-0.83943486,-1.4700572,0.20783849,0.3347879,1.3786176,-0.1213754,-1.3869972,-0.71385837,0.67122865,-0.5873049,0.6027358,1.4036776,-0.18556409,0.8757156,-0.76138675,-2.1782856,0.13056496,-0.4726318,-0.3223437,-0.6074078,-0.9860696,0.25467238,0.31349143,0.2957762,0.94110805,1.2785317,0.46308082,-0.24933255,0.5971557,-1.7534121,1.0523243,-0.87534374,2.14914,-0.20566143,-0.8381715,0.058072455,-0.08046213,-0.64821404,-0.1969579,0.35640132,2.0979953,1.347202,1.3316165,0.3197716,-0.93511856,0.7569643,-1.040412,1.1674813,-0.16114573,-2.5755272,0.16261779,0.24771592,0.9271172,1.1406041,-1.3342167,-1.2528408,0.69929576,0.3772421,0.7338118,-0.41260767,-1.8538195,-0.16234279,-0.86893344
source_dataset:HC-1,-1.021962,1.8076023,0.1808663,0.7316578,2.1832128,0.43116385,-3.363404,-0.7278803,-0.3601355,1.6430392,1.0618078,-0.101027206,-0.3682157,-0.35254487,0.2391959,1.0872333,-0.26334792,-1.4809729,0.50848776,0.95411444,1.8949171,-0.7247699,-0.025608897,-1.6549007,2.156536,0.61645436,1.1765168,-2.4384375,1.0093553,0.63728106,0.92132944,-0.76911676,1.5231386,-0.7779199,-0.52506024,-1.4992149,1.361673,-1.044741,-2.7731879,0.4809087,0.8654982,0.3238072,2.0064754,-0.8552213,-1.1423093,-0.09767991,-0.2088224,0.30619425,0.7630697,0.2957145,-1.0957131,2.5196612,-0.04264334,0.7740964,-0.38427532,0.2399765,-1.0373051,0.4924199,0.74371016,-0.40425763,-1.1871068,0.90225476,0.7442172,0.98977244,-0.2499361,1.2299062,0.8155743,-0.19929858,-0.18238363,-0.2263354,1.4344252,1.0248618,-1.9536487,0.27222708,-0.10532211,0.544518,-0.802465,-2.6944149,1.1566248
source_dataset:OVCAR-3,0.66931784,-0.47104052,0.727538,-0.25697553,-0.41303483,-0.83884436,-1.3206306,0.35356176,0.52405655,1.0642382,-0.9778388,-0.37499234,-1.1376384,-0.21571116,-0.5933737,0.40575606,1.8633554,-0.35061985,0.021777706,-1.5180732,-2.0453744,-0.99995995,1.1432682,-0.34453902,-0.81808853,-0.17731056,0.68281794,0.07392041,0.16135046,-0.4085105,-0.98119336,-0.5937082,-0.6382456,0.3556324,0.85612786,-0.30741483,0.39886248,0.2601836,-0.37365913,0.22144926,0.47791117,-1.8390278,-1.7690573,-1.037411,-0.70215803,-0.6316013,-0.91353273,-2.4373019,1.2373815,0.089905284,2.1776788,-1.5086528,-0.052942045,-0.09746817,0.29139125,-0.8743666,2.9296737,1.1605756,-0.5829478,-1.5125396,0.1759683,1.4854584,0.1879232,-1.7310215,1.5086135,0.18816693,0.18283893,-0.5167108,0.18389998,1.0912507,-2.212992,-0.7324922,1.0427276,-0.6887557,1.4505183,-0.12424715,0.071324885,1.1943113,-0.6895437
source_dataset:DK-MG,-0.9381235,0.41062957,-0.09351359,-1.4113008,0.5243997,0.09448638,0.5614813,0.49954978,1.0301629,0.8528144,-0.42369094,0.69287795,1.1614686,-0.54227597,-1.3636558,-1.6991032,0.28947574,-1.0879459,0.32112142,0.7465549,-1.5528271,-0.6731416,-1.154093,0.9737563,-0.68367296,0.19348602,-1.7404929,-0.6104131,-0.91105604,1.4315217,0.60636437,2.101355,-1.9552215,-1.0664909,1.2397126,1.2036482,0.0784177,-0.6144849,-0.7395175,-1.7619299,0.08657148,0.31536794,-1.32227,0.80436087,-0.31883052,-0.5046443,0.07590397,-0.9749624,-0.6732179,-0.43535244,0.22694919,-0.8199118,0.26581594,2.0310645,-0.250179,1.0603853,-0.5405634,-1.1594124,-0.69897103,2.0292575,-1.4558964,-0.84513897,-1.2746305,-0.7339341,0.051918834,-0.2901693,0.19864906,-0.100055724,-1.558241,-0.9507699,1.2275137,0.024223061,0.044022806,-0.28707755,-1.0259045,-1.3056191,0.9367731,-0.2666433,0.39312628
source_dataset:KO52,-0.76264226,-0.14262986,0.32734853,0.490337,1.1395355,1.620825,-4.371026,-0.9985907,-0.50565016,1.4409367,1.6445379,0.4284039,-1.5347406,0.20930472,0.8408667,-1.5644307,-1.5238543,-0.17876774,-1.1484133,0.83748484,0.014753474,-0.87453836,0.4247325,-1.3891549,2.0149095,0.7751674,-1.0081149,-2.1242435,0.37194633,0.93349653,-0.35307547,0.7380099,1.8357986,1.9057248,0.42872286,-1.244135,-1.2280525,0.16738999,-1.5081773,-0.13838662,1.0298103,-1.0976313,0.18915935,-0.9302653,-1.3870059,0.7668702,0.24677745,0.48303324,0.106614664,-2.558425,-0.9680299,0.9578739,-0.34942964,0.14354467,1.0181571,-0.72920066,0.4055435,1.6148534,-0.34016636,0.43991432,1.2410438,1.2820716,-0.07675803,1.368311,1.5151014,1.1213336,-1.137771,0.79657197,-0.056735516,0.33136392,1.9144735,-0.63946813,-1.8921896,2.0117917,-0.74334973,-1.5927063,0.88794404,0.42368343,-0.7983266
source_dataset:MS-1 [Human lung carcinoma],-0.31335866,1.2172246,0.18044282,-1.5765339,1.0304998,0.8183656,-0.69884753,0.12755457,0.92357826,-0.026275383,-0.55109245,-0.17189223,1.3114783,0.074158564,-0.32389653,-0.8488523,0.16869318,-0.21990794,-0.21064733,0.7131223,-0.560897,0.37865013,0.82672244,1.0494246,-0.70226294,-0.77860093,1.2657311,-0.607413,1.096671,0.21713907,1.6072506,0.04838834,-0.3434034,0.13747801,0.12266371,-0.1532647,0.58305615,-0.47802225,0.8200714,0.50907767,0.8129786,0.9602301,0.28763396,-0.89552826,-0.28796598,-0.1376522,-0.70966256,-0.44255438,-0.15874955,-0.19540939,1.052197,0.060065776,-0.10446632,-0.3651168,-0.31986192,0.7823071,-1.3402525,-0.29607302,1.3789501,-0.41031352,0.5950222,-1.3243091,0.56139004,0.25318286,-2.3931453,2.1693294,-0.6437634,-0.2656802,0.019965995,-0.7337036,-0.16260293,-0.013392787,-0.34950653,0.17260493,-1.1310911,0.8684159,0.09297765,1.0816705,0.69743586
source_dataset:Fu97,-0.8561651,-0.9959458,0.4239985,0.5347808,0.8826296,0.9298472,1.2235718,0.6394742,0.13840432,0.25188473,0.19239986,0.56952024,-1.253598,-0.021683646,-2.627354,2.143101,-0.60781765,0.21569164,-0.51172227,-0.2838396,1.2844676,-0.9138268,0.7578574,0.030235149,0.5709665,0.35758033,-0.9999779,1.8490865,0.8783637,0.3334658,0.77533567,2.233501,1.5560019,0.9573434,-1.5034021,0.5957419,0.97807854,-0.77082527,1.7643448,-2.945731,0.86415917,2.5451164,-0.4227494,1.4988984,2.650572,-0.556948,0.9256313,-0.94583595,1.2636403,1.9225185,0.9523477,-1.1973468,2.8040798,-0.3946497,-0.8048761,-0.8231187,-0.6409957,0.86390823,-0.4171312,-2.6773238,2.0012684,-0.7041619,-0.11760852,-0.68699473,1.1637717,-0.88582927,-0.72616,-1.7089989,1.0929853,1.2628328,0.6363528,-0.46181837,1.1388012,2.8245769,1.1671432,0.43579483,1.0016731,-1.2029546,-0.06621878
source_dataset:RC-K8,0.5615936,2.5541353,0.4248578,1.2540988,0.407731,0.048386358,-1.1010703,-1.6286908,-1.4452218,0.1932126,1.4323704,0.33354092,-0.5298846,-1.2401428,0.20073181,0.14333066,-0.07811242,0.06443934,1.2457433,1.0790825,0.7891379,-0.67760545,-0.6646149,-1.2700306,1.3158638,0.97646713,0.745334,-0.988087,0.6688184,-0.04322705,0.20474294,-0.032235518,2.087403,0.359897,-1.2889901,-0.6065273,0.45849517,0.64871925,-1.7212092,-1.0224521,0.8301177,-1.6119235,1.0112692,-0.40916553,-0.49019167,-1.4091879,-0.15972687,0.042313993,-0.32222143,0.33865476,-0.72464335,2.305619,-0.7102047,-0.6390061,-0.77637905,-0.7902856,-1.9442065,-1.9191706,-0.12934266,-1.2736164,0.2051143,-0.4569437,1.3672847,1.6219054,0.69298565,1.8411912,1.0999806,-0.21407264,0.05901862,0.21682256,1.1335025,0.2834468,-1.4930335,-0.41052297,-0.15136953,0.0031676209,0.035780106,-2.281008,0.9515125
source_dataset:A-704,1.0143024,-0.2158933,-0.3891104,-1.9700443,0.5060212,-0.34880948,1.4813458,1.1186819,-0.64892524,0.771572,0.29461816,1.4594045,-0.5842329,-1.853769,0.74600023,-0.7452652,-0.18999605,0.10919812,0.5936144,1.0744042,-0.11127768,0.08982353,-0.8416795,-0.5163528,0.35886243,0.32983702,-0.9182341,0.14267182,1.147909,-0.7973549,-0.78220296,1.1466277,-0.9848775,0.71577954,-2.6324434,1.3354332,1.7999663,0.5974004,-1.3857919,-0.94538337,-0.048015602,-0.7503085,0.003462635,0.75377446,1.1233878,-1.4990653,-1.2806017,0.86730856,-2.2190082,2.0320497,-0.87864506,-0.056781933,-0.14593843,1.3011392,0.6988307,0.09840648,0.06943913,-0.43001664,0.51864463,-0.72081876,-0.6049149,-1.1149691,-1.0867074,0.18090189,0.65065867,-0.95045483,0.8803372,-2.2759573,-1.8155848,-0.30563655,-0.030077904,-1.3153945,0.4143366,-1.180946,-1.061655,-0.5446562,-1.3487169,-0.1808448,-0.16609953
source_dataset:HT-1080,-0.34946722,-0.28907752,0.24656227,-1.1140621,1.3778064,-0.38733748,1.3769825,1.5406812,0.5716579,0.2988432,0.15685412,0.0706172,-0.43244958,-0.37665248,-1.2514609,-0.49640104,1.4567882,-0.34444317,0.21596517,1.2425263,-0.7467565,-0.086971894,-0.049585886,0.39025822,-1.3742379,-0.31284443,-0.33492547,-0.05446428,-0.10931339,0.045282483,-0.4578416,2.389697,-0.52654684,-1.3268216,0.03182373,0.678852,-0.43354037,0.9942813,-0.28217024,-0.9914337,0.31685415,-0.4752528,-0.81514156,1.6799489,1.2414172,1.0628467,0.24138984,0.5228303,-0.7274498,-0.64452267,-1.5159987,-0.5669057,-1.4083031,0.527406,-0.50834256,0.7304522,-1.2699165,-1.5950044,0.113448426,1.7098038,-1.592155,0.5487523,-1.3259833,-0.6850738,-0.81865203,-0.013515269,-0.23421781,0.901753,-0.7405998,-1.2270252,1.6169425,0.68898153,1.1340989,-1.8661525,-0.2337512,-1.3054812,0.48452374,-1.3438251,1.61038
source_dataset:HT-1197,0.79319406,-2.0465608,0.07695998,2.567781,-2.4980395,-0.8114838,-1.5700043,1.959273,0.5838304,-0.6892072,0.23181656,0.68287724,0.13890941,-3.10245,0.7665617,1.844319,0.93863714,0.0075837374,0.3863858,-0.124789685,0.25026628,-0.3910431,-1.3281591,0.5464495,0.11428602,0.2855898,0.18439794,0.9029687,-1.2192755,-1.7874095,-2.0676138,-0.041991405,-0.57227385,-0.98681164,-0.8939229,2.0391839,-1.4636252,1.3101976,0.44683668,-0.4907249,0.027673393,1.371025,0.82932407,2.0798578,0.5909197,1.6514347,0.82790333,-0.014057462,2.2115862,-1.1681774,2.8510075,0.036109112,-0.016620941,-1.8411032,-0.46537933,1.7639197,1.3711505,0.4840136,-0.56089705,1.4117434,-1.1810993,1.4485008,-0.22077718,-0.58253527,-0.6583739,-1.7328398,0.20244534,1.8950226,1.4497833,1.1982307,-0.67317224,0.7302401,0.34406644,-2.7237084,-0.32710782,-1.8421708,0.9901535,-0.17628372,-1.4585606
source_dataset:DJM-1,1.4314926,0.18334326,-0.12749547,1.8973516,-2.822074,1.6915274,1.4076035,0.5228782,-0.7348318,-1.8062639,-0.90378165,-1.1110257,0.49177635,0.7871609,0.49934554,0.12905759,-0.9854246,0.64881617,0.6555184,0.5233694,-0.82556033,1.8422714,-2.3562396,0.6041041,-2.6568704,1.2853247,0.8112217,2.1687539,0.97658175,0.07678108,-0.29043394,0.38036892,1.4220384,-0.32079867,-0.27388695,-1.9026395,-1.0190705,1.1081611,0.73793066,0.28589946,-0.029337283,-0.004173886,0.12824956,0.92575455,-1.1471465,0.8448442,0.8000359,1.3496503,0.8974059,0.21561801,-1.9149785,-1.3045734,-2.8362994,0.39354426,1.0291911,-0.13767497,0.6833854,1.6098267,1.1515028,0.69075817,0.30595633,2.0734427,-1.0334893,1.0754054,0.5738147,-2.7431648,2.1732545,2.004493,0.77713615,1.0096982,1.4539953,1.2275872,1.0540292,-0.17833851,0.66447747,0.6355741,1.6998416,-1.9605606,-0.67393947
source_dataset:Kuramochi,0.60274637,-0.6682045,0.7697649,-0.4332648,0.5801946,0.8192081,-0.04866963,0.96808225,0.008269871,1.1259574,1.3138996,0.056535065,-1.9919038,-0.56043917,-0.4843582,0.3291968,1.566247,0.9870246,0.2986298,-1.0645835,-2.3257473,-1.3408966,0.7193202,0.7596107,-1.4173244,0.97964257,-1.1382923,-0.2976376,-0.8932455,-0.08453797,-1.3643787,1.3833214,-0.79799306,0.23797335,1.2267674,-0.029228166,1.9834918,0.67188275,-0.78793436,-0.72223824,0.73273027,1.2262506,-2.4209952,-0.40851173,-0.044919387,-0.5891205,-2.1120434,-2.1548228,0.5560226,1.1677326,1.05589,-1.2031631,2.7102447,1.1981255,1.1919944,0.106097415,0.7345439,2.6278563,-0.804611,-1.8622335,1.2222809,-0.015686054,-1.0086564,-1.3894091,2.7079682,-0.43389302,0.17072937,-1.7323283,0.8952118,0.85246146,-0.3824282,0.27424312,-0.43413082,-0.6971585,1.7664247,-0.074716836,0.80795825,-1.1477339,-0.008819975
source_dataset:Hs 578T,-0.7123555,-0.110457435,-1.1197441,-0.94324446,-0.65022504,-0.6963993,1.0542655,0.8865716,-0.06303206,-1.056784,-0.57115024,0.9984304,0.66684574,-1.6388463,-0.51439536,-0.95814884,1.2370113,-0.3745036,1.3571807,0.7363899,-1.6760813,-0.033355154,-0.3454066,1.1420226,-0.7927636,0.32226261,-0.86870456,-0.12951037,-0.8520498,-1.0078299,1.2474072,2.5141215,-1.2274456,-1.4349642,0.15294324,1.1772138,0.781191,0.45858333,-0.16333705,-1.416306,1.2411509,-0.90852475,-1.5265963,1.0970885,0.8369313,-0.8253966,-0.3865475,-0.19678263,0.25065365,0.59996027,0.20841189,-0.23237598,0.1812063,2.487435,-1.4430296,-0.14560685,-1.4943526,-1.7601166,-1.2970227,1.7378961,-2.0324795,-0.36396664,-0.031423658,-1.4208585,0.5751835,-0.5614949,0.2616645,0.9892326,-1.3538643,-0.56501204,1.4543827,0.40980694,0.100391656,-0.74340403,-1.8031598,-1.3501949,0.61247164,-1.9907668,0.6929207
source_dataset:SK-HEP-1,-0.31825688,-0.6263108,1.0327514,-0.54362637,0.7879441,0.34543854,0.9868719,2.2443767,0.56922704,0.73213714,-1.0727221,0.8834083,-1.0984844,-1.8947896,-0.91112953,-0.9998157,-0.3344487,0.5041873,-0.3679741,0.8111768,1.5484704,1.7369837,0.39999393,-0.22280566,-1.6862593,-1.2603865,-0.39520994,-0.026714955,1.2915417,0.16136774,-0.5840675,0.9476714,-0.5785762,-1.3529545,-1.6511992,2.051999,-0.2701129,-0.25179386,0.0026912289,-0.3659915,0.044917572,-0.6102018,-0.32728517,1.8976171,0.8991439,1.2233682,-0.582209,1.4993067,0.54926264,1.2684819,-1.5461726,-0.57530546,-1.9922384,-0.010179721,-1.050064,0.9061057,-2.4644294,-1.548358,0.6084429,2.5691094,-1.682584,0.35351974,-0.15675901,-1.2862985,0.4047888,-0.45774877,1.852879,-0.8630904,-1.5852455,-0.92819154,1.618727,0.62387073,1.3588424,-3.393492,-0.88510436,0.65579516,1.2517669,-2.369504,-0.11183691
source_dataset:OCI-AML-2,-0.4661358,0.5508943,0.29425892,0.16382274,1.566636,1.5090967,-3.4054055,0.7665904,0.066268414,1.2721559,1.1335101,0.048567787,-2.1713614,-0.43625844,0.6509477,-1.5387131,-0.5576403,-1.1164645,-1.217154,1.1769232,0.23997863,0.13895027,0.3551881,-1.6499516,1.1474714,1.2736912,-0.35675555,-0.73154974,0.66448593,0.5708351,-0.24586904,0.22488977,-0.0018378943,1.6239302,-0.9347218,0.10637261,-1.1350913,-0.37305802,-2.1039221,-0.49223536,1.9070009,-1.8230065,-0.6841812,-0.7877147,-1.154556,1.0240055,0.4859318,-0.3377213,0.3172916,-2.8125637,0.91333824,0.51515806,-0.58338934,1.473943,-1.2849689,-0.32945153,0.072441034,-0.20985848,0.8304772,0.9311878,-0.19749895,1.1329145,-0.8583075,1.8853396,1.1955,0.8878584,-0.3030579,0.49809095,-0.69667953,-0.23324619,0.8671441,-0.7455793,-0.8118703,0.6177323,-1.0274289,-2.0126278,0.83004,1.0063219,-0.47954625
source_dataset:HDLM-2,0.2515373,1.0047733,-0.9016314,1.8745226,1.95031,0.18508774,-1.9571015,-2.4978373,-0.3651402,0.75960946,0.4840669,-0.22475798,-0.48416728,-0.30913275,-0.27061185,-0.54986155,0.6174027,0.22002648,-1.2317303,-1.8600986,2.3028188,-1.5763875,0.73592275,-2.2711024,1.3415183,-0.68306977,0.21984248,-2.158324,-0.31540507,0.15162607,0.92200065,-0.49930704,2.710295,-0.6316641,0.088550694,-0.7489222,-1.0058262,1.4315279,-1.208948,-2.6939886,0.87494385,-0.7347626,-0.50866413,-2.3241513,0.087716915,-0.50151044,0.23103654,0.19406003,-1.3569682,0.25663668,-1.7284523,2.6218505,-0.39129275,-0.984643,-0.7180498,-0.24240924,-3.835433,-1.8032122,-0.14328025,1.0098654,-1.0456352,-0.35134587,0.748562,1.0763758,-0.016742645,0.81902105,1.1412482,1.2865286,-1.6192216,-0.37930548,-0.30170795,1.5735614,-2.0728743,0.2179426,-0.35566655,-0.44110718,1.7243125,-2.220551,1.0709347
source_dataset:NCI-H209,0.66472054,1.5917535,0.42495996,-1.4397738,0.24225947,-0.34561852,-0.11483438,-0.6114301,1.8491737,0.31963068,-1.0255113,1.250825,1.5732443,-0.53062505,-0.58709484,1.3393328,0.5508751,1.0195688,0.042732444,0.46402705,-0.115621634,-0.096222885,0.09482677,-0.25095713,0.53656423,-1.1529812,1.3531274,-1.1045696,0.9676659,-0.18495403,0.4914943,-0.09158505,0.82784426,0.015261188,1.5332823,0.0047995187,0.06279792,0.2252806,0.9495272,2.039171,1.4830363,0.47678307,0.8158131,-0.854413,-0.08673847,-1.1658999,-0.886054,-1.5809247,0.7606715,-0.44221163,1.168598,-0.31842127,0.024690632,-2.1879022,-0.38915145,0.6654974,-0.008626774,0.2015487,0.9664296,-0.8739544,0.86272705,0.4207446,0.025345877,-1.0483096,-1.5372182,2.2835176,-1.0891951,0.52694416,0.06591751,0.24171245,-0.2846688,-1.4757261,0.4630753,-0.06579681,-1.0557377,0.2998431,-1.5591683,0.58817214,-0.24061942
source_dataset:KP-1N,-0.47631943,-0.6028928,0.09402483,0.1458841,-0.5158507,-0.2854109,1.3984493,-0.6521874,-0.14835641,-0.24798837,0.8303233,-0.09471718,-1.6983202,-0.37444624,-1.1118709,0.50614893,0.98801,0.42927784,-0.90251213,1.0758979,-0.6040416,-0.77503264,1.9056331,0.09791762,0.2545675,0.10861959,-0.4550802,0.6621805,-1.4052867,-1.386247,0.1922151,0.28688425,1.8123262,-0.8665748,-0.5035156,-1.1081984,0.8556111,-0.08637941,-1.0425248,-0.27855548,-1.105846,-0.6320364,-1.3475912,0.4878166,-0.41812697,-0.038466677,0.10905061,1.4641155,-0.534736,1.5075291,-0.07280779,0.052392513,-1.1336994,0.21058872,1.0873815,0.17488147,-1.1098976,-1.3061961,-0.18672797,0.5421887,1.0792183,-0.82460517,0.67396164,-0.00651972,-0.31602135,0.4784726,-1.23796,-0.7697467,-0.25150394,-0.6153836,0.032731295,0.23600854,-0.32189465,-1.2554005,0.78460866,0.084199086,-1.0590901,-0.5717405,2.31439
source_dataset:786-O,1.0957661,-1.3187547,2.1108978,-1.9252962,1.2769549,-0.18462434,2.59373,1.642014,-0.89421266,0.4400354,0.21449094,0.33244282,-0.8185999,-0.42380968,-0.40766272,0.9652946,0.1896245,0.84315366,-0.22601832,-0.370181,0.5114684,1.5372604,-0.8065337,-0.50743073,-1.5301007,1.0072464,-0.98216754,-0.33554602,1.2534975,-0.17817456,-0.35414404,2.3469543,-1.7584771,0.5715379,-0.87200487,1.0134845,0.8866599,0.84282446,-1.6614296,-0.4085036,0.88355374,-1.3362688,0.12837538,0.18077254,1.6343158,-0.4413652,0.3707086,1.5049793,-0.7291279,-0.112118736,-0.47370848,-0.6322304,-0.8570208,1.781993,-1.6154876,1.2878257,0.18469349,-1.4581997,-0.3794098,0.10489729,-0.9233137,0.35785994,-1.5789583,0.8160728,-0.16077352,0.007767398,-1.4163169,-2.2636914,-0.7428471,-0.4255864,1.1171938,0.04988988,0.7111236,-0.8076841,0.37724373,-0.39370018,-1.4779487,0.5777873,1.5779212
source_dataset:Panc 04.03,0.5736412,-1.279562,-1.0585908,3.1732624,-0.9679306,-0.40077856,1.498264,-0.0682887,0.34809455,-0.59184396,-0.3149407,-1.8504758,1.2820437,2.3073826,2.02263,0.17413017,-1.0921434,0.74442196,0.32288107,0.16846311,0.93541205,2.1943316,-1.3793523,-0.8747769,-1.3718227,-0.37788725,0.13055289,0.2914214,0.0996932,-1.6800567,-2.2962356,-0.8478713,0.6771339,-0.6290041,0.80079883,-0.24526344,-2.5345864,0.75301987,2.3557253,1.3320788,-0.98707443,0.10365497,0.80283237,1.8164861,1.1340013,0.6664101,1.4609773,0.60933226,-0.17203736,-0.65189385,-2.8400116,-1.8983649,-1.8337318,-0.22058153,2.5362332,-0.08253648,1.4675063,1.0697379,0.46712583,0.23231564,0.2750258,1.1191422,-1.5287482,1.1211336,0.7832246,-4.0028677,2.6082535,1.3824996,-0.18347998,0.59191245,-1.0455179,0.33331606,-0.07764143,-1.2497551,1.3627421,0.1815944,-1.3026166,-0.4693134,-1.6688437
source_dataset:Mel JuSo,0.17097378,-0.9488134,-0.27884963,-0.43937257,-0.20443025,1.266627,1.2136708,1.0249851,-0.7880981,-0.60831624,0.6407934,1.4343423,-1.1888822,1.4190661,0.73211676,-0.8083044,0.4643646,1.2526718,-1.0988116,0.013780724,-0.08136948,-0.47512662,-0.27128902,-0.80186695,-0.3057754,-0.23059863,-0.674268,-0.6335654,-0.031745255,1.6480951,-1.2456509,0.35296932,-0.3013938,-1.049855,1.2642827,0.48436022,-0.4840015,0.7468819,-0.27193102,0.81605095,-0.54010874,0.27351975,-0.37751657,1.6089005,1.1502345,2.0860763,0.77685934,0.90220743,-1.4687952,-0.17652836,-0.91037524,0.73562294,1.8675364,0.4296897,-1.2513301,0.83568466,-0.6690299,-1.2653811,-0.58985347,1.1703724,1.3806425,-0.62662566,-0.97028023,1.7641631,-2.1076515,0.7756073,-0.37599674,-0.30887055,0.8047309,-0.9566647,0.40432632,2.2326071,-0.9042321,-1.0098345,0.46433732,0.4600731,-0.47529054,-0.4989183,0.15460747
source_dataset:Hs 940.T,0.7569998,-0.55269194,0.2177905,-1.5496291,0.12512285,0.1718419,-0.097807705,0.93746793,-0.957524,1.4588276,-1.531282,0.59297985,-1.05768,-0.1561203,0.13119835,-1.403692,0.14357372,-0.28836426,0.028524786,1.284333,-0.853767,1.2140532,-0.0942989,0.4424304,-2.1343105,-0.4373624,-1.5148171,0.3500775,-0.21443209,-0.027127327,0.5212627,1.3730508,-0.68222445,-1.9339048,-0.23699318,1.3318378,0.642143,-0.5829072,-1.5915738,-0.117845915,0.5649937,-0.40625137,0.20252103,1.8847777,0.79287636,0.30722862,0.733841,2.0267546,-1.0298486,0.9422826,-0.37515762,-0.2053336,-1.063383,0.82494855,-2.4508727,0.45313996,-1.2653673,-0.46262953,0.8443575,1.0110803,-0.6450995,-0.06695936,-0.4191036,0.96488625,-0.41182315,0.26784396,1.2769974,-0.78801227,-1.5755208,-0.5696591,1.3152733,2.3231423,-0.55914265,-0.8995911,0.05644554,-0.008780159,1.1828476,-1.6756899,1.6436166
source_dataset:HCC1937,2.014566,-0.3500939,-0.42710114,1.7627287,-2.205228,0.38342738,0.027104162,-0.3918586,-0.88997364,-2.1295602,-0.7987858,-1.7200503,0.117683835,0.9518399,-0.90803623,0.97605765,0.57322,-1.5907247,0.40417898,-0.57629734,-1.4001514,1.4078903,-1.2263935,0.68484175,0.0040672044,-0.65545195,1.0810174,1.9534676,-0.6951874,-0.5850918,-0.2571943,-1.7023765,0.5572896,-0.47470137,-0.73186314,-1.7465614,-1.0237827,-0.22680725,1.0173475,0.007215619,-0.5540443,0.57993823,-0.07099265,-0.62647057,0.098705456,0.049963,0.40793014,0.32005364,0.8822558,0.34100258,-0.047162578,-1.0448003,-0.4670011,-0.59377253,-0.10658632,-0.54797333,1.5197046,1.0046737,0.829816,0.3163254,0.09541514,1.5885702,0.3355317,0.40943262,-0.33508313,-2.9022253,1.1817827,1.8941735,0.8585251,0.6883051,-1.3379663,0.8848573,1.154155,0.59172624,1.739014,1.1286719,1.1380804,0.9666052,-0.57332796
source_dataset:QIMR-WIL,-0.49352628,2.6730626,-0.3012418,1.1821225,1.5728064,0.011950504,-2.8309166,-0.6730529,-1.1606704,1.2414334,1.5269048,-0.28002912,-0.21930121,-1.0080621,1.2205626,0.044385515,-0.17235158,-1.3356402,0.97326946,1.0006217,1.8501157,-0.46741456,-0.37689355,-1.2103217,1.1831064,1.5839931,0.9384093,-3.0188558,0.8363724,0.53796536,1.3770655,-0.8125828,1.4654658,-0.089849435,-1.3071985,-0.75030136,0.86591655,-0.7596884,-2.0607345,-0.54033077,0.6031282,-0.5134797,1.6195675,-0.58776474,-1.0574332,-1.0293846,-0.5835359,-0.14157325,0.0534126,0.9134035,-0.81587434,2.418587,0.17974225,1.0149068,-0.89546907,0.0018491298,-1.7285472,0.26437682,0.65128636,0.017784014,-0.9206674,-0.5014196,1.4428583,1.733864,0.047424227,1.477968,1.0653454,-0.31414065,0.7745122,0.0924651,0.7786046,0.71228933,-2.803306,-0.19063658,-0.32824466,0.5473769,-0.01412189,-3.336936,0.8653722
source_dataset:HCC1500,0.45696098,-1.206986,-0.17668831,-0.3693515,-2.350346,-1.42626,-0.6653232,-0.12273803,0.6241601,-0.35543922,-1.9185779,1.2068229,-0.9717469,-1.1271979,-2.607805,0.28837034,0.16795422,0.85484535,-1.5305318,-0.8008249,0.36841202,-0.21429639,-0.7420606,-0.70621085,0.35875696,-1.1775855,-0.2718577,0.06914353,-0.96696156,-2.4569037,0.61910653,-0.6166688,-0.73483914,1.5610286,-0.33379316,0.3459669,-0.79886675,-0.6604258,0.66857296,-0.5274636,0.8468325,-0.39626592,-1.5526205,-0.9255556,-0.8233028,0.38153464,-1.5979432,-0.21456705,0.24995568,-0.36350793,2.342912,-1.3554131,2.0876749,-1.7875214,-1.4773132,0.8631384,0.043123826,0.95514154,-1.7083282,-0.68086684,2.7291915,-0.8525484,0.091886155,-1.5637361,-0.22941121,0.6428211,-0.12670904,-0.5027132,-0.17133476,2.3571365,-1.600305,-0.70679325,-0.9078927,-0.83487743,-0.96772766,1.5318244,1.0088058,2.502296,-1.4791188
source_dataset:Lu-165,-0.61085284,2.1589303,-0.38619477,-2.1249278,0.3292948,1.0828352,-0.21382727,0.12510607,2.1978793,1.4076453,-0.79104924,0.46834505,1.0122622,-0.2933103,-1.0376658,0.6701984,-0.49873495,0.9633424,0.1643892,1.13041,-0.065127164,-0.10991587,-0.65233827,-0.8248992,-0.043551113,0.35555306,1.6668458,-1.0037366,1.6279752,-0.6381834,1.3931298,0.22039872,0.5314373,-0.50580126,0.85606885,-1.0593009,0.32006976,0.40611202,0.81632024,1.0996621,0.355401,1.7638295,0.96037775,-0.067125246,-0.62068456,-0.21002871,-1.6900913,-1.2827423,0.026702128,-0.9018609,0.2866779,0.3029387,-0.18261236,-2.724365,1.1965446,0.4947825,-1.8046083,-0.45937705,1.1707437,-1.0523236,0.9385666,-0.33500552,0.24300647,-0.9126917,-1.8335624,3.1339538,-1.420063,0.50425243,0.62113625,0.87707555,0.17483799,-1.1928078,-0.29284403,0.29612672,-0.58363205,0.894719,-0.2835961,0.68340486,1.0267677
source_dataset:BT-483,0.99576026,-1.0110291,0.3366069,-0.17979616,-2.7693284,-1.1828992,-1.4663357,-0.25912142,1.5772591,0.012026681,-0.40698645,0.3601058,-0.49066174,-1.5666126,-2.2425337,0.98524827,-0.8222899,0.09084357,-2.591747,-0.48680094,0.13083151,0.62751615,0.44761512,-1.6645449,1.0977336,-0.8790214,-0.28531334,-0.08632272,-0.4607924,-2.532417,-0.7410492,-0.016376378,2.0523934,2.503609,0.031888988,0.33169696,-1.0617036,-1.0116769,1.5341991,-0.9199273,0.26495215,1.1484835,0.42116386,-0.8116601,0.0096826255,-0.10495077,-1.7017908,0.113873444,0.52200186,-0.0013805293,2.6569083,-2.4624336,1.7463448,-0.24565808,-1.041914,0.57242656,0.029109793,0.6201784,-1.7368711,-1.0283797,2.2086313,-1.6150773,0.9153241,-1.9977771,-0.23575655,0.13690387,-0.28850737,-1.254877,-0.0014207382,2.5461268,-2.274735,-0.5489726,-2.7000508,-1.4932263,0.07917486,1.6947178,1.5910122,3.1526716,-0.17731209
source_dataset:TUR,-0.93046725,0.08434158,-0.6746635,0.19453815,1.9651985,2.5195642,-3.1778123,-0.9432865,-0.028697588,1.3443203,0.70542836,0.6708736,-1.6203266,0.33573732,1.1136265,-2.596135,-1.9607805,0.107928716,-1.8755823,1.7139877,0.97579354,0.36814192,0.6467233,-2.7260368,1.6494205,1.3872098,-0.47922814,-0.80781376,0.46144933,1.069364,-0.00540449,-0.24566144,1.7214537,1.5954447,-0.0950403,-0.97904736,-1.3738433,-0.21155292,-1.285134,-0.53879994,1.7035488,-0.5443221,0.27044567,-1.4560577,-0.9337862,0.3693241,0.2422708,0.8285789,0.11770747,-2.4862695,0.14769737,0.112647146,-0.6795479,0.30047303,0.16118445,-1.2703619,-0.5718244,-0.27690402,0.59348416,1.4006131,-0.03667562,0.3092459,-0.6441806,1.4791781,0.47526968,0.65100175,-0.044492308,0.09565081,-0.8754423,0.10096102,1.0457104,-0.7786887,-2.4623833,1.7301968,-0.9599199,-1.6014391,1.3634638,1.2087988,-0.2736152
source_dataset:HO-1-N-1,2.6884208,-0.44705987,0.9247145,3.085591,-1.9486785,0.014093569,2.2512596,0.4164985,-0.207323,-2.5140333,-0.444989,-0.86258936,1.9785459,0.7913401,1.2612758,-0.005939182,-0.76512015,0.09001134,1.0849612,-0.24462318,-0.56394625,2.6184888,-2.7775817,0.4043795,-2.1512952,-0.3281396,0.8120869,2.0511305,0.6088607,-0.7815778,-0.6883576,-0.94953823,1.7489461,-0.6662554,-0.05112383,-0.94272053,-2.1997907,2.7000062,2.0184076,0.37759018,0.5578071,-0.5995107,0.57785374,0.7935414,0.15418673,0.4620801,1.4806641,-0.48413885,1.7326052,-1.2092752,-2.4291399,-0.48322847,-2.2765357,0.24813417,0.7102573,-2.729539,0.6072396,0.14126089,1.0478034,0.16354486,-1.1578726,0.63820744,-0.092322454,0.9600867,0.9381336,-3.8772128,3.6146414,3.01562,0.61645937,1.4409457,1.4524157,0.5028044,1.2749075,-1.6544819,1.8119806,0.6101483,0.3143137,-1.300339,-1.1156659
source_dataset:HARA [Human squamous cell lung carcinoma],-0.21969554,0.53701884,-2.2844572,0.4404272,-2.0759208,1.4371402,1.9024953,-0.2214261,-0.3808259,-2.863172,0.5650165,0.06316504,1.5910519,1.5436984,-0.6181978,0.47445348,-0.47397152,-0.6154167,1.4659599,-0.998871,-0.73837656,-0.025541205,0.27615175,1.2302611,-0.3278046,1.9128562,1.3778578,2.0752354,1.192158,2.0723426,-0.41474795,0.1984239,0.87006766,0.019290684,-0.15522349,-1.0430707,-0.43138993,-0.5340127,0.3504606,0.61419797,-0.5116246,0.513668,-0.61280847,-0.8812176,-1.2079487,1.8068192,-0.40731314,0.6515739,-0.52100873,0.38554507,-1.2934427,-1.3279383,-1.0216942,0.21609268,1.9044979,-0.77744126,0.3811021,0.80880636,0.81837493,0.27067786,-0.19691572,1.3907621,0.6862903,1.4693869,0.17640615,-1.8542886,-0.021052554,1.7443372,1.886174,0.04015679,0.61792034,-1.2020669,1.4125264,1.606483,-1.0799509,0.98286533,0.20445174,-0.9306452,-1.4466743
source_dataset:NCI-H1651,-0.80457264,-1.3916117,-1.564573,-0.13953654,-0.15090546,-0.90261877,-0.7558401,-0.32893613,-0.01921964,1.0926108,-0.62284225,0.7946266,-1.4898852,-0.37257236,-0.0057633184,0.1871256,1.0242088,0.2543275,0.10277739,-0.015487101,-0.38998598,-0.20366178,-0.685753,0.6598902,2.022153,0.36084777,-1.2746302,0.47885668,-0.7887262,-0.55247074,0.20753025,0.64335763,-2.301732,0.3617991,-0.4149937,1.1039515,0.7270027,-1.0644095,-1.8092152,-1.829261,-1.3416129,0.85192025,-1.0466413,1.667587,1.5631452,0.18904588,-0.8560841,0.1451303,-0.45080343,1.9600403,-0.19511318,0.5710374,0.95342666,-0.570639,-0.3178171,-0.5988724,0.309266,0.6762994,-0.69896483,0.08140263,-0.0010006521,-0.4274111,0.7972997,-1.12955,0.6017608,-0.5123498,-0.7640352,0.4073834,0.9928947,0.70577836,-1.4124601,-0.92838186,-0.20463747,1.5195278,-0.8946072,-1.3694131,0.38937256,1.4148408,0.4443113
source_dataset:Farage,-0.5645653,1.7834712,0.4568112,0.5282638,1.3222218,0.47577226,-2.8039958,-0.91414005,0.18729769,0.84271216,1.5701919,-0.7158587,-1.0658557,0.107583016,0.56671584,0.6308967,0.5113737,0.59038633,1.1939515,0.084448166,1.5002631,-1.1172732,-0.04857783,-1.7798197,3.0419185,1.0038953,1.0217134,-1.3245133,0.23951629,-0.15404913,0.5372346,-0.30977583,1.5555468,0.46700466,-0.0684189,-0.4960674,1.2266614,-0.41650528,-2.4607515,0.6722695,1.4931499,-0.88585377,0.9385686,0.0454498,-1.3957556,0.19385324,-0.3003628,-0.4336925,0.8826329,-0.42582798,-0.3308018,2.6710658,0.89875937,1.2869765,-2.409505,-0.19488321,-0.51176935,-1.7670596,1.2448486,-1.7496064,0.016412672,-0.28444707,0.9928464,1.2784059,0.21782108,1.6671433,0.22084762,-0.5310324,-0.9750967,0.88548654,0.31639802,0.69690406,-1.6825911,0.8014831,0.4289447,0.08453831,-1.1115906,-2.0344503,1.297773
source_dataset:ES1,-0.6945047,-0.82130075,-0.47001988,-1.1883703,-0.2858083,-0.29458952,0.8385265,0.44547468,-0.38949278,-1.2895446,0.6213139,0.6282407,2.0291538,-0.111555725,0.984474,-1.6274191,-0.8513966,1.3300886,-0.12798113,1.0070812,0.004189564,1.2964596,-0.77732253,1.947,0.18754947,1.2096868,0.17827141,0.8183331,-1.9079709,0.25431734,1.3599479,-0.18548732,-0.6024929,1.0724177,0.44191483,1.5533708,1.046026,-1.6197094,0.3064662,0.70252883,0.5977466,0.06618975,1.9995867,-2.0771694,-1.7875806,0.22726803,-0.17616698,0.055122126,-1.383531,-0.35140082,1.4502599,0.14822473,2.0093644,0.792506,0.037490208,0.23657182,-1.215427,0.616529,-1.5882432,-0.17314066,0.78657174,0.35754597,0.19157729,-0.96202886,0.78977036,0.6610472,-1.0666267,-1.5206481,-0.38332564,-1.2086577,0.5331269,-1.1923207,-0.6792941,0.84107685,-1.3016587,0.5702019,1.3601269,2.4356189,-1.9842548
source_dataset:KP-N-YN,-0.046993073,0.58174455,-0.5778984,-1.2023604,0.7116137,-0.508255,0.07865597,1.4454278,1.7342529,-0.14142591,-0.0025526434,0.3286716,0.9883863,-0.087113604,0.18324883,-0.4494668,0.8710386,-0.4170345,-0.18102907,1.7360888,-1.207894,1.6538689,-0.57012004,0.185488,0.48909613,-2.1363745,1.3710085,-1.9196719,0.38127172,-0.17450194,1.0066041,-0.4086803,-0.25914508,-0.63659567,0.33577833,1.0151775,0.6521057,-0.39804915,1.3882883,0.57203805,1.7587699,1.2753391,0.88349587,-0.8608048,-0.35557616,0.29041886,-0.8024638,-1.0234405,-0.38237813,-0.6653315,0.97081625,-0.1103483,0.7829435,-1.025746,0.85206,1.6244879,-2.269793,0.33094704,1.1741451,-1.0108658,0.05710452,0.3362084,-0.15680076,0.93136275,-1.3113536,1.3477638,-0.39619756,0.048336584,-0.5392282,-1.8235688,-0.6367315,-0.93022674,-1.1156118,-0.5709428,-1.4855951,0.20753798,0.37423056,1.6200767,0.11136853
source_dataset:AGS,-0.9165907,-1.1936653,0.84888464,2.2899332,-1.3600067,0.3051009,1.5624481,-0.12660143,-0.84180534,-1.1379759,-0.24866664,1.2116436,2.271985,-0.272968,0.9890567,1.812651,-1.3420651,-0.9987946,-0.18790892,0.72039825,1.4591025,-0.492638,-1.066333,-0.053227812,0.8372934,-0.9209861,0.027243644,1.3585714,-0.013151884,0.13772473,-1.5852188,-0.92224264,1.2539003,-1.1824648,0.09615194,-0.24864496,0.40508282,0.42896268,0.4390227,-0.5189801,-0.31520095,3.0399086,0.5514475,1.0412251,-0.68267685,-0.7811763,0.7147645,-0.13037738,1.5762188,-1.0126271,0.064641386,-0.48346445,0.51791537,-0.0918604,1.2640446,-0.24445823,0.39018127,1.7327883,1.2416254,-0.4683593,0.31507277,-0.87371224,-2.3041487,-0.0896644,0.7338858,-2.3477876,0.29037294,0.31875366,0.095596924,1.1224478,1.0094262,-0.32037076,0.48254353,-0.46224216,-0.8100592,0.1355961,-0.90181595,-1.1410098,-1.7800078
source_dataset:CHSA0011,-0.582627,0.202575,-0.20484439,-1.4595466,0.65785503,0.16758092,0.8258938,0.6290379,0.04989985,-0.17217584,-0.2023197,0.77263004,0.7660559,-0.6788704,-0.87627167,-0.9345388,-0.4250764,0.13610466,1.1027356,0.11132786,-1.7248542,-0.9346688,-1.2767627,0.4995794,0.34680408,0.5274413,-2.3775702,-0.57930183,-0.4436083,-0.016828157,0.50753987,2.5919225,-1.0671412,-1.1187519,0.2358878,1.2330651,1.1117401,0.18745285,-0.81093705,-2.1720088,0.95581734,0.9123929,-2.1228395,0.40955833,0.9769828,-1.0471882,-1.0302415,0.48805362,0.14770396,-0.8458905,0.13776588,-0.97595555,0.7817874,1.7858517,-0.00960961,-0.3019763,-0.8313986,-1.4480356,-0.5195381,1.2880199,-1.7260472,-0.60482305,-0.9290746,-1.0600201,-0.37154645,-0.4338861,-0.38449603,0.30011883,-2.606865,-0.17909364,2.218848,-0.66775024,0.60386455,-0.027802732,-0.85369307,-0.69883895,0.64436436,-1.4923942,0.9804861
source_dataset:TOV-21G,-1.0076538,0.039806418,0.42933026,-0.4132341,1.8226157,-2.252881,1.4928756,1.279933,-2.0796075,-0.48087946,-1.0342541,1.3627497,-0.8185593,0.17041062,2.1046307,-0.022970265,0.17262624,1.1154903,-0.0044598365,0.89828104,-2.3323648,0.24711823,0.40679613,-0.08048572,0.23695059,0.13096555,-0.3473733,-0.53579485,1.066102,0.5013439,-0.5229309,0.9370049,0.5817374,0.18885845,-0.9901578,1.0142573,1.3183293,-0.7017342,-1.1890132,0.08645864,0.96916586,-1.3516287,0.41810888,0.20884019,0.9314105,0.47062722,-1.3232912,1.3145247,-0.08517429,2.1994672,0.09491445,0.25000152,-0.4439274,1.0444765,1.1259373,0.91874075,1.4092854,-0.1587846,-0.8163023,-2.9050448,-0.08675784,0.6616039,-1.3060195,-1.2455804,1.0547562,0.5924917,-0.9230098,-2.9137046,-0.8222673,-0.53955543,0.6136202,-1.7427292,1.3940407,0.39556307,-0.20262982,-0.79220825,0.037877597,-0.49211958,0.8513691
source_dataset:MDA-MB-468,0.8256912,-1.3892576,0.30846128,1.7891198,-2.02309,-0.44115508,0.26799324,-0.1433419,-0.4564217,-1.3959955,-0.98010737,-0.27911747,-0.60659444,-1.4123377,-1.0016967,1.8978747,0.21543875,-0.54145443,-1.3268647,-0.26765546,0.08995892,0.90559846,-0.7580151,0.3701977,-0.59746206,-1.6880457,1.1401169,0.64397895,-0.90978485,-0.93311393,0.04734574,-3.275253,0.9620552,-0.634283,0.09786257,-2.1883173,-0.45529684,0.7380994,0.977856,1.1650107,0.12145646,-0.46367878,-0.55132467,-1.5461724,-0.10692653,-0.04696704,0.27441946,-0.93760717,1.1649929,0.91528934,0.27366439,-0.57331806,-1.3319334,0.7731248,-0.62508935,0.4775009,0.6135133,-0.11698697,-0.5337879,1.1440585,-0.83812326,0.77943707,0.07427938,-0.7202435,0.14213213,-2.3250644,0.3217154,0.26490164,-0.39232895,1.0843976,-1.6951246,0.88572305,-0.07220254,-1.9520707,1.9078329,0.80461144,0.84028167,1.0335118,0.110645786
source_dataset:SNU-175,0.5780327,0.72991955,0.4359217,0.74844724,0.22232115,-0.7904364,2.085739,-0.6453447,-0.2912863,-0.99140173,-0.3867181,1.6099403,0.4937726,-0.37528884,0.3603931,2.1738286,-0.31276304,0.40875506,-0.5962013,-1.8656865,2.3883765,-1.0447254,1.1957709,-1.2837406,0.8765702,-0.2638839,0.7471395,0.8396477,0.48401967,1.3377018,-1.8699919,-2.7058697,0.090293035,0.55921674,0.09894,0.26007605,-1.0340155,-0.74208903,0.459114,0.38226864,0.45077306,0.72269475,-0.30428112,-2.030813,-0.16476816,-1.2877982,0.016368471,-1.629711,-0.49815345,-1.3202293,-0.6030154,-0.9894601,0.621343,0.9291153,-1.2048746,1.2585069,1.0729574,0.37972355,-0.25977772,1.4506091,-0.027981639,-0.25161332,-2.149365,1.5940555,0.04510396,-0.40671852,-1.391435,-0.7709806,1.5067235,0.39131653,-0.84692115,-1.3200935,0.9273568,-0.33266002,-0.23327371,1.2478389,-1.8699354,0.28419727,-1.51516
source_dataset:SW962,0.92934734,-0.11037138,0.19690603,-0.6044992,0.04563503,-0.19644442,0.31771663,-0.44314408,-0.16371602,0.38484362,-0.27792865,0.64523125,-0.3111869,0.19040537,-0.21229093,-1.8605136,0.70228004,-0.49729043,0.5005891,0.5729315,-1.7305212,0.56248146,-0.46764126,1.363824,-0.7467943,0.28505594,-1.2532835,0.7655643,-0.87497133,-0.0017170841,0.75422937,1.6851599,-1.1076992,-0.6299936,0.33407643,0.60974485,0.25524345,-0.08537577,-1.5799434,-1.0271176,-0.41969004,-0.88942707,-1.5398749,1.4097168,0.3545234,-0.7138629,0.12788476,1.4797602,-0.40330386,0.8228265,-1.2739385,0.16178757,-0.68308896,1.0903203,-0.87365127,-1.2256726,-0.7463844,-0.34594023,0.4017229,1.973848,-0.7603154,-0.624753,-0.23101464,0.09165914,0.2997588,0.11582241,0.6912676,0.95642954,-1.0895673,-0.20060807,1.7489297,0.48628533,0.1587647,-0.44697922,-0.7256329,-0.8131105,0.41194537,-1.1776412,0.8708472
source_dataset:KGN,-0.5498269,0.0022376385,0.13753486,-1.7013719,-0.39400235,0.73258007,0.016388811,0.31428298,0.6531073,1.234097,-0.5008998,1.4055847,-0.26069835,-2.70558,-1.1149375,-0.36628488,0.34690484,-0.36418217,1.7107173,0.32493404,-0.4162243,-0.29555655,-0.14413653,0.25696337,-0.5428982,-0.599642,-1.3587525,-0.50784653,0.033665426,0.113745555,0.10382907,1.3273977,-1.7413428,-0.700064,-1.0966576,0.9736619,1.507051,0.23529544,-0.4943322,-0.21121632,-0.59600043,0.2845124,-0.6496119,1.7251343,0.37273672,-1.31725,-0.4604416,0.51129174,0.18998687,0.08502607,-0.051972903,-0.6315066,-0.9944258,1.7735797,-0.357026,1.2446951,0.22292358,-1.0775015,0.4017337,2.1703525,-2.0233238,-0.4192125,-1.0687822,-0.20546389,-0.5556831,-0.78189576,1.1664245,0.71496093,-1.6247536,-0.7957988,1.7508142,0.2685407,1.3496352,-1.0850655,-1.301567,-0.9278119,-0.3621457,-1.3479692,0.43208224
source_dataset:WSU-NHL,-1.3650157,1.1893796,0.3073588,0.9951967,0.5144849,1.2856368,-2.93457,-1.4907691,1.0817657,0.34509316,0.6441808,-2.2007248,-1.0875001,-0.3120133,-0.71839195,1.4036874,0.58289945,-0.6507425,1.0432243,-0.35783947,1.8469753,-1.775905,1.2891562,-1.6687043,2.20062,0.96594054,0.40012687,-0.9495742,0.7350185,-0.053979173,0.08445629,-0.96917003,1.0532719,0.4785357,0.12097457,-1.0609218,1.7025249,-0.8871055,-1.3131924,0.004296392,0.69745123,-0.48391503,0.43941072,0.12762438,-1.9943849,0.06743347,0.16168723,-0.87374943,-0.6944204,-1.0655098,0.5326096,0.5170094,-0.14290309,0.83110005,-1.0703224,0.50710106,0.5863079,-1.2084558,0.99566686,-1.4798557,-0.044513896,0.24144194,1.1490455,1.5415184,0.46000037,1.599787,0.45496017,0.8722904,0.64286935,-0.5293109,-0.7325741,0.53096503,-0.6111586,1.5196507,-0.2719114,0.032403115,-0.6110353,-0.7809321,1.3937148
source_dataset:CCF-STTG1,-0.69401985,-0.4870435,1.3230246,-1.1620512,1.2321014,-1.0136575,-0.2884168,0.45955244,-0.26655322,1.6276869,-1.2521178,1.0757185,0.5590488,-0.310405,-0.191528,-1.7737215,0.42413887,-1.6633115,-0.5764396,0.27193302,-2.474558,0.30513978,-0.8701028,0.7864681,-0.3556345,-0.40139663,-1.5896084,-0.3879931,-0.07776953,1.3004959,1.9502375,1.1242638,-1.0021503,-0.9675979,1.2631427,0.72663456,0.41167572,-1.0640652,-1.0790129,-2.1566362,-0.564033,-0.15534076,-0.5476141,1.0685354,1.3972628,-0.74829257,0.5125674,0.16647086,-1.2562399,0.19495182,0.25754103,0.06283085,-0.45894912,2.2248356,-2.063961,0.09005042,0.14051707,-1.2330704,-0.54323614,1.2902039,-2.0487547,-1.6053388,-1.1318792,0.038441345,-0.9515105,0.83660406,-0.61064535,-0.5418922,-1.2548379,-0.41377777,0.5773996,1.359304,-0.25997064,0.8335867,0.0044210553,-2.1256003,1.2885737,0.962113,1.8588703
source_dataset:EHEB,0.22601226,1.8311838,0.01413138,-0.16221496,1.542322,0.25210023,-3.354306,0.43664116,-0.49619022,1.0714241,1.6181972,-0.8021381,0.07394676,0.79148006,-0.35940918,-0.56894165,0.1392245,-1.3741516,1.2691851,-0.045567773,2.0502608,-0.13550946,-1.6475348,-1.4099057,1.7897099,1.2592621,0.4575856,-2.6109548,0.77639645,-0.30155283,0.27989513,-1.0696518,-0.7054713,-0.14626098,-0.5951124,-0.4957687,0.68103796,-0.10381755,-2.5405247,-0.08538605,0.5756283,0.53162307,0.94928056,-1.1140072,-0.74655783,1.1120967,-0.33279356,0.20466214,0.10705186,-0.70105493,-0.94553095,2.859659,2.2861822,0.82013214,-1.7698957,-0.8387957,-1.826457,0.35844207,0.35456696,-1.040704,-0.49168283,-0.34270093,0.51766187,0.49807665,0.32086194,0.95151377,1.9584749,-0.22558582,-0.073653206,0.97223395,0.9640336,1.6421603,-2.7564063,-0.77991396,0.684178,1.1629066,-0.53953665,-2.3010414,0.8936794
source_dataset:U266B1,1.4227076,-1.3854696,-1.8284414,-2.8577595,0.76336634,-0.78771305,-2.3856535,0.7676128,0.32869476,-0.37724423,-1.7516513,-0.37937552,0.52013665,-2.4021392,-3.1743627,0.42301202,-0.3626838,-0.22303112,1.0942304,-2.5745265,3.173494,-2.7786887,0.5312305,0.7642176,1.7665073,-1.3900634,0.37125304,-0.8028321,1.1967982,-0.48925504,1.0575613,-0.90881515,-0.1919747,0.7670402,-0.9241408,-1.3336817,-0.52570045,1.7098341,0.6976067,-0.41973397,0.45040476,0.057589617,0.12389537,-1.073851,-0.4481475,1.0844232,0.7355213,0.92162436,-0.7938039,-0.21849573,-0.4113978,1.7612201,1.0117434,0.70466024,-0.5722348,0.44870183,-1.9546393,-0.5016681,-1.3108898,-1.0128269,0.16539448,0.38701656,2.399808,0.024436306,-1.9432644,1.0250487,0.31904995,1.3183575,0.6758014,-0.82689196,-0.33799922,2.4361715,-0.7217437,0.5903951,0.73478675,2.5271873,1.4889305,-0.09951025,1.7763284
source_dataset:COR-L32,-0.054414302,1.6133826,-1.6186705,-1.5901614,0.79201585,0.33115518,-0.55236787,-0.34451157,2.122514,1.2101209,-1.7945267,1.3209713,0.52631885,-0.69300354,-0.6097652,1.601535,0.7141249,1.629508,0.5861362,0.98586386,-0.30143076,-0.0435301,-0.8544646,-0.10242215,1.2571409,-0.14666341,2.0211473,-1.0352135,1.4740808,-1.2986327,0.5873508,-0.59246,0.4581956,-0.96064484,1.3633486,-0.10506762,0.022372428,-0.30301332,0.0079054665,2.361983,1.6472659,1.0061935,-0.7507409,-1.0675741,-0.3410027,-0.94629306,-0.9711991,-1.6833793,-0.28121647,-0.30934063,0.76199734,-0.2981747,-1.0291166,-2.7904382,0.17640641,1.0693457,-0.33008865,-0.24472249,1.2069927,-0.23203674,0.9310726,0.323901,-0.0022070073,0.056902945,-2.228374,2.7064915,-1.5932739,1.0312157,0.09669957,0.8462588,-0.67927784,-2.0089586,-0.1629101,0.63694626,-0.82290655,0.7490154,-1.946451,0.8005338,0.39918283
source_dataset:TGW,-0.63926125,0.80002975,-1.3120625,-0.8975853,-0.39902738,-0.64528656,-0.34017098,1.5352687,1.6568792,-0.31197575,-0.47666338,0.12201901,1.0897741,0.2684071,-0.18519716,-0.4352815,0.90209246,-1.3433356,-0.76868695,2.412366,-1.5057913,0.72429466,-0.37799162,-0.004203867,0.19050893,-2.295675,1.112566,-1.1524252,0.33601502,-0.08680748,1.8953758,-0.7216334,0.34682927,-0.9575153,1.0343926,0.8139511,0.4937279,-0.8032497,1.2449859,0.5114376,1.2184165,0.20163088,0.54927284,-1.1341171,-1.02893,0.515394,-1.324982,-1.7252479,-0.3817254,0.19279157,1.5257058,-0.019424483,0.46646988,-0.25080377,1.2783496,1.0327747,-1.669956,0.5683967,0.72470367,-1.1733794,-0.13544865,0.50007075,1.0407039,0.15403081,-1.1494251,1.4865338,0.2439143,0.18615684,0.11665005,-2.3767774,-1.4818218,-0.77951586,-1.3588759,-0.54926085,-2.2897189,-0.0942611,0.62341356,1.365979,0.113201186
source_dataset:NCI-H1836,0.84840536,1.5453134,-0.26331764,-1.469429,0.8225804,-0.8751054,-0.7709032,-1.080489,2.0707037,0.35071284,-1.1719764,1.4251939,0.93839425,-0.60561574,-0.16441727,1.87565,0.4127791,1.4929849,0.05756243,0.5913462,-0.48489198,-0.29255417,0.23877385,-0.16903779,1.4474821,-1.2591827,1.4718266,-0.44626707,0.73119533,-0.23037818,-0.4305886,-0.2120223,0.98567617,0.72138536,1.2449436,-0.20515442,-0.06328724,0.6353762,0.6820447,2.6970727,1.5144211,0.64132565,1.2909397,-0.38651815,0.4212182,-1.1275733,-1.0881003,-1.3681719,0.7717838,-0.7249315,0.77529055,0.17404827,0.08433302,-2.8539624,-0.3330546,0.46718812,0.6208006,-0.31400576,0.09585196,-1.4696388,1.1291873,-0.23219052,0.29647937,-1.4880177,-1.8741513,2.6794128,-1.6025149,0.94337964,0.35500267,0.9853802,-0.4300061,-1.5997885,0.38649574,0.6300015,-0.57387704,-0.058242753,-1.2629937,1.6086159,0.7613463
source_dataset:ES-2,-0.025101319,-0.07389899,0.32745194,-0.60800964,0.6150935,0.44388127,0.05993741,1.4052808,0.259258,-0.283921,-1.3763849,0.19297308,-0.7362603,-0.48945183,-0.74911255,-1.0067003,1.2268598,-1.1720339,-0.2011725,1.1197112,0.12548827,0.31110743,1.7291896,-0.11359375,-1.6426514,-1.2425197,-0.1930872,-0.3557031,0.28480244,0.5404677,-0.36224568,1.4015996,-1.0584998,-1.7323787,-0.71552294,1.0074173,-0.12642308,-0.29402962,0.3437748,-0.3102923,0.86190623,-1.2798877,-0.023151498,1.1613891,0.45890534,0.20720442,0.5451184,0.73929507,0.41760755,0.2358933,0.5594162,-0.789198,-0.65167135,0.71388096,-1.3241775,1.3502139,-1.0840948,-1.1173064,0.02447182,1.9606676,-0.7458263,0.5711106,-0.19443136,-0.807258,-0.26593697,-0.033349726,0.9790183,-0.17025754,-0.54628587,-2.3058982,0.4677347,1.4689114,0.9590383,-1.8326509,-1.0039002,-0.37308124,-0.19906646,-1.5503501,-0.031254053
source_dataset:BC-1,2.7348773,0.13267466,0.040235907,0.014715418,0.8629224,-0.17502928,-2.0550604,-1.2358184,0.33707762,1.0886711,-0.60694826,-1.6124254,-0.2771213,0.04885589,-1.3971455,-1.1056508,-0.29944164,-1.0069858,-0.42800477,-0.25777647,2.3009753,-2.0333266,-0.10809164,1.4167979,1.0722781,-0.878981,-0.91745216,-1.3587745,-0.5065958,0.61389285,1.0306225,-1.6318495,1.0058737,1.2407091,0.47389352,-1.6682293,-0.502079,0.89413697,0.26072767,-2.3829656,-0.75458026,-1.5508356,-1.0678557,-1.6242893,-1.1699426,-2.3304265,-0.37322268,-0.8200848,-1.9773202,-0.36892745,-2.794761,1.5700909,1.5370141,1.1585243,-0.5304704,-1.4020034,-2.6591542,1.5182843,-0.60027826,0.5709847,-0.19376788,0.40952754,2.5214553,-1.2629112,0.637828,0.18324208,1.1419017,1.0552893,1.8474137,-0.9515153,-0.20711385,1.5153519,-0.5324396,0.45717636,0.65685326,1.293502,1.077836,-1.2600114,-0.35490477
source_dataset:SW48,0.7664704,-0.44400895,-0.195582,2.1187265,1.1640698,0.079649284,2.1496062,1.7263042,-0.43009287,-2.5934896,-2.0687773,-1.5782119,-0.27699387,3.1112726,1.3407447,0.9945847,-1.9713817,1.3687218,0.50599915,-0.6503537,1.9772434,1.6610938,1.2445934,-1.3250885,-1.3462074,0.543449,0.16848913,1.6404241,0.7300668,-0.2799578,-2.086917,-1.1335853,-0.99967927,-1.3767177,1.1725565,-0.68878365,-1.257466,1.0228424,2.8755841,1.0337234,0.17665483,0.0833095,0.75054723,-0.17517504,0.8395761,0.6832152,0.74342,0.7390488,0.68324167,-2.9398584,-0.9946457,-2.0832644,0.73668617,-1.2753193,0.98335004,-0.37220076,0.6053546,0.71091074,0.99633867,0.11405432,-1.0957049,0.88210094,0.04582465,-0.53365046,1.7808602,-0.89075434,1.3472378,0.035758868,2.231293,-0.7555613,-0.15080595,0.14875582,2.0020542,0.699652,2.798024,0.77501655,-0.5086596,0.6387147,-0.69299006
source_dataset:TK [Human B-cell lymphoma],-0.8024155,0.48227516,0.5240674,0.75464463,0.14622568,0.71959966,-2.0575967,-2.5546834,1.1318029,-0.17508033,-0.15069307,-2.0686514,-0.21045674,-1.3519328,0.20932615,0.61053544,1.0752828,-0.22598216,0.7499571,-0.56227386,1.8552041,-0.5618886,1.7337024,0.65645117,0.96320915,-0.03956867,0.7628087,-0.55218756,-0.12469968,-0.41456243,0.73697996,-0.665127,0.35263357,0.59974194,-0.10142432,-1.0127342,2.0122225,-1.0857809,-0.42298794,0.4224065,-0.40674835,-1.143362,0.85636306,-1.1582507,-1.5823419,-2.0634754,0.24294993,-0.94799244,-1.2890129,0.5055451,0.07229638,1.5092926,-0.5992822,0.15367296,-1.297326,1.0479275,0.513607,-1.9467299,0.5050856,-0.024562813,-0.6416609,-0.5570061,1.6280899,-0.28323272,1.0194478,1.0769145,0.3236865,0.33820084,0.6574645,-0.9637815,-1.5295914,0.8938409,-0.29545414,2.1082542,-1.2289367,0.29054192,-0.39866242,0.66079533,0.024398535
source_dataset:ES4,-0.96873325,-1.5742853,0.034457963,-0.7540815,-0.0183779,0.19389054,1.1775068,0.06455067,-0.790066,-0.0152066685,1.1078091,0.41665035,1.8358641,-0.13734588,0.7458334,-0.9759615,-1.4603542,0.30021983,0.22745496,2.0244606,1.0050346,0.93071324,-0.018333038,1.2742529,0.36474568,1.2308658,0.12915458,0.8752645,-2.0245304,0.9313753,0.36572504,0.36077482,-0.6075914,0.90551144,-0.15092862,1.471294,0.9578692,-2.0864744,0.012818031,0.20053741,-0.46472383,0.6236687,2.524284,-1.4435935,-1.8230151,-0.8189762,-0.2511995,0.9474729,-1.542632,-0.3650572,0.0730426,0.34177577,1.2635205,0.12273808,0.39648753,0.23850209,-0.68354297,-0.2287311,-0.55823356,0.06262581,0.012184389,-0.79663974,0.34811857,-1.0126117,1.8109667,0.11155831,-1.092181,-2.2006025,-0.13587907,-0.7888485,0.24598253,-1.8900117,-0.18706527,0.28330484,-1.2255343,-0.85054374,0.17081764,1.9971949,-2.143845
source_dataset:NCI-H1693,-1.4200141,-0.3282054,0.45197985,-0.035123862,-0.84974587,-1.369631,0.08976635,0.9185797,0.35370216,-0.26217234,0.52471435,1.5049068,-0.27532008,-2.3072865,0.37308443,0.62328225,-0.8581914,-0.136048,-0.95943487,1.8044969,0.26631007,-0.18429852,-0.27040327,0.5753374,0.390818,-1.1689816,-0.016301738,0.82451046,0.7715802,-0.6075868,-0.95976555,-1.0864949,0.18754259,-0.95296335,-0.9386038,0.60543185,1.9578373,1.6256603,-0.6566344,0.3750679,-0.86132365,-0.6219616,0.39695176,0.43187818,0.09754016,0.57996947,0.049042396,-1.340543,1.9661125,0.29806468,1.8252232,0.7150464,-0.87493336,1.3240551,1.8111324,-1.0120579,-0.0031229863,-0.6960599,-0.50573933,0.20185104,-1.2142612,1.7066,0.12103072,-2.438082,1.7352141,-1.3551741,0.5146416,-1.1138523,0.10759746,-0.9545535,0.40572566,-0.49800026,0.062719256,-2.9501088,-0.99065393,0.044838883,-0.5044107,0.64505714,0.3270118
source_dataset:NCI-H2369,-0.48761037,-0.43540472,0.092417315,-0.5880504,0.76066464,-0.32627183,-0.36681688,0.34733602,-1.1975685,0.7245667,-1.433621,1.3790088,-1.7216024,-1.3312765,1.3985007,-1.5293747,0.51918435,0.8317011,1.4537448,-0.48521644,-0.46498978,1.5131048,0.88822955,1.1280477,-1.6861877,0.51164806,-1.1201113,-0.12282228,-0.44037125,-0.6218955,0.22408874,0.9306542,-4.0632973,-1.3591312,-1.0610229,2.1341934,0.7800366,-0.34569785,-1.181303,0.6505768,-0.60575444,-0.99411905,-1.0268137,0.7565878,0.7875696,-0.13315591,0.5024609,1.1354645,-0.06264116,0.46508956,0.59784,0.3767823,-0.72992516,-1.0853223,-1.9423205,-0.34674558,0.43937683,-0.5530496,-0.51891255,2.359484,-2.7185788,0.37453574,0.6981857,-0.45987174,1.219527,0.90686506,0.99900436,-0.18058284,-0.33726463,-0.4847726,0.71622515,0.60238534,1.1706351,-0.27820057,-0.1416966,-0.26197153,0.5469824,-0.3568887,-0.41829374
source_dataset:H9,0.20541056,0.3863702,0.13266096,0.4233394,0.67259866,0.33253077,-2.4732285,-1.0349647,-0.3530667,0.6008735,1.5032704,-0.050702944,-0.4493747,-0.75003934,-0.19129825,-0.41610616,1.9312062,0.5761832,-0.84439814,-1.2731669,0.8828179,-1.0120242,0.39731354,-0.342468,1.9526637,-0.89343333,0.4340874,-1.4246936,-1.4189535,-1.0372798,0.8089691,-0.33656883,1.1145804,1.2624892,-0.3737053,-0.33174315,0.37423506,0.1704294,-1.1410767,0.69988155,2.1728919,-0.8408678,0.57222515,-1.4263511,-0.78838557,0.8133966,0.2855649,-0.6501213,-0.07613513,-1.0819211,-1.1176401,1.0954981,0.18943956,0.21886441,-1.9758271,-0.94477814,-1.4996274,-0.41321972,-0.69616115,-0.33381307,0.8058709,0.6482525,0.23952997,0.8768154,-0.23692298,0.7960816,-0.81734,1.6479316,-1.0345405,-1.12937,0.6117966,1.2068167,-0.41210872,1.1216873,-0.5393746,-0.3372681,-0.10690123,-0.49639845,-0.34659925
